1,-1.8228e+05
2,-1.9469e+05
3,-1.9826e+05
4,-2.013e+05
5,-2.0949e+05
6,-2.0977e+05
7,-2.0978e+05
8,-2.1355e+05
9,-2.1454e+05
10,-2.1624e+05
11,-2.1666e+05
12,-2.1677e+05
13,-2.1718e+05
14,-2.1768e+05
15,-2.1784e+05
16,-2.1831e+05
17,-2.1839e+05
18,-2.1931e+05
19,-2.1959e+05
20,-2.2098e+05
21,-2.2133e+05
22,-2.2186e+05
23,-2.2264e+05
24,-2.2292e+05
25,-2.2308e+05
26,-2.2449e+05
27,-2.2452e+05
28,-2.2464e+05
29,-2.254e+05
30,-2.2545e+05
31,-2.2626e+05
32,-2.2744e+05
33,-2.275e+05
34,-2.2879e+05
35,-2.2897e+05
36,-2.2917e+05
37,-2.2944e+05
38,-2.296e+05
39,-2.3038e+05
40,-2.307e+05
41,-2.3073e+05
42,-2.3093e+05
43,-2.3097e+05
44,-2.3195e+05
45,-2.3197e+05
46,-2.3258e+05
47,-2.3313e+05
48,-2.3334e+05
49,-2.3348e+05
50,-2.3366e+05
51,-2.3381e+05
52,-2.3409e+05
53,-2.343e+05
54,-2.3454e+05
55,-2.3517e+05
56,-2.3552e+05
57,-2.358e+05
58,-2.3606e+05
59,-2.3615e+05
60,-2.3645e+05
61,-2.365e+05
62,-2.368e+05
63,-2.3826e+05
64,-2.3831e+05
65,-2.3834e+05
66,-2.3841e+05
67,-2.385e+05
68,-2.3887e+05
69,-2.3904e+05
70,-2.3949e+05
71,-2.3962e+05
72,-2.3985e+05
73,-2.3991e+05
74,-2.4009e+05
75,-2.4022e+05
76,-2.4024e+05
77,-2.4028e+05
78,-2.4037e+05
79,-2.4062e+05
80,-2.4063e+05
81,-2.4076e+05
82,-2.4176e+05
83,-2.4183e+05
84,-2.4199e+05
85,-2.42e+05
86,-2.4211e+05
87,-2.4211e+05
88,-2.4243e+05
89,-2.4256e+05
90,-2.4258e+05
91,-2.426e+05
92,-2.4266e+05
93,-2.4316e+05
94,-2.4317e+05
95,-2.4353e+05
96,-2.441e+05
97,-2.4429e+05
98,-2.4443e+05
99,-2.453e+05
100,-2.4534e+05
101,-2.4545e+05
102,-2.4579e+05
103,-2.4579e+05
104,-2.4587e+05
105,-2.4614e+05
106,-2.462e+05
107,-2.4643e+05
108,-2.4653e+05
109,-2.4663e+05
110,-2.4689e+05
111,-2.4713e+05
112,-2.4715e+05
113,-2.4734e+05
114,-2.4773e+05
115,-2.4804e+05
116,-2.4813e+05
117,-2.4817e+05
118,-2.4829e+05
119,-2.4846e+05
120,-2.4851e+05
121,-2.487e+05
122,-2.4882e+05
123,-2.4885e+05
124,-2.4895e+05
125,-2.4907e+05
126,-2.491e+05
127,-2.4942e+05
128,-2.4957e+05
129,-2.5e+05
130,-2.5013e+05
131,-2.5015e+05
132,-2.5047e+05
133,-2.5051e+05
134,-2.5092e+05
135,-2.5092e+05
136,-2.5102e+05
137,-2.5124e+05
138,-2.5133e+05
139,-2.5136e+05
140,-2.5137e+05
141,-2.5146e+05
142,-2.5156e+05
143,-2.5266e+05
144,-2.5269e+05
145,-2.5292e+05
146,-2.531e+05
147,-2.532e+05
148,-2.5324e+05
149,-2.5329e+05
150,-2.5342e+05
151,-2.5446e+05
152,-2.5457e+05
153,-2.5503e+05
154,-2.554e+05
155,-2.5551e+05
156,-2.5553e+05
157,-2.5555e+05
158,-2.5589e+05
159,-2.5595e+05
160,-2.5621e+05
161,-2.5639e+05
162,-2.5639e+05
163,-2.5664e+05
164,-2.5668e+05
165,-2.5673e+05
166,-2.5713e+05
167,-2.5723e+05
168,-2.5731e+05
169,-2.5744e+05
170,-2.5759e+05
171,-2.5772e+05
172,-2.5822e+05
173,-2.5846e+05
174,-2.5857e+05
175,-2.5917e+05
176,-2.5923e+05
177,-2.5956e+05
178,-2.5957e+05
179,-2.5973e+05
180,-2.5979e+05
181,-2.5986e+05
182,-2.5988e+05
183,-2.5991e+05
184,-2.5992e+05
185,-2.6015e+05
186,-2.6034e+05
187,-2.6047e+05
188,-2.6077e+05
189,-2.6081e+05
190,-2.6121e+05
191,-2.6133e+05
192,-2.6141e+05
193,-2.615e+05
194,-2.6158e+05
195,-2.6209e+05
196,-2.6218e+05
197,-2.6238e+05
198,-2.6238e+05
199,-2.6257e+05
200,-2.6293e+05
201,-2.6316e+05
202,-2.6318e+05
203,-2.6327e+05
204,-2.6352e+05
205,-2.6367e+05
206,-2.6403e+05
9594,-2.6414e+05
207,-2.6423e+05
208,-2.6431e+05
209,-2.6437e+05
210,-2.6445e+05
211,-2.6445e+05
212,-2.6531e+05
213,-2.6537e+05
214,-2.6553e+05
215,-2.6565e+05
216,-2.6566e+05
217,-2.6584e+05
218,-2.6593e+05
219,-2.6593e+05
220,-2.6595e+05
221,-2.6599e+05
222,-2.662e+05
223,-2.6633e+05
224,-2.6644e+05
225,-2.6656e+05
226,-2.6658e+05
227,-2.6667e+05
228,-2.6699e+05
229,-2.673e+05
230,-2.6766e+05
231,-2.6768e+05
232,-2.6775e+05
233,-2.6775e+05
234,-2.678e+05
235,-2.6787e+05
236,-2.6793e+05
237,-2.6793e+05
238,-2.6794e+05
239,-2.6803e+05
240,-2.6807e+05
241,-2.6827e+05
242,-2.683e+05
243,-2.6844e+05
244,-2.6846e+05
245,-2.6849e+05
246,-2.6857e+05
247,-2.6865e+05
248,-2.6882e+05
249,-2.6901e+05
250,-2.6904e+05
251,-2.6927e+05
252,-2.6931e+05
253,-2.6933e+05
254,-2.6934e+05
255,-2.6941e+05
256,-2.6955e+05
257,-2.6959e+05
258,-2.6961e+05
259,-2.6971e+05
260,-2.6982e+05
261,-2.6997e+05
262,-2.7021e+05
263,-2.7027e+05
264,-2.7075e+05
265,-2.7079e+05
266,-2.709e+05
267,-2.7107e+05
268,-2.7123e+05
269,-2.7126e+05
270,-2.7128e+05
271,-2.7148e+05
272,-2.7151e+05
273,-2.7167e+05
274,-2.7182e+05
275,-2.7185e+05
276,-2.7186e+05
277,-2.7192e+05
278,-2.7213e+05
279,-2.7221e+05
280,-2.7234e+05
281,-2.7246e+05
282,-2.7273e+05
283,-2.7281e+05
284,-2.7286e+05
285,-2.7312e+05
286,-2.7321e+05
287,-2.7358e+05
288,-2.7363e+05
289,-2.7364e+05
290,-2.7377e+05
291,-2.7394e+05
292,-2.7404e+05
293,-2.7412e+05
294,-2.7413e+05
295,-2.7414e+05
296,-2.7433e+05
297,-2.7434e+05
298,-2.7452e+05
299,-2.746e+05
300,-2.7465e+05
301,-2.747e+05
302,-2.7494e+05
303,-2.7518e+05
304,-2.7524e+05
305,-2.7533e+05
306,-2.7534e+05
307,-2.7541e+05
308,-2.7554e+05
309,-2.7572e+05
310,-2.7604e+05
311,-2.7619e+05
312,-2.7622e+05
313,-2.7624e+05
314,-2.7653e+05
315,-2.7655e+05
316,-2.7658e+05
317,-2.7659e+05
318,-2.7671e+05
319,-2.7698e+05
320,-2.7703e+05
321,-2.7706e+05
322,-2.7744e+05
323,-2.777e+05
324,-2.7774e+05
325,-2.7776e+05
326,-2.7778e+05
327,-2.7792e+05
328,-2.7802e+05
329,-2.7816e+05
330,-2.7832e+05
331,-2.7842e+05
332,-2.7847e+05
333,-2.7852e+05
334,-2.7859e+05
335,-2.7866e+05
336,-2.7873e+05
337,-2.7901e+05
338,-2.7908e+05
339,-2.7928e+05
340,-2.7929e+05
341,-2.7929e+05
342,-2.7938e+05
343,-2.7944e+05
344,-2.7949e+05
345,-2.7989e+05
346,-2.7994e+05
347,-2.7994e+05
348,-2.7995e+05
349,-2.8001e+05
350,-2.8002e+05
351,-2.8014e+05
352,-2.8016e+05
353,-2.8026e+05
354,-2.8029e+05
355,-2.8043e+05
356,-2.8047e+05
357,-2.8069e+05
358,-2.807e+05
359,-2.8073e+05
360,-2.8073e+05
361,-2.8078e+05
362,-2.8084e+05
363,-2.8084e+05
364,-2.8089e+05
365,-2.809e+05
366,-2.8092e+05
367,-2.8096e+05
368,-2.8112e+05
369,-2.812e+05
370,-2.8128e+05
371,-2.8128e+05
372,-2.8135e+05
373,-2.8137e+05
374,-2.8143e+05
375,-2.8144e+05
376,-2.8159e+05
377,-2.8165e+05
378,-2.8166e+05
379,-2.8183e+05
380,-2.8188e+05
381,-2.8201e+05
382,-2.8201e+05
383,-2.8205e+05
384,-2.8214e+05
385,-2.822e+05
386,-2.8241e+05
387,-2.8245e+05
388,-2.8255e+05
389,-2.8268e+05
390,-2.8271e+05
391,-2.8274e+05
392,-2.8319e+05
393,-2.8338e+05
394,-2.8359e+05
395,-2.8378e+05
396,-2.839e+05
397,-2.8395e+05
398,-2.8406e+05
7781,-2.841e+05
399,-2.8411e+05
400,-2.842e+05
401,-2.8424e+05
402,-2.8435e+05
403,-2.8445e+05
404,-2.8447e+05
405,-2.8475e+05
406,-2.8481e+05
407,-2.8484e+05
408,-2.85e+05
409,-2.8505e+05
410,-2.8538e+05
411,-2.8544e+05
412,-2.8548e+05
413,-2.8572e+05
414,-2.8578e+05
415,-2.8583e+05
416,-2.8585e+05
417,-2.8594e+05
418,-2.8613e+05
419,-2.8617e+05
420,-2.8618e+05
421,-2.8626e+05
422,-2.8646e+05
423,-2.8649e+05
424,-2.8657e+05
425,-2.8666e+05
426,-2.8677e+05
427,-2.8682e+05
428,-2.8687e+05
429,-2.8705e+05
430,-2.8706e+05
431,-2.8708e+05
432,-2.8722e+05
433,-2.8744e+05
434,-2.8745e+05
435,-2.8752e+05
436,-2.8752e+05
437,-2.8757e+05
438,-2.8769e+05
439,-2.8794e+05
440,-2.8798e+05
441,-2.8799e+05
442,-2.8805e+05
443,-2.8809e+05
444,-2.881e+05
445,-2.8811e+05
446,-2.8821e+05
447,-2.8822e+05
448,-2.8826e+05
449,-2.8835e+05
450,-2.8866e+05
451,-2.8871e+05
452,-2.8873e+05
453,-2.8881e+05
454,-2.8883e+05
455,-2.8885e+05
456,-2.8908e+05
457,-2.8937e+05
458,-2.8939e+05
459,-2.8973e+05
460,-2.8975e+05
461,-2.8984e+05
462,-2.9e+05
463,-2.9014e+05
464,-2.9015e+05
465,-2.9019e+05
466,-2.9025e+05
467,-2.9025e+05
468,-2.9033e+05
469,-2.9056e+05
470,-2.9065e+05
471,-2.9085e+05
472,-2.9085e+05
473,-2.9101e+05
474,-2.9116e+05
475,-2.9125e+05
476,-2.9133e+05
477,-2.9142e+05
478,-2.9147e+05
479,-2.9151e+05
480,-2.9156e+05
481,-2.9174e+05
482,-2.9183e+05
483,-2.9195e+05
484,-2.9204e+05
485,-2.9223e+05
486,-2.9225e+05
487,-2.9233e+05
488,-2.9236e+05
489,-2.9242e+05
490,-2.9249e+05
491,-2.9249e+05
492,-2.9259e+05
493,-2.9262e+05
494,-2.9263e+05
495,-2.9265e+05
496,-2.9268e+05
497,-2.927e+05
498,-2.9271e+05
499,-2.9273e+05
500,-2.9284e+05
501,-2.9294e+05
502,-2.9299e+05
503,-2.9322e+05
504,-2.9323e+05
505,-2.9343e+05
506,-2.9345e+05
507,-2.9363e+05
508,-2.9363e+05
509,-2.9364e+05
510,-2.9368e+05
511,-2.9388e+05
512,-2.9399e+05
513,-2.941e+05
514,-2.9412e+05
515,-2.9417e+05
516,-2.942e+05
517,-2.9424e+05
518,-2.9426e+05
519,-2.9428e+05
520,-2.9432e+05
521,-2.9438e+05
522,-2.9443e+05
523,-2.9444e+05
524,-2.9458e+05
525,-2.9459e+05
526,-2.9466e+05
527,-2.9474e+05
528,-2.9485e+05
529,-2.9498e+05
530,-2.9502e+05
531,-2.9519e+05
532,-2.952e+05
533,-2.9538e+05
534,-2.9553e+05
535,-2.9554e+05
536,-2.9554e+05
537,-2.9563e+05
538,-2.9575e+05
539,-2.9581e+05
540,-2.9581e+05
541,-2.9581e+05
542,-2.9586e+05
543,-2.9594e+05
544,-2.9614e+05
545,-2.962e+05
546,-2.9623e+05
547,-2.9626e+05
548,-2.9636e+05
549,-2.9642e+05
550,-2.9661e+05
551,-2.9668e+05
552,-2.9684e+05
553,-2.97e+05
554,-2.9708e+05
555,-2.9709e+05
556,-2.9712e+05
557,-2.9717e+05
558,-2.9732e+05
559,-2.9735e+05
560,-2.9744e+05
561,-2.9745e+05
562,-2.9776e+05
563,-2.9778e+05
564,-2.9779e+05
565,-2.978e+05
566,-2.9795e+05
567,-2.9816e+05
568,-2.9822e+05
569,-2.9828e+05
570,-2.9829e+05
571,-2.9832e+05
572,-2.985e+05
573,-2.9857e+05
574,-2.986e+05
575,-2.9867e+05
576,-2.9872e+05
577,-2.9875e+05
578,-2.9876e+05
579,-2.9881e+05
580,-2.9904e+05
581,-2.9911e+05
582,-2.9915e+05
583,-2.9922e+05
584,-2.9926e+05
585,-2.9942e+05
586,-2.9945e+05
587,-2.9945e+05
588,-2.996e+05
589,-2.9963e+05
590,-2.9977e+05
591,-2.9981e+05
592,-2.9983e+05
593,-2.9985e+05
594,-2.9988e+05
595,-3.0003e+05
596,-3.0011e+05
597,-3.0013e+05
598,-3.0013e+05
599,-3.0018e+05
600,-3.002e+05
601,-3.002e+05
602,-3.0028e+05
603,-3.0029e+05
604,-3.0055e+05
605,-3.0057e+05
606,-3.0062e+05
607,-3.0066e+05
608,-3.0072e+05
609,-3.0081e+05
610,-3.0084e+05
611,-3.0086e+05
612,-3.0087e+05
613,-3.0087e+05
614,-3.0092e+05
615,-3.0094e+05
616,-3.0094e+05
617,-3.0096e+05
618,-3.0098e+05
619,-3.0099e+05
620,-3.0124e+05
621,-3.0125e+05
622,-3.0135e+05
623,-3.0147e+05
624,-3.0149e+05
625,-3.0161e+05
626,-3.0175e+05
627,-3.0212e+05
628,-3.0215e+05
629,-3.0224e+05
630,-3.0225e+05
631,-3.0231e+05
632,-3.0232e+05
633,-3.0235e+05
634,-3.025e+05
635,-3.0252e+05
636,-3.0255e+05
637,-3.0285e+05
638,-3.0303e+05
639,-3.0326e+05
640,-3.033e+05
641,-3.033e+05
642,-3.0337e+05
643,-3.0352e+05
644,-3.0357e+05
645,-3.0365e+05
646,-3.0378e+05
647,-3.0382e+05
648,-3.0385e+05
649,-3.0389e+05
650,-3.0392e+05
651,-3.0407e+05
652,-3.0409e+05
653,-3.0418e+05
654,-3.0431e+05
655,-3.0447e+05
656,-3.0447e+05
657,-3.0454e+05
658,-3.0461e+05
659,-3.0467e+05
660,-3.0468e+05
661,-3.047e+05
662,-3.0474e+05
663,-3.0479e+05
664,-3.0488e+05
665,-3.0491e+05
666,-3.0498e+05
667,-3.05e+05
668,-3.0506e+05
669,-3.051e+05
670,-3.0513e+05
671,-3.0537e+05
672,-3.0542e+05
673,-3.0565e+05
674,-3.0567e+05
675,-3.057e+05
676,-3.0583e+05
677,-3.059e+05
678,-3.0616e+05
679,-3.0618e+05
680,-3.0628e+05
681,-3.0629e+05
682,-3.0643e+05
683,-3.0644e+05
684,-3.0645e+05
685,-3.0669e+05
686,-3.0676e+05
687,-3.0681e+05
688,-3.0682e+05
689,-3.0686e+05
690,-3.0688e+05
691,-3.069e+05
692,-3.0693e+05
693,-3.0695e+05
694,-3.0705e+05
695,-3.0716e+05
696,-3.073e+05
697,-3.0748e+05
698,-3.0759e+05
699,-3.076e+05
700,-3.0767e+05
701,-3.077e+05
702,-3.0774e+05
703,-3.0784e+05
704,-3.0815e+05
705,-3.0821e+05
706,-3.0827e+05
707,-3.083e+05
708,-3.0843e+05
709,-3.0845e+05
710,-3.0866e+05
711,-3.0879e+05
712,-3.0889e+05
713,-3.0902e+05
714,-3.0903e+05
715,-3.0918e+05
716,-3.0934e+05
717,-3.0937e+05
718,-3.0954e+05
719,-3.0956e+05
720,-3.0961e+05
721,-3.097e+05
722,-3.0972e+05
723,-3.0974e+05
724,-3.0988e+05
725,-3.0989e+05
726,-3.0994e+05
727,-3.0996e+05
728,-3.1001e+05
729,-3.1013e+05
730,-3.1019e+05
731,-3.102e+05
732,-3.1022e+05
733,-3.1027e+05
734,-3.1028e+05
735,-3.1062e+05
736,-3.1083e+05
737,-3.1094e+05
738,-3.1098e+05
739,-3.1106e+05
740,-3.1112e+05
741,-3.1113e+05
742,-3.1122e+05
743,-3.1125e+05
744,-3.1127e+05
745,-3.1131e+05
746,-3.1136e+05
747,-3.1144e+05
748,-3.1163e+05
749,-3.1164e+05
750,-3.1171e+05
751,-3.1176e+05
752,-3.1177e+05
753,-3.1186e+05
754,-3.1193e+05
755,-3.1196e+05
756,-3.1196e+05
757,-3.1217e+05
758,-3.1225e+05
759,-3.1235e+05
760,-3.1239e+05
761,-3.1243e+05
762,-3.1243e+05
763,-3.1252e+05
764,-3.1253e+05
765,-3.1257e+05
766,-3.1259e+05
767,-3.1268e+05
768,-3.127e+05
769,-3.1275e+05
770,-3.1277e+05
771,-3.1277e+05
772,-3.1288e+05
773,-3.1295e+05
774,-3.1296e+05
775,-3.1304e+05
776,-3.131e+05
777,-3.1314e+05
778,-3.1319e+05
779,-3.1331e+05
780,-3.1331e+05
781,-3.1337e+05
782,-3.1338e+05
783,-3.1343e+05
784,-3.1347e+05
785,-3.1349e+05
786,-3.1351e+05
787,-3.1359e+05
788,-3.1364e+05
789,-3.1373e+05
790,-3.1373e+05
791,-3.1375e+05
792,-3.1377e+05
793,-3.1396e+05
794,-3.1424e+05
795,-3.1435e+05
796,-3.1437e+05
797,-3.1454e+05
798,-3.1467e+05
799,-3.1471e+05
800,-3.1472e+05
801,-3.1475e+05
802,-3.1476e+05
803,-3.1482e+05
804,-3.1484e+05
805,-3.1484e+05
806,-3.1487e+05
807,-3.149e+05
808,-3.1491e+05
809,-3.1498e+05
810,-3.151e+05
811,-3.1512e+05
812,-3.1521e+05
813,-3.1524e+05
814,-3.1528e+05
815,-3.1534e+05
816,-3.1536e+05
817,-3.1538e+05
818,-3.1548e+05
819,-3.1548e+05
820,-3.1549e+05
821,-3.1551e+05
822,-3.1561e+05
823,-3.1575e+05
824,-3.158e+05
825,-3.1582e+05
826,-3.1583e+05
827,-3.1584e+05
828,-3.1588e+05
829,-3.1589e+05
830,-3.1596e+05
831,-3.1596e+05
832,-3.1599e+05
833,-3.1604e+05
834,-3.1606e+05
835,-3.1615e+05
836,-3.1619e+05
837,-3.1619e+05
838,-3.163e+05
839,-3.1633e+05
840,-3.1639e+05
841,-3.1639e+05
842,-3.1646e+05
843,-3.1646e+05
844,-3.1668e+05
845,-3.1669e+05
846,-3.1672e+05
847,-3.1677e+05
848,-3.168e+05
849,-3.1683e+05
850,-3.1689e+05
851,-3.1692e+05
852,-3.1694e+05
853,-3.1696e+05
854,-3.1738e+05
855,-3.174e+05
856,-3.1742e+05
857,-3.1747e+05
858,-3.1754e+05
859,-3.1759e+05
860,-3.1783e+05
861,-3.1784e+05
862,-3.1787e+05
863,-3.1798e+05
864,-3.1802e+05
865,-3.1817e+05
866,-3.1826e+05
867,-3.1838e+05
868,-3.1865e+05
869,-3.1866e+05
870,-3.1868e+05
871,-3.1872e+05
872,-3.1886e+05
873,-3.1893e+05
874,-3.1908e+05
875,-3.1917e+05
876,-3.1925e+05
877,-3.194e+05
878,-3.1942e+05
879,-3.1944e+05
880,-3.1945e+05
881,-3.1948e+05
882,-3.1989e+05
883,-3.1992e+05
884,-3.1993e+05
885,-3.2012e+05
886,-3.202e+05
887,-3.2031e+05
888,-3.2031e+05
889,-3.204e+05
890,-3.2063e+05
891,-3.2072e+05
892,-3.2087e+05
893,-3.2103e+05
894,-3.2111e+05
895,-3.2127e+05
896,-3.2138e+05
897,-3.2152e+05
898,-3.2153e+05
899,-3.2158e+05
900,-3.2159e+05
901,-3.2162e+05
902,-3.2163e+05
903,-3.2172e+05
904,-3.2184e+05
905,-3.2188e+05
906,-3.2198e+05
907,-3.2212e+05
908,-3.2223e+05
909,-3.2225e+05
910,-3.2225e+05
911,-3.2229e+05
912,-3.2232e+05
913,-3.2237e+05
914,-3.2241e+05
915,-3.2247e+05
916,-3.2247e+05
917,-3.2249e+05
918,-3.2254e+05
919,-3.2254e+05
920,-3.2271e+05
921,-3.2273e+05
922,-3.2274e+05
923,-3.2281e+05
924,-3.2283e+05
925,-3.2292e+05
926,-3.2294e+05
927,-3.2294e+05
928,-3.2295e+05
929,-3.2301e+05
930,-3.2303e+05
931,-3.2309e+05
932,-3.2315e+05
933,-3.2319e+05
934,-3.232e+05
935,-3.2325e+05
936,-3.2327e+05
937,-3.2335e+05
938,-3.2338e+05
939,-3.2341e+05
940,-3.2353e+05
941,-3.2369e+05
942,-3.2375e+05
943,-3.2381e+05
944,-3.2381e+05
945,-3.2398e+05
946,-3.24e+05
947,-3.2403e+05
948,-3.2407e+05
949,-3.2411e+05
950,-3.2416e+05
951,-3.2436e+05
952,-3.2458e+05
953,-3.2461e+05
954,-3.2464e+05
955,-3.2475e+05
956,-3.2483e+05
957,-3.2483e+05
958,-3.2487e+05
959,-3.2493e+05
960,-3.2497e+05
961,-3.2502e+05
962,-3.2515e+05
963,-3.2517e+05
964,-3.2529e+05
965,-3.2531e+05
966,-3.2536e+05
967,-3.2539e+05
968,-3.2541e+05
969,-3.2545e+05
970,-3.2547e+05
971,-3.2553e+05
972,-3.2553e+05
973,-3.2553e+05
974,-3.2557e+05
975,-3.2563e+05
976,-3.2568e+05
977,-3.257e+05
978,-3.258e+05
979,-3.2583e+05
980,-3.2584e+05
981,-3.2598e+05
982,-3.2604e+05
983,-3.2606e+05
984,-3.2608e+05
985,-3.2613e+05
986,-3.2613e+05
987,-3.2632e+05
988,-3.2632e+05
989,-3.2645e+05
990,-3.2645e+05
991,-3.2649e+05
992,-3.2651e+05
993,-3.2651e+05
994,-3.2659e+05
995,-3.2666e+05
996,-3.2679e+05
997,-3.2681e+05
998,-3.2683e+05
999,-3.2688e+05
1000,-3.2701e+05
1001,-3.2706e+05
1002,-3.2711e+05
1003,-3.2716e+05
1004,-3.2744e+05
1005,-3.277e+05
1006,-3.2772e+05
1007,-3.2802e+05
1008,-3.2813e+05
1009,-3.2823e+05
1010,-3.2826e+05
1011,-3.2838e+05
1012,-3.2838e+05
1013,-3.2841e+05
1014,-3.2843e+05
1015,-3.2844e+05
1016,-3.2857e+05
1017,-3.2861e+05
1018,-3.2862e+05
1019,-3.2862e+05
1020,-3.2863e+05
1021,-3.2879e+05
1022,-3.288e+05
1023,-3.2886e+05
1024,-3.2889e+05
1025,-3.289e+05
1026,-3.291e+05
1027,-3.2911e+05
1028,-3.2911e+05
1029,-3.2936e+05
1030,-3.2943e+05
1031,-3.2943e+05
1032,-3.2946e+05
1033,-3.2966e+05
1034,-3.2993e+05
1035,-3.3005e+05
1036,-3.3009e+05
1037,-3.3012e+05
1038,-3.3022e+05
1039,-3.3022e+05
1040,-3.3023e+05
1041,-3.3035e+05
1042,-3.3037e+05
1043,-3.3044e+05
1044,-3.3045e+05
1045,-3.3047e+05
1046,-3.3048e+05
1047,-3.3055e+05
1048,-3.3078e+05
1049,-3.3088e+05
1050,-3.3089e+05
1051,-3.309e+05
1052,-3.3111e+05
1053,-3.3121e+05
1054,-3.3129e+05
1055,-3.3137e+05
1056,-3.3144e+05
1057,-3.3149e+05
1058,-3.3163e+05
1059,-3.3185e+05
1060,-3.3187e+05
1061,-3.3201e+05
1062,-3.3208e+05
1063,-3.3208e+05
1064,-3.3216e+05
1065,-3.3222e+05
1066,-3.3223e+05
1067,-3.3223e+05
1068,-3.3225e+05
1069,-3.3229e+05
1070,-3.3239e+05
1071,-3.326e+05
1072,-3.3262e+05
1073,-3.3271e+05
1074,-3.3271e+05
1075,-3.3272e+05
1076,-3.3274e+05
1077,-3.3283e+05
1078,-3.3296e+05
1079,-3.3298e+05
1080,-3.3299e+05
1081,-3.3305e+05
1082,-3.3306e+05
1083,-3.331e+05
1084,-3.3313e+05
1085,-3.3333e+05
1086,-3.3345e+05
1087,-3.3353e+05
1088,-3.3353e+05
1089,-3.3353e+05
1090,-3.3354e+05
1091,-3.3361e+05
1092,-3.3367e+05
1093,-3.337e+05
1094,-3.3378e+05
1095,-3.3382e+05
1096,-3.3382e+05
1097,-3.3384e+05
1098,-3.3386e+05
1099,-3.3391e+05
1100,-3.3396e+05
1101,-3.3399e+05
1102,-3.3401e+05
1103,-3.3419e+05
1104,-3.347e+05
1105,-3.3476e+05
1106,-3.3477e+05
1107,-3.3479e+05
1108,-3.3498e+05
1109,-3.3507e+05
1110,-3.351e+05
1111,-3.3512e+05
1112,-3.3514e+05
1113,-3.3516e+05
1114,-3.3517e+05
1115,-3.3524e+05
1116,-3.3528e+05
1117,-3.3534e+05
1118,-3.3536e+05
1119,-3.3555e+05
1120,-3.3555e+05
1121,-3.3575e+05
1122,-3.3589e+05
1123,-3.3607e+05
1124,-3.3607e+05
1125,-3.3613e+05
1126,-3.3625e+05
1127,-3.3626e+05
1128,-3.3627e+05
1129,-3.3635e+05
1130,-3.3636e+05
1131,-3.3639e+05
1132,-3.3641e+05
1133,-3.3642e+05
1134,-3.3647e+05
1135,-3.3652e+05
1136,-3.3671e+05
1137,-3.3672e+05
1138,-3.368e+05
1139,-3.3689e+05
1140,-3.3691e+05
1141,-3.3695e+05
1142,-3.3696e+05
1143,-3.3698e+05
1144,-3.3701e+05
1145,-3.3703e+05
1146,-3.3714e+05
1147,-3.3714e+05
1148,-3.3722e+05
1149,-3.3738e+05
1150,-3.3746e+05
1151,-3.375e+05
1152,-3.3765e+05
1153,-3.3766e+05
1154,-3.3769e+05
1155,-3.3769e+05
1156,-3.377e+05
1157,-3.3783e+05
1158,-3.3795e+05
1159,-3.3803e+05
1160,-3.3803e+05
1161,-3.3805e+05
1162,-3.3807e+05
1163,-3.3813e+05
1164,-3.3813e+05
1165,-3.3822e+05
1166,-3.3845e+05
1167,-3.385e+05
1168,-3.3866e+05
1169,-3.3874e+05
1170,-3.3876e+05
1171,-3.3884e+05
1172,-3.3887e+05
1173,-3.3897e+05
1174,-3.3898e+05
1175,-3.3908e+05
1176,-3.3913e+05
1177,-3.3914e+05
1178,-3.3919e+05
1179,-3.3927e+05
1180,-3.3929e+05
1181,-3.393e+05
1182,-3.3962e+05
1183,-3.3983e+05
1184,-3.3984e+05
1185,-3.3986e+05
1186,-3.4002e+05
1187,-3.4003e+05
1188,-3.4013e+05
1189,-3.4017e+05
1190,-3.4025e+05
1191,-3.4028e+05
1192,-3.4039e+05
1193,-3.4041e+05
1194,-3.4043e+05
1195,-3.405e+05
1196,-3.4055e+05
1197,-3.4061e+05
1198,-3.4072e+05
1199,-3.408e+05
1200,-3.4098e+05
1201,-3.4099e+05
1202,-3.4101e+05
1203,-3.4107e+05
1204,-3.4109e+05
1205,-3.4113e+05
1206,-3.4115e+05
1207,-3.4123e+05
1208,-3.413e+05
1209,-3.4134e+05
1210,-3.4141e+05
1211,-3.4143e+05
1212,-3.4147e+05
1213,-3.4148e+05
1214,-3.4149e+05
1215,-3.416e+05
1216,-3.4178e+05
1217,-3.4181e+05
1218,-3.4182e+05
1219,-3.4184e+05
1220,-3.4184e+05
1221,-3.4201e+05
1222,-3.4209e+05
1223,-3.4214e+05
1224,-3.4221e+05
1225,-3.4231e+05
1226,-3.4233e+05
1227,-3.4238e+05
1228,-3.4244e+05
1229,-3.4247e+05
1230,-3.4253e+05
1231,-3.4253e+05
1232,-3.4255e+05
1233,-3.4275e+05
1234,-3.4276e+05
1235,-3.4294e+05
1236,-3.4295e+05
1237,-3.4304e+05
1238,-3.4327e+05
1239,-3.4328e+05
1240,-3.4329e+05
1241,-3.4332e+05
1242,-3.4333e+05
1243,-3.4333e+05
1244,-3.4334e+05
1245,-3.434e+05
1246,-3.4342e+05
1247,-3.4347e+05
1248,-3.436e+05
1249,-3.4366e+05
1250,-3.4378e+05
1251,-3.4386e+05
1252,-3.4387e+05
1253,-3.4406e+05
1254,-3.4407e+05
1255,-3.4419e+05
1256,-3.4424e+05
1257,-3.4434e+05
1258,-3.4437e+05
1259,-3.4442e+05
1260,-3.4442e+05
1261,-3.4443e+05
1262,-3.4446e+05
1263,-3.4448e+05
1264,-3.4459e+05
1265,-3.4472e+05
1266,-3.4481e+05
1267,-3.4486e+05
1268,-3.45e+05
1269,-3.4503e+05
1270,-3.4519e+05
1271,-3.4522e+05
1272,-3.453e+05
1273,-3.4534e+05
1274,-3.4538e+05
1275,-3.4539e+05
1276,-3.4549e+05
1277,-3.4572e+05
1278,-3.4575e+05
1279,-3.4577e+05
1280,-3.4588e+05
1281,-3.4591e+05
1282,-3.46e+05
1283,-3.4603e+05
1284,-3.4608e+05
1285,-3.4615e+05
1286,-3.4618e+05
1287,-3.4623e+05
1288,-3.4628e+05
1289,-3.4629e+05
1290,-3.4629e+05
1291,-3.4631e+05
1292,-3.4636e+05
1293,-3.4639e+05
1294,-3.4645e+05
1295,-3.4655e+05
1296,-3.4659e+05
1297,-3.4662e+05
1298,-3.4669e+05
1299,-3.4669e+05
1300,-3.4672e+05
1301,-3.4696e+05
1302,-3.4699e+05
1303,-3.4701e+05
1304,-3.471e+05
1305,-3.4711e+05
1306,-3.4712e+05
1307,-3.4717e+05
1308,-3.4734e+05
1309,-3.4737e+05
1310,-3.4758e+05
1311,-3.4761e+05
1312,-3.4765e+05
1313,-3.4773e+05
1314,-3.4775e+05
1315,-3.4776e+05
1316,-3.4777e+05
1317,-3.4777e+05
1318,-3.4783e+05
1319,-3.4788e+05
1320,-3.4801e+05
1321,-3.481e+05
1322,-3.4831e+05
1323,-3.4857e+05
1324,-3.4862e+05
1325,-3.4862e+05
1326,-3.4864e+05
1327,-3.488e+05
1328,-3.4884e+05
1329,-3.4889e+05
1330,-3.4889e+05
1331,-3.4904e+05
1332,-3.4914e+05
1333,-3.4916e+05
1334,-3.494e+05
1335,-3.4941e+05
1336,-3.4949e+05
1337,-3.4959e+05
1338,-3.496e+05
8270,-3.4963e+05
1339,-3.4964e+05
1340,-3.4968e+05
1341,-3.4992e+05
1342,-3.5002e+05
1343,-3.5014e+05
1344,-3.5019e+05
1345,-3.502e+05
1346,-3.5022e+05
1347,-3.5031e+05
1348,-3.5041e+05
1349,-3.505e+05
1350,-3.5065e+05
1351,-3.5068e+05
1352,-3.5085e+05
1353,-3.5086e+05
1354,-3.5091e+05
1355,-3.5103e+05
1356,-3.5104e+05
1357,-3.5106e+05
1358,-3.5112e+05
1359,-3.514e+05
1360,-3.5144e+05
1361,-3.5148e+05
1362,-3.5151e+05
1363,-3.5182e+05
1364,-3.5191e+05
1365,-3.5191e+05
1366,-3.5212e+05
1367,-3.5214e+05
1368,-3.5238e+05
1369,-3.5239e+05
1370,-3.5242e+05
1371,-3.5243e+05
1372,-3.5245e+05
1373,-3.525e+05
1374,-3.5258e+05
1375,-3.5263e+05
1376,-3.5263e+05
1377,-3.5267e+05
1378,-3.5279e+05
1379,-3.5284e+05
1380,-3.5285e+05
1381,-3.5312e+05
1382,-3.5317e+05
1383,-3.5323e+05
1384,-3.533e+05
1385,-3.533e+05
1386,-3.5332e+05
1387,-3.5343e+05
1388,-3.5346e+05
1389,-3.5349e+05
1390,-3.535e+05
1391,-3.535e+05
1392,-3.5351e+05
1393,-3.5354e+05
1394,-3.5356e+05
1395,-3.5361e+05
1396,-3.5364e+05
1397,-3.5367e+05
1398,-3.537e+05
1399,-3.538e+05
1400,-3.5391e+05
1401,-3.5392e+05
1402,-3.5396e+05
1403,-3.5396e+05
1404,-3.54e+05
1405,-3.5401e+05
1406,-3.5408e+05
1407,-3.5414e+05
1408,-3.5419e+05
1409,-3.5421e+05
1410,-3.5426e+05
1411,-3.5434e+05
1412,-3.5435e+05
1413,-3.5452e+05
1414,-3.5456e+05
1415,-3.5486e+05
1416,-3.5492e+05
1417,-3.5494e+05
1418,-3.5503e+05
1419,-3.5514e+05
1420,-3.5519e+05
1421,-3.5521e+05
1422,-3.5543e+05
1423,-3.5548e+05
1424,-3.5571e+05
1425,-3.5576e+05
1426,-3.5578e+05
1427,-3.5582e+05
1428,-3.5586e+05
1429,-3.559e+05
1430,-3.5594e+05
1431,-3.5597e+05
1432,-3.5604e+05
1433,-3.5628e+05
1434,-3.5637e+05
1435,-3.5649e+05
1436,-3.5668e+05
1437,-3.5674e+05
1438,-3.5679e+05
1439,-3.5683e+05
1440,-3.5698e+05
1441,-3.5702e+05
1442,-3.5712e+05
1443,-3.5716e+05
1444,-3.5717e+05
1445,-3.5724e+05
1446,-3.5748e+05
1447,-3.5749e+05
1448,-3.5765e+05
1449,-3.5772e+05
1450,-3.5777e+05
1451,-3.5777e+05
1452,-3.5779e+05
1453,-3.5798e+05
1454,-3.5805e+05
1455,-3.5807e+05
1456,-3.5812e+05
1457,-3.5814e+05
1458,-3.5824e+05
1459,-3.5827e+05
1460,-3.5835e+05
1461,-3.5842e+05
1462,-3.5843e+05
1463,-3.5844e+05
1464,-3.5858e+05
1465,-3.586e+05
1466,-3.586e+05
1467,-3.5864e+05
1468,-3.5878e+05
1469,-3.5879e+05
1470,-3.5882e+05
1471,-3.5884e+05
1472,-3.5889e+05
1473,-3.5892e+05
1474,-3.5895e+05
1475,-3.5905e+05
1476,-3.5918e+05
1477,-3.5924e+05
1478,-3.5927e+05
1479,-3.5938e+05
1480,-3.5947e+05
1481,-3.5957e+05
1482,-3.5958e+05
1483,-3.596e+05
1484,-3.5966e+05
1485,-3.5979e+05
1486,-3.5983e+05
1487,-3.5983e+05
1488,-3.5984e+05
1489,-3.5991e+05
1490,-3.5999e+05
1491,-3.6011e+05
1492,-3.6011e+05
1493,-3.6024e+05
1494,-3.6026e+05
1495,-3.6031e+05
1496,-3.604e+05
1497,-3.6052e+05
1498,-3.6054e+05
1499,-3.6065e+05
1500,-3.6066e+05
1501,-3.6071e+05
1502,-3.6077e+05
1503,-3.6096e+05
1504,-3.611e+05
1505,-3.6113e+05
1506,-3.6125e+05
1507,-3.614e+05
1508,-3.6159e+05
1509,-3.617e+05
1510,-3.617e+05
1511,-3.6183e+05
1512,-3.6189e+05
1513,-3.6193e+05
1514,-3.6194e+05
1515,-3.62e+05
1516,-3.6201e+05
1517,-3.6204e+05
1518,-3.6208e+05
1519,-3.6212e+05
1520,-3.6213e+05
1521,-3.6218e+05
1522,-3.6232e+05
1523,-3.6238e+05
1524,-3.6242e+05
1525,-3.6247e+05
1526,-3.626e+05
1527,-3.6265e+05
1528,-3.6274e+05
1529,-3.6277e+05
1530,-3.6279e+05
1531,-3.6298e+05
1532,-3.6298e+05
1533,-3.6301e+05
1534,-3.6306e+05
1535,-3.6307e+05
1536,-3.6323e+05
1537,-3.6325e+05
1538,-3.6331e+05
1539,-3.6353e+05
1540,-3.6356e+05
1541,-3.6358e+05
1542,-3.6364e+05
1543,-3.6366e+05
1544,-3.6383e+05
1545,-3.6389e+05
1546,-3.6399e+05
1547,-3.64e+05
1548,-3.641e+05
1549,-3.6412e+05
1550,-3.6412e+05
1551,-3.643e+05
1552,-3.6442e+05
1553,-3.6443e+05
1554,-3.6461e+05
1555,-3.6465e+05
1556,-3.6475e+05
1557,-3.6477e+05
1558,-3.649e+05
1559,-3.6503e+05
1560,-3.6507e+05
1561,-3.6508e+05
1562,-3.6523e+05
1563,-3.6533e+05
1564,-3.655e+05
1565,-3.6569e+05
1566,-3.6572e+05
1567,-3.6574e+05
1568,-3.6574e+05
1569,-3.6581e+05
1570,-3.6588e+05
1571,-3.6594e+05
1572,-3.6606e+05
1573,-3.6636e+05
1574,-3.6648e+05
1575,-3.6648e+05
1576,-3.6649e+05
1577,-3.665e+05
1578,-3.6653e+05
1579,-3.666e+05
1580,-3.6663e+05
1581,-3.6667e+05
1582,-3.6673e+05
1583,-3.6675e+05
1584,-3.6684e+05
1585,-3.6688e+05
1586,-3.6688e+05
1587,-3.6693e+05
1588,-3.6706e+05
1589,-3.6715e+05
1590,-3.672e+05
1591,-3.6721e+05
1592,-3.6721e+05
1593,-3.6721e+05
1594,-3.6726e+05
1595,-3.6727e+05
1596,-3.674e+05
1597,-3.6748e+05
1598,-3.6749e+05
1599,-3.6753e+05
1600,-3.6758e+05
1601,-3.6762e+05
1602,-3.6772e+05
1603,-3.6772e+05
1604,-3.6775e+05
1605,-3.678e+05
1606,-3.6803e+05
1607,-3.6815e+05
1608,-3.6818e+05
1609,-3.6819e+05
1610,-3.6826e+05
1611,-3.6837e+05
1612,-3.6842e+05
1613,-3.6847e+05
1614,-3.6855e+05
1615,-3.6861e+05
1616,-3.6861e+05
1617,-3.6862e+05
1618,-3.6888e+05
1619,-3.6903e+05
1620,-3.6904e+05
1621,-3.6905e+05
1622,-3.6908e+05
1623,-3.6911e+05
1624,-3.6911e+05
1625,-3.6933e+05
1626,-3.6934e+05
1627,-3.6935e+05
1628,-3.6938e+05
1629,-3.6946e+05
1630,-3.6951e+05
1631,-3.6981e+05
1632,-3.7003e+05
1633,-3.7005e+05
1634,-3.7007e+05
1635,-3.7009e+05
1636,-3.7012e+05
1637,-3.7013e+05
1638,-3.7024e+05
1639,-3.7028e+05
1640,-3.7036e+05
1641,-3.7043e+05
1642,-3.7043e+05
1643,-3.7049e+05
1644,-3.706e+05
1645,-3.7078e+05
1646,-3.7083e+05
1647,-3.7086e+05
1648,-3.7112e+05
1649,-3.7115e+05
1650,-3.7116e+05
1651,-3.7118e+05
1652,-3.7122e+05
1653,-3.7123e+05
1654,-3.7126e+05
1655,-3.7144e+05
1656,-3.7154e+05
1657,-3.7163e+05
1658,-3.7171e+05
1659,-3.7178e+05
1660,-3.7188e+05
1661,-3.7205e+05
1662,-3.7219e+05
1663,-3.7238e+05
1664,-3.7242e+05
1665,-3.7245e+05
1666,-3.7248e+05
1667,-3.7265e+05
1668,-3.7274e+05
1669,-3.7283e+05
1670,-3.7283e+05
1671,-3.7285e+05
1672,-3.7289e+05
1673,-3.7297e+05
1674,-3.7298e+05
1675,-3.73e+05
1676,-3.7304e+05
1677,-3.7308e+05
1678,-3.7312e+05
1679,-3.732e+05
1680,-3.7327e+05
1681,-3.733e+05
1682,-3.7367e+05
7973,-3.737e+05
1683,-3.7375e+05
1684,-3.7383e+05
1685,-3.7388e+05
1686,-3.7389e+05
1687,-3.739e+05
1688,-3.7394e+05
1689,-3.7406e+05
1690,-3.7408e+05
1691,-3.7415e+05
1692,-3.7419e+05
1693,-3.742e+05
8418,-3.7429e+05
1694,-3.7437e+05
1695,-3.7443e+05
1696,-3.7445e+05
1697,-3.7448e+05
1698,-3.7449e+05
1699,-3.745e+05
1700,-3.7453e+05
1701,-3.7461e+05
1702,-3.7464e+05
1703,-3.7472e+05
1704,-3.7498e+05
1705,-3.7503e+05
1706,-3.7508e+05
1707,-3.7511e+05
1708,-3.7512e+05
1709,-3.7519e+05
1710,-3.7534e+05
1711,-3.754e+05
1712,-3.7545e+05
1713,-3.7551e+05
1714,-3.7551e+05
1715,-3.7555e+05
1716,-3.7556e+05
1717,-3.7562e+05
1718,-3.7574e+05
1719,-3.7574e+05
1720,-3.758e+05
1721,-3.7596e+05
1722,-3.7599e+05
1723,-3.7621e+05
1724,-3.7634e+05
1725,-3.7663e+05
1726,-3.7667e+05
1727,-3.7677e+05
1728,-3.768e+05
1729,-3.7686e+05
1730,-3.7689e+05
1731,-3.7698e+05
1732,-3.7698e+05
1733,-3.7725e+05
1734,-3.7726e+05
1735,-3.7744e+05
1736,-3.7745e+05
1737,-3.7746e+05
1738,-3.7756e+05
1739,-3.7773e+05
1740,-3.7781e+05
1741,-3.7783e+05
6767,-3.7803e+05
1742,-3.7807e+05
1743,-3.7808e+05
1744,-3.7812e+05
1745,-3.7815e+05
1746,-3.7824e+05
1747,-3.7844e+05
1748,-3.7854e+05
1749,-3.7857e+05
1750,-3.7859e+05
1751,-3.7859e+05
1752,-3.7863e+05
1753,-3.7875e+05
1754,-3.7878e+05
1755,-3.7886e+05
1756,-3.7889e+05
1757,-3.7892e+05
1758,-3.7894e+05
1759,-3.7908e+05
1760,-3.7908e+05
1761,-3.7922e+05
1762,-3.793e+05
1763,-3.7939e+05
1764,-3.7945e+05
1765,-3.7975e+05
1766,-3.7976e+05
1767,-3.7977e+05
1768,-3.7982e+05
1769,-3.7992e+05
1770,-3.7993e+05
1771,-3.8002e+05
1772,-3.8002e+05
1773,-3.8015e+05
1774,-3.8015e+05
1775,-3.8017e+05
1776,-3.8019e+05
1777,-3.8019e+05
1778,-3.8022e+05
1779,-3.8032e+05
1780,-3.8041e+05
1781,-3.8052e+05
1782,-3.8054e+05
1783,-3.8056e+05
1784,-3.8057e+05
1785,-3.8061e+05
1786,-3.8064e+05
1787,-3.8068e+05
1788,-3.8073e+05
1789,-3.8073e+05
1790,-3.8075e+05
1791,-3.8075e+05
1792,-3.8075e+05
1793,-3.8076e+05
1794,-3.8085e+05
1795,-3.809e+05
1796,-3.8105e+05
1797,-3.811e+05
1798,-3.812e+05
1799,-3.8124e+05
1800,-3.8138e+05
1801,-3.8146e+05
1802,-3.8147e+05
1803,-3.8153e+05
1804,-3.8153e+05
1805,-3.8181e+05
1806,-3.8182e+05
1807,-3.8184e+05
1808,-3.8185e+05
1809,-3.8185e+05
1810,-3.8187e+05
1811,-3.8198e+05
1812,-3.82e+05
1813,-3.8206e+05
1814,-3.8209e+05
1815,-3.8214e+05
1816,-3.8216e+05
1817,-3.8237e+05
1818,-3.8251e+05
1819,-3.8252e+05
1820,-3.826e+05
1821,-3.8261e+05
1822,-3.8265e+05
1823,-3.8281e+05
1824,-3.8282e+05
1825,-3.8287e+05
1826,-3.8287e+05
1827,-3.8289e+05
1828,-3.8295e+05
1829,-3.8295e+05
1830,-3.8298e+05
1831,-3.83e+05
1832,-3.8301e+05
1833,-3.831e+05
1834,-3.8316e+05
1835,-3.8323e+05
1836,-3.8324e+05
1837,-3.8331e+05
1838,-3.8334e+05
1839,-3.8363e+05
1840,-3.8372e+05
1841,-3.8375e+05
1842,-3.8379e+05
1843,-3.838e+05
1844,-3.84e+05
1845,-3.8403e+05
1846,-3.8405e+05
1847,-3.841e+05
1848,-3.8412e+05
1849,-3.8442e+05
1850,-3.8442e+05
1851,-3.8446e+05
1852,-3.8448e+05
1853,-3.8453e+05
1854,-3.8457e+05
1855,-3.846e+05
1856,-3.8468e+05
1857,-3.847e+05
1858,-3.8477e+05
1859,-3.8486e+05
1860,-3.8487e+05
1861,-3.8488e+05
1862,-3.8519e+05
1863,-3.8531e+05
1864,-3.8533e+05
1865,-3.8556e+05
1866,-3.8557e+05
1867,-3.8558e+05
1868,-3.8569e+05
1869,-3.8574e+05
1870,-3.8586e+05
1871,-3.8637e+05
1872,-3.8648e+05
1873,-3.865e+05
1874,-3.865e+05
1875,-3.8654e+05
1876,-3.8659e+05
1877,-3.8663e+05
1878,-3.8664e+05
1879,-3.8665e+05
1880,-3.8669e+05
1881,-3.8675e+05
1882,-3.8681e+05
1883,-3.8682e+05
1884,-3.8686e+05
1885,-3.8687e+05
1886,-3.869e+05
1887,-3.8691e+05
1888,-3.8697e+05
1889,-3.8701e+05
1890,-3.8702e+05
1891,-3.8703e+05
1892,-3.8708e+05
1893,-3.8717e+05
1894,-3.8719e+05
1895,-3.8722e+05
1896,-3.8727e+05
1897,-3.8729e+05
1898,-3.873e+05
1899,-3.8735e+05
1900,-3.8737e+05
1901,-3.8743e+05
1902,-3.8749e+05
1903,-3.8752e+05
1904,-3.8752e+05
1905,-3.876e+05
1906,-3.8762e+05
1907,-3.8764e+05
1908,-3.8766e+05
1909,-3.8793e+05
1910,-3.8797e+05
1911,-3.8798e+05
1912,-3.8799e+05
1913,-3.8805e+05
1914,-3.8809e+05
1915,-3.882e+05
1916,-3.8822e+05
1917,-3.8829e+05
1918,-3.883e+05
1919,-3.8832e+05
1920,-3.8846e+05
1921,-3.886e+05
1922,-3.8874e+05
1923,-3.8884e+05
1924,-3.8893e+05
1925,-3.89e+05
1926,-3.8919e+05
1927,-3.8948e+05
1928,-3.8948e+05
1929,-3.8975e+05
1930,-3.8975e+05
1931,-3.898e+05
1932,-3.8986e+05
1933,-3.8995e+05
1934,-3.8995e+05
1935,-3.8996e+05
1936,-3.8998e+05
1937,-3.9002e+05
1938,-3.901e+05
1939,-3.9012e+05
1940,-3.9014e+05
1941,-3.9019e+05
1942,-3.9023e+05
1943,-3.904e+05
1944,-3.9055e+05
1945,-3.9056e+05
1946,-3.9059e+05
1947,-3.906e+05
1948,-3.9064e+05
1949,-3.9066e+05
1950,-3.9072e+05
1951,-3.9073e+05
1952,-3.908e+05
1953,-3.9085e+05
1954,-3.9086e+05
1955,-3.9087e+05
1956,-3.9087e+05
1957,-3.9095e+05
1958,-3.9095e+05
1959,-3.9097e+05
1960,-3.9118e+05
1961,-3.9124e+05
1962,-3.9129e+05
1963,-3.9131e+05
1964,-3.9133e+05
1965,-3.9135e+05
1966,-3.9139e+05
1967,-3.9145e+05
1968,-3.9151e+05
1969,-3.9155e+05
1970,-3.9161e+05
1971,-3.9164e+05
1972,-3.9164e+05
1973,-3.9166e+05
1974,-3.9169e+05
1975,-3.917e+05
1976,-3.9184e+05
1977,-3.9202e+05
1978,-3.9203e+05
1979,-3.9204e+05
1980,-3.9217e+05
1981,-3.922e+05
1982,-3.9227e+05
1983,-3.9237e+05
1984,-3.9243e+05
1985,-3.9243e+05
1986,-3.9246e+05
1987,-3.925e+05
1988,-3.9261e+05
1989,-3.9271e+05
1990,-3.9279e+05
1991,-3.9305e+05
1992,-3.932e+05
1993,-3.9328e+05
1994,-3.9334e+05
1995,-3.935e+05
1996,-3.9357e+05
1997,-3.9368e+05
1998,-3.9376e+05
1999,-3.9398e+05
2000,-3.9401e+05
2001,-3.9411e+05
2002,-3.9412e+05
2003,-3.9416e+05
2004,-3.9416e+05
2005,-3.9419e+05
2006,-3.944e+05
2007,-3.9442e+05
2008,-3.9447e+05
2009,-3.9447e+05
2010,-3.9448e+05
2011,-3.9448e+05
2012,-3.9449e+05
2013,-3.9465e+05
2014,-3.9478e+05
2015,-3.9482e+05
2016,-3.9486e+05
2017,-3.95e+05
2018,-3.9505e+05
2019,-3.9521e+05
2020,-3.953e+05
2021,-3.9544e+05
2022,-3.9544e+05
2023,-3.9546e+05
2024,-3.9548e+05
2025,-3.9557e+05
2026,-3.9557e+05
2027,-3.9563e+05
2028,-3.9571e+05
2029,-3.9572e+05
2030,-3.9574e+05
2031,-3.9583e+05
2032,-3.9605e+05
2033,-3.9606e+05
2034,-3.9613e+05
2035,-3.9617e+05
2036,-3.9624e+05
2037,-3.9641e+05
2038,-3.9647e+05
2039,-3.9654e+05
2040,-3.9662e+05
2041,-3.9672e+05
2042,-3.9672e+05
2043,-3.9677e+05
2044,-3.9694e+05
2045,-3.9698e+05
2046,-3.9714e+05
2047,-3.9719e+05
2048,-3.973e+05
2049,-3.9735e+05
2050,-3.9737e+05
2051,-3.9739e+05
2052,-3.9746e+05
2053,-3.9752e+05
2054,-3.976e+05
2055,-3.977e+05
2056,-3.9773e+05
2057,-3.9774e+05
2058,-3.9781e+05
2059,-3.9792e+05
2060,-3.9805e+05
2061,-3.9805e+05
2062,-3.9806e+05
2063,-3.9812e+05
2064,-3.9815e+05
2065,-3.983e+05
2066,-3.9839e+05
2067,-3.984e+05
2068,-3.9844e+05
2069,-3.9852e+05
2070,-3.9853e+05
2071,-3.9872e+05
2072,-3.9875e+05
2073,-3.9889e+05
2074,-3.9891e+05
2075,-3.9895e+05
2076,-3.9897e+05
2077,-3.9898e+05
2078,-3.9898e+05
2079,-3.9899e+05
2080,-3.9899e+05
2081,-3.9911e+05
2082,-3.9913e+05
2083,-3.9954e+05
2084,-3.9955e+05
2085,-3.9962e+05
2086,-3.9968e+05
2087,-4.0016e+05
2088,-4.0018e+05
2089,-4.0018e+05
2090,-4.002e+05
2091,-4.0022e+05
2092,-4.0024e+05
2093,-4.0024e+05
2094,-4.004e+05
2095,-4.0041e+05
2096,-4.0043e+05
2097,-4.0054e+05
2098,-4.006e+05
2099,-4.0067e+05
2100,-4.0068e+05
2101,-4.0071e+05
2102,-4.0072e+05
2103,-4.008e+05
2104,-4.0092e+05
2105,-4.01e+05
2106,-4.01e+05
2107,-4.0101e+05
2108,-4.0104e+05
2109,-4.0104e+05
2110,-4.0111e+05
2111,-4.0113e+05
2112,-4.013e+05
2113,-4.0132e+05
2114,-4.0133e+05
2115,-4.0134e+05
2116,-4.0138e+05
2117,-4.0139e+05
2118,-4.015e+05
2119,-4.0155e+05
2120,-4.0155e+05
2121,-4.0157e+05
2122,-4.0179e+05
2123,-4.0197e+05
2124,-4.0199e+05
2125,-4.0201e+05
2126,-4.0201e+05
2127,-4.0207e+05
2128,-4.021e+05
2129,-4.0222e+05
2130,-4.0222e+05
2131,-4.023e+05
2132,-4.0232e+05
2133,-4.0239e+05
2134,-4.0241e+05
2135,-4.0253e+05
2136,-4.0267e+05
2137,-4.0271e+05
2138,-4.0275e+05
2139,-4.0294e+05
2140,-4.03e+05
2141,-4.0308e+05
2142,-4.0317e+05
2143,-4.0319e+05
2144,-4.0322e+05
2145,-4.0333e+05
2146,-4.034e+05
2147,-4.0342e+05
2148,-4.0359e+05
2149,-4.0362e+05
2150,-4.0369e+05
2151,-4.0369e+05
2152,-4.0388e+05
2153,-4.0393e+05
2154,-4.0399e+05
2155,-4.0416e+05
2156,-4.0421e+05
2157,-4.0422e+05
2158,-4.0426e+05
2159,-4.0426e+05
2160,-4.0437e+05
2161,-4.0438e+05
2162,-4.0448e+05
2163,-4.0462e+05
2164,-4.0529e+05
2165,-4.0529e+05
2166,-4.0535e+05
2167,-4.0537e+05
2168,-4.0539e+05
2169,-4.0557e+05
2170,-4.0573e+05
2171,-4.0574e+05
2172,-4.059e+05
2173,-4.0601e+05
2174,-4.0616e+05
2175,-4.063e+05
2176,-4.0647e+05
2177,-4.0651e+05
2178,-4.0684e+05
2179,-4.0685e+05
2180,-4.0705e+05
2181,-4.0717e+05
2182,-4.0722e+05
2183,-4.0731e+05
2184,-4.0739e+05
2185,-4.0746e+05
2186,-4.0753e+05
2187,-4.0763e+05
2188,-4.0766e+05
2189,-4.0771e+05
2190,-4.0772e+05
2191,-4.0778e+05
2192,-4.0779e+05
2193,-4.0781e+05
2194,-4.0782e+05
2195,-4.0786e+05
2196,-4.0797e+05
2197,-4.0798e+05
2198,-4.08e+05
2199,-4.0827e+05
2200,-4.0839e+05
2201,-4.0853e+05
2202,-4.0853e+05
2203,-4.0857e+05
2204,-4.0859e+05
2205,-4.0862e+05
2206,-4.0863e+05
2207,-4.0865e+05
2208,-4.0865e+05
2209,-4.0894e+05
2210,-4.0899e+05
2211,-4.09e+05
2212,-4.0902e+05
2213,-4.091e+05
2214,-4.0935e+05
2215,-4.0936e+05
2216,-4.0945e+05
2217,-4.096e+05
2218,-4.0961e+05
2219,-4.0964e+05
2220,-4.0977e+05
2221,-4.098e+05
2222,-4.0991e+05
2223,-4.1005e+05
2224,-4.1013e+05
2225,-4.1018e+05
2226,-4.1034e+05
2227,-4.1035e+05
2228,-4.1059e+05
2229,-4.1067e+05
2230,-4.1073e+05
2231,-4.1074e+05
2232,-4.1076e+05
2233,-4.1096e+05
2234,-4.1099e+05
2235,-4.1107e+05
2236,-4.1113e+05
2237,-4.1123e+05
2238,-4.1131e+05
2239,-4.1133e+05
2240,-4.1138e+05
2241,-4.1147e+05
2242,-4.1153e+05
2243,-4.1163e+05
2244,-4.1173e+05
2245,-4.1184e+05
2246,-4.1185e+05
2247,-4.1187e+05
2248,-4.1188e+05
2249,-4.1194e+05
2250,-4.1207e+05
2251,-4.1209e+05
10178,-4.1225e+05
2252,-4.123e+05
2253,-4.1232e+05
2254,-4.1248e+05
2255,-4.125e+05
2256,-4.126e+05
2257,-4.1262e+05
2258,-4.1268e+05
2259,-4.1276e+05
2260,-4.1276e+05
2261,-4.1282e+05
2262,-4.1298e+05
2263,-4.1298e+05
2264,-4.1304e+05
2265,-4.1313e+05
2266,-4.1316e+05
2267,-4.1318e+05
2268,-4.1324e+05
2269,-4.1331e+05
2270,-4.1336e+05
2271,-4.1353e+05
2272,-4.1354e+05
2273,-4.1358e+05
2274,-4.1362e+05
2275,-4.1382e+05
2276,-4.1392e+05
2277,-4.1399e+05
2278,-4.1401e+05
2279,-4.1414e+05
2280,-4.1415e+05
2281,-4.1428e+05
2282,-4.143e+05
2283,-4.1433e+05
2284,-4.1433e+05
2285,-4.1434e+05
2286,-4.144e+05
2287,-4.1443e+05
2288,-4.1456e+05
2289,-4.1458e+05
2290,-4.1464e+05
2291,-4.1464e+05
2292,-4.1479e+05
2293,-4.1485e+05
2294,-4.1488e+05
2295,-4.1494e+05
2296,-4.1498e+05
2297,-4.151e+05
2298,-4.1515e+05
2299,-4.1523e+05
2300,-4.1553e+05
2301,-4.1554e+05
2302,-4.1559e+05
2303,-4.156e+05
2304,-4.156e+05
2305,-4.1564e+05
2306,-4.1572e+05
2307,-4.1585e+05
2308,-4.1597e+05
2309,-4.1605e+05
2310,-4.1608e+05
2311,-4.1615e+05
2312,-4.1625e+05
2313,-4.1654e+05
2314,-4.1686e+05
2315,-4.1692e+05
2316,-4.1696e+05
2317,-4.1702e+05
2318,-4.1704e+05
2319,-4.1707e+05
2320,-4.1707e+05
2321,-4.1715e+05
2322,-4.1742e+05
2323,-4.1742e+05
2324,-4.1745e+05
2325,-4.1749e+05
2326,-4.1754e+05
2327,-4.1779e+05
2328,-4.1783e+05
2329,-4.1787e+05
2330,-4.1797e+05
2331,-4.1798e+05
2332,-4.1799e+05
2333,-4.1807e+05
2334,-4.1814e+05
2335,-4.183e+05
2336,-4.1832e+05
2337,-4.1832e+05
2338,-4.1834e+05
2339,-4.1835e+05
2340,-4.1848e+05
2341,-4.1857e+05
2342,-4.1868e+05
2343,-4.1869e+05
2344,-4.187e+05
9242,-4.1876e+05
2345,-4.1882e+05
2346,-4.1885e+05
2347,-4.1887e+05
2348,-4.189e+05
2349,-4.1891e+05
2350,-4.1905e+05
2351,-4.1921e+05
2352,-4.1922e+05
2353,-4.1925e+05
2354,-4.194e+05
2355,-4.1946e+05
2356,-4.1978e+05
2357,-4.2002e+05
2358,-4.2005e+05
2359,-4.2008e+05
2360,-4.2014e+05
2361,-4.2022e+05
2362,-4.2043e+05
2363,-4.205e+05
2364,-4.2068e+05
2365,-4.2069e+05
2366,-4.2079e+05
2367,-4.2088e+05
2368,-4.2098e+05
2369,-4.2105e+05
2370,-4.2125e+05
2371,-4.2126e+05
2372,-4.2131e+05
2373,-4.2132e+05
2374,-4.2135e+05
2375,-4.2143e+05
2376,-4.2144e+05
2377,-4.2165e+05
2378,-4.2171e+05
2379,-4.2174e+05
2380,-4.218e+05
2381,-4.2187e+05
2382,-4.2202e+05
2383,-4.2202e+05
2384,-4.2209e+05
2385,-4.2209e+05
2386,-4.2213e+05
2387,-4.2216e+05
2388,-4.2222e+05
2389,-4.2224e+05
2390,-4.2229e+05
2391,-4.223e+05
2392,-4.2233e+05
2393,-4.2238e+05
2394,-4.224e+05
2395,-4.225e+05
2396,-4.2261e+05
2397,-4.2261e+05
2398,-4.2262e+05
2399,-4.2263e+05
2400,-4.2265e+05
2401,-4.2265e+05
2402,-4.2266e+05
2403,-4.2279e+05
2404,-4.228e+05
2405,-4.2286e+05
2406,-4.2298e+05
2407,-4.2303e+05
2408,-4.2306e+05
2409,-4.2312e+05
2410,-4.2314e+05
2411,-4.2338e+05
2412,-4.2362e+05
2413,-4.237e+05
2414,-4.2375e+05
2415,-4.2403e+05
2416,-4.2403e+05
2417,-4.2407e+05
2418,-4.2411e+05
2419,-4.2411e+05
2420,-4.2417e+05
2421,-4.244e+05
2422,-4.244e+05
2423,-4.2448e+05
2424,-4.245e+05
2425,-4.2452e+05
2426,-4.246e+05
2427,-4.2467e+05
2428,-4.2468e+05
2429,-4.2485e+05
2430,-4.2492e+05
2431,-4.2496e+05
2432,-4.2497e+05
2433,-4.2499e+05
2434,-4.25e+05
2435,-4.25e+05
2436,-4.2504e+05
2437,-4.2505e+05
2438,-4.2506e+05
2439,-4.251e+05
2440,-4.2524e+05
2441,-4.2531e+05
2442,-4.2533e+05
2443,-4.2534e+05
2444,-4.2539e+05
2445,-4.2574e+05
2446,-4.2597e+05
2447,-4.2598e+05
2448,-4.2605e+05
2449,-4.2611e+05
2450,-4.2612e+05
2451,-4.2614e+05
2452,-4.2622e+05
2453,-4.2639e+05
2454,-4.264e+05
2455,-4.2645e+05
2456,-4.2652e+05
2457,-4.2656e+05
2458,-4.2667e+05
2459,-4.2676e+05
2460,-4.2682e+05
2461,-4.2689e+05
2462,-4.2689e+05
2463,-4.2706e+05
2464,-4.2719e+05
2465,-4.2734e+05
2466,-4.2738e+05
2467,-4.2744e+05
2468,-4.2761e+05
2469,-4.2774e+05
2470,-4.2779e+05
2471,-4.2783e+05
2472,-4.2785e+05
2473,-4.279e+05
2474,-4.2794e+05
2475,-4.2794e+05
2476,-4.2801e+05
2477,-4.2801e+05
2478,-4.2806e+05
2479,-4.2811e+05
2480,-4.282e+05
2481,-4.2826e+05
2482,-4.2827e+05
2483,-4.2834e+05
2484,-4.2851e+05
2485,-4.2852e+05
8900,-4.2863e+05
2486,-4.2864e+05
2487,-4.2865e+05
2488,-4.287e+05
2489,-4.2872e+05
2490,-4.2873e+05
2491,-4.2879e+05
2492,-4.2884e+05
2493,-4.2896e+05
2494,-4.2902e+05
2495,-4.2907e+05
2496,-4.291e+05
2497,-4.2918e+05
2498,-4.2924e+05
2499,-4.2929e+05
2500,-4.2946e+05
2501,-4.2954e+05
2502,-4.2956e+05
2503,-4.2962e+05
2504,-4.2965e+05
2505,-4.2973e+05
2506,-4.2974e+05
2507,-4.2975e+05
2508,-4.2991e+05
2509,-4.2995e+05
2510,-4.2996e+05
2511,-4.3015e+05
2512,-4.3029e+05
2513,-4.3032e+05
2514,-4.3043e+05
2515,-4.3044e+05
2516,-4.3051e+05
2517,-4.3059e+05
2518,-4.3066e+05
2519,-4.3068e+05
2520,-4.3074e+05
2521,-4.309e+05
2522,-4.3093e+05
2523,-4.3099e+05
2524,-4.3105e+05
2525,-4.3122e+05
2526,-4.3122e+05
2527,-4.3123e+05
2528,-4.3125e+05
2529,-4.3161e+05
2530,-4.3164e+05
2531,-4.3165e+05
2532,-4.3191e+05
2533,-4.32e+05
2534,-4.3207e+05
2535,-4.3211e+05
2536,-4.3214e+05
2537,-4.3215e+05
2538,-4.3223e+05
2539,-4.3227e+05
2540,-4.3231e+05
2541,-4.3236e+05
2542,-4.3239e+05
2543,-4.3239e+05
2544,-4.3242e+05
2545,-4.3253e+05
2546,-4.3256e+05
2547,-4.326e+05
2548,-4.3261e+05
2549,-4.3263e+05
2550,-4.327e+05
2551,-4.3275e+05
2552,-4.329e+05
2553,-4.3294e+05
2554,-4.3296e+05
2555,-4.3297e+05
2556,-4.3298e+05
2557,-4.3301e+05
2558,-4.3302e+05
2559,-4.3307e+05
2560,-4.3321e+05
2561,-4.3324e+05
2562,-4.3327e+05
2563,-4.3329e+05
2564,-4.3331e+05
2565,-4.3335e+05
2566,-4.3351e+05
2567,-4.3359e+05
2568,-4.3359e+05
2569,-4.3376e+05
2570,-4.3384e+05
2571,-4.3385e+05
2572,-4.339e+05
2573,-4.3399e+05
2574,-4.3403e+05
2575,-4.3425e+05
2576,-4.3431e+05
2577,-4.3448e+05
2578,-4.3448e+05
2579,-4.3454e+05
2580,-4.3456e+05
2581,-4.3462e+05
2582,-4.3466e+05
2583,-4.3467e+05
2584,-4.3474e+05
2585,-4.3476e+05
2586,-4.3487e+05
2587,-4.3499e+05
2588,-4.3501e+05
2589,-4.3502e+05
2590,-4.3526e+05
2591,-4.3529e+05
2592,-4.3532e+05
2593,-4.3541e+05
2594,-4.3549e+05
2595,-4.3561e+05
2596,-4.3566e+05
2597,-4.3573e+05
2598,-4.3577e+05
2599,-4.3584e+05
2600,-4.3585e+05
2601,-4.3591e+05
2602,-4.3598e+05
2603,-4.3604e+05
2604,-4.3611e+05
2605,-4.3613e+05
2606,-4.363e+05
2607,-4.3631e+05
2608,-4.3632e+05
2609,-4.365e+05
2610,-4.3657e+05
2611,-4.3665e+05
2612,-4.3669e+05
2613,-4.3678e+05
2614,-4.3681e+05
2615,-4.3694e+05
2616,-4.3704e+05
2617,-4.3731e+05
2618,-4.3735e+05
2619,-4.3745e+05
2620,-4.3745e+05
2621,-4.3747e+05
2622,-4.3756e+05
2623,-4.3757e+05
2624,-4.3759e+05
2625,-4.3768e+05
2626,-4.3779e+05
2627,-4.3779e+05
2628,-4.3788e+05
2629,-4.3791e+05
2630,-4.382e+05
2631,-4.3821e+05
2632,-4.3842e+05
2633,-4.3855e+05
2634,-4.3862e+05
2635,-4.3878e+05
2636,-4.3879e+05
2637,-4.3881e+05
2638,-4.3882e+05
2639,-4.3884e+05
2640,-4.389e+05
2641,-4.3902e+05
2642,-4.3906e+05
2643,-4.3906e+05
2644,-4.3909e+05
2645,-4.3913e+05
2646,-4.3915e+05
2647,-4.3919e+05
2648,-4.3932e+05
2649,-4.3942e+05
2650,-4.3945e+05
2651,-4.395e+05
2652,-4.3952e+05
2653,-4.3953e+05
2654,-4.3957e+05
2655,-4.398e+05
2656,-4.3983e+05
2657,-4.3989e+05
2658,-4.3996e+05
2659,-4.4007e+05
2660,-4.4016e+05
2661,-4.4021e+05
2662,-4.4023e+05
2663,-4.4024e+05
2664,-4.4029e+05
2665,-4.4029e+05
2666,-4.4032e+05
2667,-4.4048e+05
2668,-4.4049e+05
2669,-4.4051e+05
2670,-4.4053e+05
2671,-4.4059e+05
2672,-4.4064e+05
2673,-4.4065e+05
2674,-4.4069e+05
2675,-4.408e+05
2676,-4.4082e+05
2677,-4.4088e+05
6166,-4.4114e+05
2678,-4.4138e+05
2679,-4.415e+05
2680,-4.4154e+05
2681,-4.4155e+05
2682,-4.4155e+05
2683,-4.4156e+05
2684,-4.4191e+05
2685,-4.4203e+05
2686,-4.4208e+05
2687,-4.4214e+05
2688,-4.4216e+05
2689,-4.4218e+05
2690,-4.4221e+05
2691,-4.4224e+05
2692,-4.4225e+05
2693,-4.4237e+05
2694,-4.4258e+05
2695,-4.4258e+05
2696,-4.427e+05
2697,-4.4271e+05
2698,-4.4282e+05
2699,-4.4284e+05
2700,-4.4286e+05
2701,-4.4319e+05
2702,-4.4328e+05
2703,-4.4332e+05
2704,-4.4338e+05
2705,-4.4346e+05
2706,-4.4381e+05
2707,-4.4386e+05
2708,-4.4392e+05
2709,-4.4392e+05
2710,-4.4394e+05
2711,-4.4412e+05
2712,-4.4413e+05
2713,-4.4424e+05
2714,-4.4445e+05
2715,-4.4465e+05
2716,-4.4468e+05
2717,-4.4484e+05
2718,-4.449e+05
2719,-4.4491e+05
2720,-4.4501e+05
2721,-4.4509e+05
2722,-4.4509e+05
2723,-4.451e+05
2724,-4.4515e+05
2725,-4.4517e+05
2726,-4.4525e+05
2727,-4.4543e+05
2728,-4.4569e+05
2729,-4.4571e+05
2730,-4.4585e+05
2731,-4.4589e+05
2732,-4.4593e+05
2733,-4.4598e+05
2734,-4.4612e+05
2735,-4.4612e+05
2736,-4.4621e+05
2737,-4.4622e+05
2738,-4.4641e+05
2739,-4.4642e+05
2740,-4.4657e+05
2741,-4.4664e+05
2742,-4.467e+05
2743,-4.4681e+05
2744,-4.4691e+05
2745,-4.47e+05
2746,-4.4704e+05
2747,-4.4719e+05
2748,-4.4728e+05
2749,-4.473e+05
2750,-4.4739e+05
2751,-4.4744e+05
2752,-4.4745e+05
2753,-4.4747e+05
2754,-4.4753e+05
2755,-4.4757e+05
2756,-4.4759e+05
2757,-4.4761e+05
2758,-4.4762e+05
2759,-4.4764e+05
2760,-4.4769e+05
2761,-4.4771e+05
2762,-4.4773e+05
2763,-4.4774e+05
2764,-4.4796e+05
2765,-4.4807e+05
2766,-4.4808e+05
2767,-4.4815e+05
2768,-4.4819e+05
2769,-4.4825e+05
2770,-4.4827e+05
2771,-4.4832e+05
2772,-4.4833e+05
2773,-4.4842e+05
2774,-4.4853e+05
2775,-4.4862e+05
2776,-4.4876e+05
2777,-4.4877e+05
2778,-4.4885e+05
2779,-4.489e+05
2780,-4.4896e+05
2781,-4.491e+05
2782,-4.4912e+05
2783,-4.4953e+05
2784,-4.4953e+05
2785,-4.4981e+05
2786,-4.4986e+05
2787,-4.499e+05
2788,-4.4995e+05
2789,-4.5001e+05
2790,-4.5003e+05
2791,-4.5014e+05
2792,-4.5021e+05
2793,-4.5021e+05
2794,-4.5022e+05
2795,-4.5027e+05
2796,-4.5028e+05
2797,-4.5031e+05
2798,-4.5041e+05
2799,-4.5057e+05
2800,-4.5071e+05
2801,-4.5078e+05
2802,-4.508e+05
2803,-4.5093e+05
2804,-4.5094e+05
2805,-4.5106e+05
2806,-4.5108e+05
2807,-4.5113e+05
2808,-4.5123e+05
2809,-4.5138e+05
2810,-4.5139e+05
2811,-4.5139e+05
2812,-4.5142e+05
2813,-4.5146e+05
2814,-4.5149e+05
2815,-4.5152e+05
2816,-4.5153e+05
2817,-4.5156e+05
2818,-4.5157e+05
2819,-4.5162e+05
2820,-4.5164e+05
2821,-4.5175e+05
2822,-4.5187e+05
8328,-4.52e+05
2823,-4.52e+05
2824,-4.5205e+05
2825,-4.5207e+05
2826,-4.5217e+05
2827,-4.5238e+05
2828,-4.5244e+05
2829,-4.5247e+05
2830,-4.5249e+05
2831,-4.5258e+05
2832,-4.5284e+05
2833,-4.5285e+05
2834,-4.5289e+05
2835,-4.5294e+05
2836,-4.5295e+05
2837,-4.53e+05
2838,-4.5316e+05
2839,-4.5322e+05
2840,-4.5329e+05
2841,-4.5349e+05
2842,-4.5356e+05
2843,-4.5357e+05
2844,-4.5365e+05
2845,-4.5393e+05
2846,-4.54e+05
2847,-4.5402e+05
2848,-4.5405e+05
2849,-4.5415e+05
2850,-4.5418e+05
2851,-4.5419e+05
2852,-4.5423e+05
2853,-4.5429e+05
2854,-4.5439e+05
2855,-4.544e+05
2856,-4.5443e+05
2857,-4.5445e+05
2858,-4.5457e+05
2859,-4.5461e+05
7757,-4.5468e+05
2860,-4.547e+05
2861,-4.5473e+05
2862,-4.5484e+05
2863,-4.549e+05
2864,-4.55e+05
2865,-4.55e+05
2866,-4.5504e+05
2867,-4.552e+05
2868,-4.5524e+05
2869,-4.5526e+05
2870,-4.5536e+05
2871,-4.5545e+05
2872,-4.5551e+05
2873,-4.556e+05
2874,-4.5564e+05
2875,-4.5569e+05
2876,-4.5577e+05
2877,-4.5578e+05
2878,-4.558e+05
2879,-4.5581e+05
2880,-4.559e+05
2881,-4.5607e+05
2882,-4.5609e+05
2883,-4.5641e+05
2884,-4.5641e+05
2885,-4.5646e+05
2886,-4.5647e+05
2887,-4.5648e+05
2888,-4.565e+05
2889,-4.5656e+05
2890,-4.5666e+05
2891,-4.5668e+05
2892,-4.5669e+05
2893,-4.5673e+05
2894,-4.5684e+05
2895,-4.5685e+05
2896,-4.5692e+05
2897,-4.5695e+05
2898,-4.5723e+05
2899,-4.5745e+05
2900,-4.5746e+05
2901,-4.5758e+05
2902,-4.5761e+05
2903,-4.5763e+05
2904,-4.5767e+05
2905,-4.5774e+05
2906,-4.5793e+05
2907,-4.5795e+05
2908,-4.5806e+05
2909,-4.5813e+05
2910,-4.5843e+05
2911,-4.5855e+05
2912,-4.5857e+05
2913,-4.5862e+05
2914,-4.5875e+05
2915,-4.588e+05
2916,-4.5882e+05
2917,-4.5885e+05
2918,-4.5888e+05
2919,-4.5894e+05
2920,-4.5895e+05
2921,-4.5898e+05
2922,-4.5904e+05
2923,-4.5914e+05
2924,-4.5918e+05
2925,-4.5919e+05
2926,-4.5921e+05
2927,-4.5924e+05
2928,-4.5924e+05
2929,-4.5927e+05
2930,-4.5935e+05
2931,-4.5936e+05
2932,-4.5937e+05
2933,-4.5947e+05
2934,-4.595e+05
2935,-4.5954e+05
2936,-4.5963e+05
2937,-4.5966e+05
2938,-4.5975e+05
2939,-4.5977e+05
2940,-4.598e+05
2941,-4.598e+05
2942,-4.599e+05
2943,-4.5998e+05
2944,-4.6006e+05
2945,-4.601e+05
2946,-4.6012e+05
2947,-4.6026e+05
2948,-4.6029e+05
2949,-4.6034e+05
2950,-4.6034e+05
2951,-4.6038e+05
2952,-4.6042e+05
2953,-4.6044e+05
2954,-4.6045e+05
2955,-4.6057e+05
2956,-4.6078e+05
2957,-4.6085e+05
2958,-4.6099e+05
2959,-4.6107e+05
2960,-4.6108e+05
2961,-4.6112e+05
2962,-4.6115e+05
2963,-4.6119e+05
2964,-4.6121e+05
2965,-4.6127e+05
2966,-4.6129e+05
2967,-4.6136e+05
2968,-4.6137e+05
2969,-4.614e+05
2970,-4.6144e+05
2971,-4.6145e+05
2972,-4.6148e+05
2973,-4.6154e+05
2974,-4.6158e+05
2975,-4.6158e+05
2976,-4.6162e+05
2977,-4.6174e+05
7671,-4.6197e+05
2978,-4.62e+05
2979,-4.6226e+05
2980,-4.6234e+05
2981,-4.6235e+05
2982,-4.6237e+05
2983,-4.6243e+05
2984,-4.6244e+05
2985,-4.6257e+05
2986,-4.626e+05
2987,-4.6271e+05
2988,-4.6286e+05
2989,-4.6299e+05
2990,-4.63e+05
8538,-4.63e+05
2991,-4.6312e+05
2992,-4.6318e+05
2993,-4.6321e+05
2994,-4.6321e+05
2995,-4.6334e+05
2996,-4.6344e+05
2997,-4.6348e+05
2998,-4.6353e+05
2999,-4.636e+05
3000,-4.6364e+05
3001,-4.6368e+05
3002,-4.637e+05
3003,-4.6375e+05
3004,-4.6377e+05
3005,-4.6377e+05
3006,-4.6386e+05
3007,-4.6386e+05
3008,-4.6389e+05
3009,-4.639e+05
3010,-4.639e+05
3011,-4.6391e+05
3012,-4.6417e+05
3013,-4.642e+05
3014,-4.6423e+05
3015,-4.6433e+05
3016,-4.6441e+05
3017,-4.6441e+05
3018,-4.6455e+05
3019,-4.6468e+05
3020,-4.647e+05
3021,-4.6474e+05
3022,-4.6477e+05
3023,-4.6481e+05
3024,-4.6484e+05
3025,-4.6485e+05
3026,-4.6491e+05
3027,-4.6504e+05
3028,-4.6508e+05
3029,-4.6511e+05
3030,-4.6522e+05
3031,-4.6536e+05
3032,-4.6546e+05
3033,-4.655e+05
3034,-4.6559e+05
7868,-4.6568e+05
3035,-4.657e+05
3036,-4.658e+05
8925,-4.6594e+05
3037,-4.6609e+05
3038,-4.6611e+05
3039,-4.6635e+05
3040,-4.6635e+05
3041,-4.6645e+05
3042,-4.6647e+05
3043,-4.6655e+05
3044,-4.6661e+05
3045,-4.6666e+05
3046,-4.6682e+05
3047,-4.6687e+05
3048,-4.6696e+05
3049,-4.6719e+05
3050,-4.6722e+05
3051,-4.6723e+05
6540,-4.6723e+05
7924,-4.6735e+05
3052,-4.6743e+05
3053,-4.6757e+05
3054,-4.6758e+05
3055,-4.6765e+05
3056,-4.6777e+05
3057,-4.6786e+05
3058,-4.6796e+05
3059,-4.6798e+05
3060,-4.6808e+05
3061,-4.6808e+05
3062,-4.6828e+05
3063,-4.6835e+05
3064,-4.6837e+05
3065,-4.6863e+05
3066,-4.6865e+05
3067,-4.689e+05
3068,-4.6891e+05
9608,-4.6903e+05
3069,-4.6909e+05
3070,-4.6909e+05
3071,-4.6916e+05
3072,-4.6916e+05
3073,-4.6922e+05
3074,-4.6926e+05
3075,-4.6943e+05
3076,-4.6953e+05
3077,-4.6958e+05
3078,-4.6974e+05
3079,-4.6976e+05
3080,-4.6982e+05
7572,-4.6986e+05
9295,-4.6988e+05
3081,-4.6989e+05
3082,-4.6995e+05
3083,-4.6998e+05
3084,-4.7001e+05
3085,-4.7007e+05
3086,-4.701e+05
3087,-4.702e+05
3088,-4.7021e+05
9946,-4.7026e+05
3089,-4.7033e+05
3090,-4.7033e+05
3091,-4.7036e+05
3092,-4.7043e+05
3093,-4.7048e+05
3094,-4.705e+05
3095,-4.7057e+05
3096,-4.7068e+05
3097,-4.7071e+05
3098,-4.7079e+05
3099,-4.71e+05
6416,-4.71e+05
3100,-4.7112e+05
9488,-4.7115e+05
3101,-4.7126e+05
3102,-4.713e+05
3103,-4.7137e+05
3104,-4.7142e+05
3105,-4.716e+05
3106,-4.7181e+05
3107,-4.7194e+05
3108,-4.72e+05
3109,-4.7201e+05
3110,-4.7206e+05
3111,-4.7211e+05
3112,-4.7215e+05
3113,-4.7226e+05
3114,-4.7226e+05
3115,-4.7229e+05
3116,-4.7246e+05
3117,-4.7267e+05
3118,-4.7273e+05
3119,-4.7279e+05
3120,-4.729e+05
3121,-4.7293e+05
3122,-4.7313e+05
3123,-4.7315e+05
3124,-4.7329e+05
3125,-4.7331e+05
3126,-4.7332e+05
3127,-4.7338e+05
3128,-4.7338e+05
3129,-4.7338e+05
3130,-4.7338e+05
3131,-4.7344e+05
3132,-4.735e+05
3133,-4.7364e+05
3134,-4.7366e+05
3135,-4.7377e+05
3136,-4.738e+05
3137,-4.7384e+05
3138,-4.7384e+05
3139,-4.739e+05
3140,-4.7402e+05
3141,-4.7407e+05
3142,-4.7407e+05
3143,-4.7429e+05
3144,-4.7431e+05
3145,-4.7434e+05
3146,-4.7437e+05
3147,-4.7437e+05
3148,-4.7438e+05
3149,-4.7443e+05
3150,-4.7445e+05
3151,-4.7453e+05
3152,-4.7463e+05
3153,-4.7469e+05
3154,-4.7483e+05
3155,-4.7486e+05
3156,-4.7488e+05
3157,-4.7492e+05
3158,-4.7505e+05
9330,-4.7523e+05
3159,-4.7524e+05
3160,-4.7526e+05
3161,-4.7535e+05
3162,-4.7545e+05
3163,-4.755e+05
3164,-4.755e+05
3165,-4.7556e+05
3166,-4.7562e+05
3167,-4.7565e+05
3168,-4.7573e+05
3169,-4.7578e+05
3170,-4.7585e+05
3171,-4.7594e+05
3172,-4.7607e+05
3173,-4.7617e+05
3174,-4.7621e+05
3175,-4.7628e+05
3176,-4.7651e+05
3177,-4.7652e+05
3178,-4.7654e+05
3179,-4.7673e+05
3180,-4.7678e+05
3181,-4.769e+05
3182,-4.7695e+05
3183,-4.7696e+05
3184,-4.7705e+05
3185,-4.7712e+05
3186,-4.7718e+05
3187,-4.7722e+05
3188,-4.7726e+05
3189,-4.773e+05
3190,-4.7731e+05
3191,-4.7743e+05
3192,-4.7745e+05
3193,-4.7746e+05
3194,-4.7757e+05
3195,-4.7766e+05
3196,-4.7769e+05
3197,-4.7783e+05
3198,-4.7786e+05
3199,-4.7788e+05
3200,-4.7789e+05
3201,-4.7795e+05
3202,-4.7797e+05
3203,-4.7799e+05
3204,-4.7806e+05
3205,-4.7825e+05
3206,-4.783e+05
3207,-4.7835e+05
3208,-4.7844e+05
3209,-4.7844e+05
3210,-4.7845e+05
3211,-4.7849e+05
3212,-4.7876e+05
3213,-4.7878e+05
3214,-4.7883e+05
3215,-4.7884e+05
3216,-4.7886e+05
3217,-4.789e+05
3218,-4.7893e+05
3219,-4.7895e+05
3220,-4.7895e+05
3221,-4.7897e+05
3222,-4.7902e+05
3223,-4.7903e+05
3224,-4.7928e+05
3225,-4.7929e+05
3226,-4.7929e+05
3227,-4.7931e+05
3228,-4.7934e+05
3229,-4.7941e+05
3230,-4.795e+05
3231,-4.7952e+05
3232,-4.7961e+05
3233,-4.7963e+05
3234,-4.7969e+05
3235,-4.7982e+05
3236,-4.7982e+05
3237,-4.7986e+05
3238,-4.7987e+05
3239,-4.8008e+05
3240,-4.8012e+05
3241,-4.8017e+05
3242,-4.8039e+05
3243,-4.8041e+05
3244,-4.8043e+05
3245,-4.8052e+05
3246,-4.8055e+05
3247,-4.8055e+05
3248,-4.8058e+05
3249,-4.8067e+05
3250,-4.8068e+05
3251,-4.8077e+05
3252,-4.808e+05
3253,-4.809e+05
3254,-4.8097e+05
3255,-4.8099e+05
3256,-4.8101e+05
3257,-4.8105e+05
3258,-4.8148e+05
9721,-4.8155e+05
3259,-4.8174e+05
3260,-4.8179e+05
3261,-4.8187e+05
3262,-4.8191e+05
3263,-4.8198e+05
3264,-4.8202e+05
3265,-4.821e+05
3266,-4.8217e+05
3267,-4.8221e+05
3268,-4.8223e+05
3269,-4.8238e+05
3270,-4.824e+05
3271,-4.8257e+05
3272,-4.8259e+05
3273,-4.8282e+05
3274,-4.8288e+05
3275,-4.8296e+05
3276,-4.8296e+05
3277,-4.8302e+05
3278,-4.8323e+05
3279,-4.8325e+05
3280,-4.8332e+05
3281,-4.8333e+05
3282,-4.8343e+05
3283,-4.8347e+05
3284,-4.8349e+05
3285,-4.8353e+05
3286,-4.8362e+05
3287,-4.8362e+05
3288,-4.8365e+05
3289,-4.8374e+05
3290,-4.8375e+05
3291,-4.8376e+05
3292,-4.8396e+05
3293,-4.8401e+05
3294,-4.8402e+05
3295,-4.8405e+05
3296,-4.841e+05
3297,-4.8411e+05
3298,-4.8421e+05
3299,-4.8432e+05
3300,-4.8451e+05
3301,-4.8467e+05
3302,-4.8471e+05
8645,-4.8481e+05
3303,-4.8483e+05
3304,-4.849e+05
3305,-4.8491e+05
3306,-4.8513e+05
3307,-4.8516e+05
3308,-4.8534e+05
3309,-4.8536e+05
3310,-4.8544e+05
3311,-4.8563e+05
3312,-4.858e+05
3313,-4.8587e+05
3314,-4.8589e+05
3315,-4.8592e+05
3316,-4.8593e+05
3317,-4.8602e+05
3318,-4.8603e+05
3319,-4.8609e+05
3320,-4.8614e+05
3321,-4.8618e+05
3322,-4.8619e+05
3323,-4.862e+05
3324,-4.8624e+05
3325,-4.8629e+05
9170,-4.8633e+05
3326,-4.8641e+05
3327,-4.8648e+05
3328,-4.8651e+05
3329,-4.8667e+05
3330,-4.8681e+05
3331,-4.8681e+05
3332,-4.8682e+05
3333,-4.8683e+05
3334,-4.8696e+05
3335,-4.8696e+05
3336,-4.8696e+05
3337,-4.8701e+05
3338,-4.8701e+05
3339,-4.8702e+05
3340,-4.8705e+05
3341,-4.8721e+05
8810,-4.8722e+05
3342,-4.8724e+05
3343,-4.8735e+05
3344,-4.8735e+05
8106,-4.874e+05
3345,-4.8744e+05
7775,-4.8759e+05
3346,-4.8764e+05
3347,-4.8788e+05
3348,-4.8799e+05
3349,-4.88e+05
3350,-4.8801e+05
3351,-4.8803e+05
3352,-4.881e+05
3353,-4.8817e+05
3354,-4.8836e+05
3355,-4.8839e+05
3356,-4.8841e+05
3357,-4.8844e+05
3358,-4.8845e+05
3359,-4.8854e+05
3360,-4.8856e+05
3361,-4.886e+05
3362,-4.8869e+05
3363,-4.8872e+05
3364,-4.8872e+05
3365,-4.8893e+05
3366,-4.8896e+05
7179,-4.8907e+05
3367,-4.891e+05
3368,-4.8922e+05
3369,-4.8923e+05
3370,-4.8934e+05
3371,-4.8941e+05
3372,-4.8941e+05
3373,-4.895e+05
3374,-4.896e+05
3375,-4.8965e+05
3376,-4.8966e+05
3377,-4.8978e+05
3378,-4.8989e+05
3379,-4.8995e+05
3380,-4.8996e+05
3381,-4.9004e+05
3382,-4.9008e+05
3383,-4.902e+05
3384,-4.902e+05
3385,-4.9033e+05
3386,-4.9037e+05
3387,-4.9042e+05
3388,-4.9043e+05
3389,-4.9044e+05
3390,-4.905e+05
3391,-4.9051e+05
3392,-4.9059e+05
3393,-4.9063e+05
3394,-4.9064e+05
3395,-4.9068e+05
3396,-4.9076e+05
3397,-4.9089e+05
3398,-4.909e+05
3399,-4.909e+05
3400,-4.9093e+05
3401,-4.9095e+05
3402,-4.9098e+05
3403,-4.9102e+05
3404,-4.9104e+05
3405,-4.9106e+05
3406,-4.9111e+05
3407,-4.9114e+05
3408,-4.9115e+05
3409,-4.9132e+05
8961,-4.9139e+05
8420,-4.9157e+05
3410,-4.9159e+05
3411,-4.9167e+05
3412,-4.9174e+05
3413,-4.9185e+05
3414,-4.9188e+05
9248,-4.9196e+05
3415,-4.9199e+05
3416,-4.9203e+05
3417,-4.9205e+05
3418,-4.9208e+05
3419,-4.9216e+05
3420,-4.9217e+05
3421,-4.9232e+05
3422,-4.9235e+05
3423,-4.924e+05
3424,-4.9244e+05
3425,-4.9247e+05
3426,-4.9248e+05
3427,-4.9254e+05
3428,-4.926e+05
3429,-4.9265e+05
3430,-4.928e+05
3431,-4.928e+05
3432,-4.9281e+05
3433,-4.9281e+05
3434,-4.9288e+05
3435,-4.9292e+05
3436,-4.9295e+05
3437,-4.9296e+05
3438,-4.9297e+05
3439,-4.9305e+05
3440,-4.9307e+05
3441,-4.9307e+05
3442,-4.9308e+05
3443,-4.9308e+05
3444,-4.9313e+05
3445,-4.9316e+05
3446,-4.9318e+05
3447,-4.932e+05
3448,-4.933e+05
3449,-4.9332e+05
3450,-4.9336e+05
3451,-4.9341e+05
3452,-4.9351e+05
3453,-4.9361e+05
3454,-4.9372e+05
3455,-4.9373e+05
3456,-4.9383e+05
3457,-4.9394e+05
3458,-4.9404e+05
3459,-4.9405e+05
3460,-4.941e+05
3461,-4.941e+05
3462,-4.9413e+05
3463,-4.9417e+05
3464,-4.9417e+05
3465,-4.9417e+05
3466,-4.9418e+05
3467,-4.9422e+05
3468,-4.9424e+05
3469,-4.9428e+05
3470,-4.9431e+05
3471,-4.9432e+05
3472,-4.9441e+05
9022,-4.9442e+05
3473,-4.9445e+05
3474,-4.9449e+05
3475,-4.9451e+05
3476,-4.9457e+05
3477,-4.947e+05
3478,-4.9478e+05
3479,-4.9483e+05
3480,-4.9484e+05
3481,-4.951e+05
3482,-4.9516e+05
3483,-4.9517e+05
3484,-4.9524e+05
3485,-4.9535e+05
3486,-4.9542e+05
3487,-4.9543e+05
3488,-4.956e+05
3489,-4.9566e+05
3490,-4.9576e+05
3491,-4.9577e+05
3492,-4.9605e+05
3493,-4.9606e+05
3494,-4.9608e+05
3495,-4.9609e+05
3496,-4.961e+05
3497,-4.9613e+05
3498,-4.9619e+05
3499,-4.9627e+05
3500,-4.9633e+05
3501,-4.9639e+05
3502,-4.9641e+05
3503,-4.9642e+05
3504,-4.9644e+05
3505,-4.9653e+05
3506,-4.9655e+05
3507,-4.9658e+05
3508,-4.9664e+05
3509,-4.9665e+05
3510,-4.9666e+05
3511,-4.967e+05
3512,-4.9686e+05
3513,-4.9699e+05
3514,-4.9703e+05
3515,-4.9705e+05
3516,-4.9705e+05
3517,-4.9707e+05
3518,-4.9723e+05
3519,-4.9725e+05
3520,-4.9727e+05
3521,-4.9734e+05
3522,-4.9745e+05
3523,-4.9749e+05
3524,-4.9749e+05
3525,-4.9751e+05
3526,-4.9755e+05
3527,-4.9759e+05
3528,-4.9764e+05
3529,-4.9772e+05
3530,-4.9778e+05
3531,-4.9786e+05
3532,-4.9791e+05
3533,-4.9793e+05
3534,-4.9796e+05
3535,-4.9797e+05
7595,-4.9805e+05
3536,-4.9807e+05
3537,-4.9808e+05
3538,-4.9812e+05
3539,-4.982e+05
3540,-4.9822e+05
3541,-4.9826e+05
3542,-4.9829e+05
3543,-4.983e+05
3544,-4.9832e+05
3545,-4.984e+05
3546,-4.9863e+05
3547,-4.9865e+05
3548,-4.987e+05
3549,-4.9872e+05
3550,-4.9872e+05
3551,-4.9874e+05
3552,-4.9884e+05
3553,-4.9887e+05
3554,-4.9889e+05
3555,-4.9893e+05
3556,-4.9897e+05
3557,-4.9898e+05
3558,-4.9898e+05
3559,-4.99e+05
3560,-4.99e+05
3561,-4.9902e+05
3562,-4.9908e+05
3563,-4.9908e+05
3564,-4.9916e+05
3565,-4.9921e+05
3566,-4.9922e+05
3567,-4.9927e+05
3568,-4.9928e+05
3569,-4.9933e+05
3570,-4.9936e+05
3571,-4.994e+05
3572,-4.9943e+05
3573,-4.9945e+05
3574,-4.9946e+05
3575,-4.9948e+05
3576,-4.9948e+05
3577,-4.9958e+05
3578,-4.997e+05
3579,-4.9971e+05
3580,-4.9974e+05
3581,-4.9984e+05
3582,-4.9988e+05
3583,-4.9989e+05
3584,-4.9997e+05
3585,-4.9998e+05
3586,-5e+05
3587,-5.0009e+05
3588,-5.0011e+05
3589,-5.0016e+05
3590,-5.0032e+05
3591,-5.0036e+05
3592,-5.004e+05
3593,-5.0042e+05
6592,-5.0044e+05
3594,-5.0048e+05
3595,-5.0051e+05
3596,-5.0054e+05
3597,-5.0056e+05
3598,-5.0057e+05
3599,-5.0057e+05
3600,-5.0064e+05
3601,-5.007e+05
10189,-5.0071e+05
3602,-5.0072e+05
3603,-5.0075e+05
3604,-5.0075e+05
3605,-5.0081e+05
3606,-5.0084e+05
3607,-5.0102e+05
3608,-5.0105e+05
3609,-5.0109e+05
3610,-5.0111e+05
3611,-5.0117e+05
3612,-5.0123e+05
3613,-5.0125e+05
3614,-5.0126e+05
3615,-5.013e+05
3616,-5.0137e+05
3617,-5.0147e+05
3618,-5.0149e+05
3619,-5.0157e+05
3620,-5.0175e+05
3621,-5.0176e+05
3622,-5.0179e+05
3623,-5.0179e+05
3624,-5.018e+05
3625,-5.0188e+05
3626,-5.0191e+05
3627,-5.0193e+05
3628,-5.0196e+05
3629,-5.0199e+05
3630,-5.0201e+05
3631,-5.0211e+05
3632,-5.0213e+05
3633,-5.0215e+05
3634,-5.0218e+05
3635,-5.0218e+05
3636,-5.0218e+05
3637,-5.0225e+05
3638,-5.0228e+05
3639,-5.0229e+05
3640,-5.023e+05
3641,-5.0231e+05
3642,-5.0232e+05
3643,-5.0234e+05
3644,-5.0235e+05
3645,-5.0235e+05
3646,-5.0236e+05
3647,-5.0237e+05
3648,-5.0237e+05
3649,-5.0242e+05
3650,-5.0243e+05
3651,-5.0244e+05
3652,-5.0256e+05
3653,-5.0267e+05
3654,-5.0273e+05
3655,-5.0276e+05
3656,-5.0296e+05
3657,-5.0305e+05
3658,-5.0308e+05
3659,-5.031e+05
3660,-5.0311e+05
3661,-5.0311e+05
3662,-5.0312e+05
3663,-5.0313e+05
3664,-5.0313e+05
3665,-5.0316e+05
3666,-5.0318e+05
3667,-5.0327e+05
3668,-5.0327e+05
3669,-5.0335e+05
3670,-5.0336e+05
3671,-5.0344e+05
3672,-5.0352e+05
3673,-5.0356e+05
9919,-5.0359e+05
3674,-5.036e+05
3675,-5.0369e+05
3676,-5.0371e+05
3677,-5.0375e+05
3678,-5.0377e+05
8198,-5.0381e+05
3679,-5.0384e+05
3680,-5.0384e+05
3681,-5.0385e+05
3682,-5.0386e+05
3683,-5.0387e+05
3684,-5.0389e+05
3685,-5.0389e+05
3686,-5.0391e+05
3687,-5.04e+05
3688,-5.041e+05
3689,-5.0418e+05
3690,-5.042e+05
3691,-5.0421e+05
3692,-5.0421e+05
3693,-5.0422e+05
3694,-5.0423e+05
3695,-5.0427e+05
3696,-5.0429e+05
3697,-5.0429e+05
3698,-5.0441e+05
3699,-5.0444e+05
3700,-5.0446e+05
3701,-5.0449e+05
3702,-5.0454e+05
3703,-5.0454e+05
3704,-5.0458e+05
3705,-5.0466e+05
3706,-5.0467e+05
3707,-5.0467e+05
3708,-5.047e+05
3709,-5.0476e+05
3710,-5.048e+05
3711,-5.0488e+05
3712,-5.0491e+05
3713,-5.0497e+05
3714,-5.0498e+05
3715,-5.0502e+05
3716,-5.0503e+05
3717,-5.0514e+05
3718,-5.0515e+05
6302,-5.0524e+05
3719,-5.0525e+05
3720,-5.053e+05
3721,-5.0534e+05
3722,-5.0534e+05
3723,-5.0535e+05
3724,-5.0541e+05
3725,-5.0542e+05
3726,-5.0544e+05
3727,-5.0545e+05
3728,-5.0549e+05
3729,-5.0553e+05
3730,-5.0564e+05
3731,-5.0582e+05
3732,-5.0584e+05
3733,-5.0585e+05
3734,-5.0611e+05
3735,-5.0613e+05
3736,-5.0613e+05
3737,-5.0614e+05
3738,-5.0616e+05
3739,-5.0617e+05
3740,-5.0619e+05
3741,-5.0621e+05
3742,-5.0626e+05
3743,-5.0631e+05
3744,-5.0631e+05
3745,-5.0632e+05
3746,-5.0634e+05
3747,-5.0636e+05
3748,-5.0643e+05
3749,-5.0651e+05
3750,-5.0658e+05
3751,-5.0664e+05
3752,-5.0672e+05
3753,-5.0673e+05
3754,-5.0674e+05
3755,-5.0675e+05
3756,-5.0679e+05
3757,-5.068e+05
3758,-5.0681e+05
3759,-5.0681e+05
3760,-5.0705e+05
3761,-5.0705e+05
3762,-5.0709e+05
3763,-5.0711e+05
3764,-5.0723e+05
3765,-5.0725e+05
3766,-5.0726e+05
3767,-5.0731e+05
3768,-5.0746e+05
3769,-5.0748e+05
3770,-5.0754e+05
3771,-5.0757e+05
3772,-5.0758e+05
3773,-5.0759e+05
3774,-5.0761e+05
3775,-5.0787e+05
3776,-5.0798e+05
3777,-5.0803e+05
3778,-5.0806e+05
3779,-5.0815e+05
3780,-5.0821e+05
3781,-5.0839e+05
3782,-5.0839e+05
3783,-5.084e+05
3784,-5.0844e+05
3785,-5.0862e+05
3786,-5.0883e+05
3787,-5.0885e+05
3788,-5.0885e+05
3789,-5.0885e+05
3790,-5.0914e+05
3791,-5.0914e+05
3792,-5.0933e+05
3793,-5.0937e+05
3794,-5.0937e+05
3795,-5.0949e+05
3796,-5.0954e+05
9057,-5.0958e+05
3797,-5.097e+05
3798,-5.0982e+05
3799,-5.0985e+05
3800,-5.0987e+05
3801,-5.1005e+05
3802,-5.1008e+05
3803,-5.1027e+05
3804,-5.1028e+05
3805,-5.103e+05
8755,-5.1042e+05
3806,-5.1043e+05
3807,-5.1049e+05
3808,-5.1059e+05
3809,-5.1062e+05
3810,-5.1068e+05
3811,-5.1083e+05
3812,-5.109e+05
3813,-5.1104e+05
3814,-5.1137e+05
3815,-5.1138e+05
3816,-5.118e+05
3817,-5.1186e+05
3818,-5.1219e+05
3819,-5.1255e+05
3820,-5.1271e+05
6475,-5.1299e+05
3821,-5.1322e+05
3822,-5.1412e+05
3823,-5.1421e+05
3824,-5.1424e+05
3825,-5.1442e+05
3826,-5.1445e+05
3827,-5.146e+05
3828,-5.1471e+05
3829,-5.1503e+05
3830,-5.1512e+05
3831,-5.1524e+05
3832,-5.1526e+05
3833,-5.1529e+05
3834,-5.1568e+05
3835,-5.1573e+05
3836,-5.1616e+05
3837,-5.1628e+05
3838,-5.1629e+05
3839,-5.1644e+05
3840,-5.1657e+05
3841,-5.1681e+05
3842,-5.1687e+05
3843,-5.1702e+05
3844,-5.1764e+05
3845,-5.1774e+05
3846,-5.1774e+05
9029,-5.1776e+05
8260,-5.1798e+05
3847,-5.1809e+05
3848,-5.1809e+05
3849,-5.1815e+05
3850,-5.1817e+05
3851,-5.1844e+05
3852,-5.1861e+05
3853,-5.1863e+05
3854,-5.1865e+05
3855,-5.1891e+05
3856,-5.1892e+05
3857,-5.1903e+05
3858,-5.1921e+05
3859,-5.1925e+05
3860,-5.1941e+05
3861,-5.1948e+05
3862,-5.1971e+05
3863,-5.1975e+05
9642,-5.1979e+05
3864,-5.2031e+05
3865,-5.2058e+05
3866,-5.2079e+05
3867,-5.2101e+05
3868,-5.2123e+05
3869,-5.2143e+05
3870,-5.2189e+05
3871,-5.22e+05
3872,-5.2221e+05
3873,-5.2309e+05
3874,-5.2347e+05
3875,-5.2353e+05
3876,-5.2355e+05
3877,-5.2406e+05
3878,-5.2447e+05
3879,-5.2452e+05
3880,-5.2462e+05
3881,-5.2533e+05
3882,-5.2542e+05
3883,-5.2557e+05
3884,-5.2596e+05
3885,-5.263e+05
7272,-5.2659e+05
3886,-5.2662e+05
3887,-5.2673e+05
3888,-5.2681e+05
3889,-5.2763e+05
8011,-5.2797e+05
7767,-5.2807e+05
3890,-5.283e+05
3891,-5.2864e+05
3892,-5.2891e+05
3893,-5.2901e+05
3894,-5.295e+05
3895,-5.2951e+05
3896,-5.296e+05
3897,-5.2973e+05
3898,-5.2978e+05
3899,-5.3032e+05
6624,-5.3032e+05
3900,-5.3054e+05
3901,-5.3057e+05
3902,-5.306e+05
7836,-5.3061e+05
3903,-5.3082e+05
8121,-5.311e+05
3904,-5.3123e+05
3905,-5.3173e+05
3906,-5.3179e+05
3907,-5.3202e+05
3908,-5.3225e+05
3909,-5.3242e+05
3910,-5.3263e+05
3911,-5.3263e+05
3912,-5.3314e+05
3913,-5.3322e+05
3914,-5.3346e+05
3915,-5.3353e+05
3916,-5.3373e+05
3917,-5.338e+05
3918,-5.3408e+05
3919,-5.3483e+05
3920,-5.3489e+05
3921,-5.3501e+05
3922,-5.352e+05
3923,-5.3546e+05
3924,-5.3561e+05
3925,-5.3567e+05
3926,-5.3619e+05
3927,-5.363e+05
3928,-5.3653e+05
3929,-5.3691e+05
3930,-5.37e+05
3931,-5.3708e+05
3932,-5.3713e+05
3933,-5.3732e+05
3934,-5.3737e+05
3935,-5.3745e+05
3936,-5.3748e+05
3937,-5.3755e+05
3938,-5.3762e+05
3939,-5.3811e+05
3940,-5.3818e+05
3941,-5.3822e+05
3942,-5.3828e+05
3943,-5.3865e+05
3944,-5.3885e+05
6992,-5.3892e+05
7979,-5.3911e+05
3945,-5.3955e+05
3946,-5.3975e+05
3947,-5.3986e+05
3948,-5.4006e+05
3949,-5.4011e+05
3950,-5.4048e+05
3951,-5.406e+05
3952,-5.4062e+05
3953,-5.4065e+05
3954,-5.4071e+05
3955,-5.4084e+05
3956,-5.409e+05
3957,-5.4113e+05
3958,-5.4122e+05
3959,-5.4137e+05
3960,-5.4183e+05
3961,-5.4216e+05
3962,-5.4226e+05
3963,-5.4236e+05
3964,-5.4279e+05
3965,-5.43e+05
3966,-5.4308e+05
3967,-5.4308e+05
3968,-5.4316e+05
3969,-5.4367e+05
3970,-5.4376e+05
3971,-5.4431e+05
3972,-5.4463e+05
8776,-5.4562e+05
3973,-5.4563e+05
3974,-5.4566e+05
8901,-5.4584e+05
3975,-5.4591e+05
8709,-5.4613e+05
3976,-5.4707e+05
3977,-5.4755e+05
3978,-5.4771e+05
3979,-5.4801e+05
3980,-5.4827e+05
3981,-5.4832e+05
3982,-5.4836e+05
3983,-5.4838e+05
8097,-5.4841e+05
3984,-5.4853e+05
6824,-5.4861e+05
3985,-5.4866e+05
3986,-5.4877e+05
3987,-5.488e+05
3988,-5.4936e+05
9760,-5.4965e+05
3989,-5.497e+05
3990,-5.4972e+05
7243,-5.4997e+05
3991,-5.4997e+05
3992,-5.5034e+05
3993,-5.5035e+05
3994,-5.5053e+05
3995,-5.5074e+05
3996,-5.5085e+05
3997,-5.5095e+05
3998,-5.5096e+05
3999,-5.5106e+05
7847,-5.5108e+05
4000,-5.5142e+05
6814,-5.5185e+05
4001,-5.5192e+05
8646,-5.5192e+05
4002,-5.5203e+05
4003,-5.5204e+05
4004,-5.5206e+05
4005,-5.5226e+05
4006,-5.5232e+05
4007,-5.5302e+05
4008,-5.5302e+05
4009,-5.5358e+05
4010,-5.5364e+05
4011,-5.5367e+05
4012,-5.5381e+05
4013,-5.5385e+05
4014,-5.5399e+05
4015,-5.5406e+05
4016,-5.5433e+05
4017,-5.5465e+05
4018,-5.5507e+05
9859,-5.5509e+05
4019,-5.5522e+05
4020,-5.5578e+05
4021,-5.5619e+05
4022,-5.5647e+05
4023,-5.568e+05
4024,-5.5702e+05
4025,-5.5757e+05
4026,-5.5775e+05
4027,-5.5785e+05
4028,-5.5803e+05
4029,-5.5834e+05
4030,-5.5841e+05
4031,-5.5848e+05
7919,-5.5852e+05
4032,-5.5882e+05
4033,-5.59e+05
4034,-5.5926e+05
4035,-5.5941e+05
4036,-5.5993e+05
4037,-5.6014e+05
4038,-5.6094e+05
4039,-5.6109e+05
4040,-5.6142e+05
9777,-5.6144e+05
4041,-5.6171e+05
7666,-5.6204e+05
4042,-5.6208e+05
4043,-5.623e+05
4044,-5.6257e+05
4045,-5.631e+05
4046,-5.6336e+05
4047,-5.6348e+05
4048,-5.6364e+05
4049,-5.6399e+05
7417,-5.6414e+05
4050,-5.6437e+05
4051,-5.6457e+05
4052,-5.6461e+05
4053,-5.6495e+05
7372,-5.6496e+05
4054,-5.6508e+05
4055,-5.6531e+05
4056,-5.6543e+05
9258,-5.6543e+05
4057,-5.6601e+05
4058,-5.6635e+05
10208,-5.6641e+05
4059,-5.6645e+05
4060,-5.6649e+05
4061,-5.665e+05
9381,-5.6653e+05
4062,-5.6656e+05
4063,-5.6683e+05
4064,-5.6685e+05
4065,-5.6692e+05
4066,-5.6731e+05
4067,-5.6732e+05
7500,-5.6748e+05
4068,-5.6752e+05
6638,-5.6753e+05
4069,-5.6755e+05
4070,-5.6755e+05
4071,-5.6759e+05
4072,-5.6765e+05
4073,-5.6808e+05
4074,-5.6818e+05
4075,-5.6829e+05
4076,-5.6835e+05
4077,-5.6871e+05
4078,-5.6881e+05
6176,-5.6901e+05
4079,-5.6914e+05
4080,-5.6941e+05
4081,-5.6944e+05
4082,-5.6951e+05
4083,-5.698e+05
4084,-5.699e+05
4085,-5.7007e+05
4086,-5.7013e+05
4087,-5.7015e+05
4088,-5.7044e+05
4089,-5.7054e+05
4090,-5.7067e+05
4091,-5.7078e+05
4092,-5.713e+05
4093,-5.7131e+05
4094,-5.7169e+05
4095,-5.7174e+05
4096,-5.7179e+05
4097,-5.7204e+05
7303,-5.7226e+05
4098,-5.727e+05
4099,-5.7307e+05
7235,-5.7335e+05
4100,-5.7343e+05
4101,-5.7379e+05
4102,-5.7391e+05
4103,-5.7397e+05
4104,-5.7426e+05
4105,-5.7442e+05
4106,-5.7481e+05
4107,-5.7482e+05
4108,-5.7484e+05
4109,-5.7508e+05
4110,-5.7533e+05
4111,-5.7536e+05
8760,-5.7546e+05
4112,-5.7546e+05
4113,-5.7548e+05
10014,-5.7551e+05
8006,-5.7593e+05
4114,-5.7603e+05
4115,-5.763e+05
4116,-5.7641e+05
4117,-5.7653e+05
10017,-5.7677e+05
4118,-5.7678e+05
8149,-5.7678e+05
4119,-5.7701e+05
7277,-5.7745e+05
4120,-5.7785e+05
8506,-5.7808e+05
4121,-5.7815e+05
4122,-5.7828e+05
4123,-5.7833e+05
4124,-5.7869e+05
8733,-5.7898e+05
4125,-5.7911e+05
4126,-5.7913e+05
4127,-5.7915e+05
4128,-5.792e+05
4129,-5.7944e+05
4130,-5.7954e+05
4131,-5.7955e+05
4132,-5.7962e+05
4133,-5.7997e+05
9076,-5.8016e+05
4134,-5.8018e+05
4135,-5.8046e+05
8619,-5.8058e+05
4136,-5.8059e+05
4137,-5.8086e+05
4138,-5.809e+05
4139,-5.809e+05
8333,-5.8091e+05
4140,-5.8109e+05
4141,-5.8131e+05
4142,-5.8142e+05
4143,-5.8144e+05
4144,-5.821e+05
4145,-5.826e+05
4146,-5.8288e+05
4147,-5.8305e+05
4148,-5.832e+05
4149,-5.8348e+05
4150,-5.8351e+05
4151,-5.8356e+05
4152,-5.8392e+05
4153,-5.8404e+05
4154,-5.8443e+05
4155,-5.846e+05
4156,-5.848e+05
6231,-5.8491e+05
4157,-5.8527e+05
4158,-5.853e+05
4159,-5.8552e+05
4160,-5.8585e+05
7327,-5.8592e+05
4161,-5.8594e+05
4162,-5.8594e+05
4163,-5.8627e+05
4164,-5.8644e+05
4165,-5.868e+05
4166,-5.8682e+05
4167,-5.8684e+05
4168,-5.8692e+05
4169,-5.8732e+05
4170,-5.8761e+05
4171,-5.8822e+05
4172,-5.8825e+05
4173,-5.8832e+05
4174,-5.8836e+05
4175,-5.8859e+05
4176,-5.8949e+05
4177,-5.8985e+05
4178,-5.8988e+05
7103,-5.9e+05
4179,-5.9032e+05
4180,-5.9105e+05
4181,-5.9149e+05
4182,-5.9178e+05
4183,-5.9209e+05
4184,-5.9219e+05
8501,-5.9243e+05
4185,-5.9263e+05
4186,-5.9281e+05
4187,-5.9301e+05
4188,-5.9339e+05
4189,-5.9348e+05
4190,-5.9348e+05
4191,-5.9356e+05
4192,-5.9357e+05
4193,-5.9382e+05
4194,-5.9475e+05
6313,-5.9511e+05
4195,-5.9563e+05
4196,-5.9574e+05
4197,-5.9579e+05
6876,-5.9584e+05
4198,-5.9589e+05
4199,-5.9593e+05
4200,-5.9598e+05
8686,-5.9631e+05
9627,-5.966e+05
4201,-5.9683e+05
4202,-5.969e+05
4203,-5.9705e+05
6632,-5.9714e+05
4204,-5.9723e+05
4205,-5.9751e+05
8701,-5.9779e+05
4206,-5.9791e+05
8555,-5.9842e+05
4207,-5.9845e+05
4208,-5.9849e+05
4209,-5.9883e+05
4210,-5.9884e+05
4211,-5.9893e+05
4212,-5.9971e+05
4213,-5.9985e+05
4214,-5.9985e+05
4215,-6.0012e+05
4216,-6.0042e+05
4217,-6.0063e+05
4218,-6.008e+05
4219,-6.0082e+05
4220,-6.0083e+05
4221,-6.009e+05
4222,-6.0118e+05
4223,-6.0125e+05
8731,-6.0173e+05
4224,-6.0176e+05
4225,-6.0179e+05
4226,-6.018e+05
6468,-6.0188e+05
4227,-6.0196e+05
4228,-6.0197e+05
4229,-6.0205e+05
7737,-6.0215e+05
7220,-6.0219e+05
4230,-6.0223e+05
4231,-6.0243e+05
4232,-6.0257e+05
4233,-6.0271e+05
4234,-6.0279e+05
4235,-6.032e+05
4236,-6.0332e+05
4237,-6.0348e+05
4238,-6.0378e+05
4239,-6.0399e+05
4240,-6.0401e+05
4241,-6.0417e+05
4242,-6.0444e+05
4243,-6.0448e+05
4244,-6.0449e+05
4245,-6.0452e+05
4246,-6.0471e+05
4247,-6.0494e+05
4248,-6.0519e+05
4249,-6.0557e+05
4250,-6.0594e+05
4251,-6.0596e+05
4252,-6.0597e+05
4253,-6.0601e+05
4254,-6.0602e+05
4255,-6.0625e+05
6613,-6.065e+05
4256,-6.065e+05
8872,-6.0662e+05
4257,-6.0675e+05
4258,-6.0677e+05
4259,-6.0689e+05
4260,-6.0744e+05
4261,-6.0757e+05
4262,-6.0767e+05
4263,-6.0773e+05
4264,-6.0775e+05
4265,-6.0791e+05
7891,-6.0798e+05
8852,-6.0799e+05
4266,-6.0801e+05
4267,-6.0803e+05
4268,-6.0807e+05
4269,-6.081e+05
9769,-6.0812e+05
4270,-6.0816e+05
9461,-6.0837e+05
4271,-6.0863e+05
4272,-6.0864e+05
4273,-6.0932e+05
10086,-6.0984e+05
4274,-6.1042e+05
4275,-6.1044e+05
8450,-6.1065e+05
4276,-6.1102e+05
4277,-6.1104e+05
10129,-6.1112e+05
4278,-6.1204e+05
4279,-6.1222e+05
4280,-6.125e+05
4281,-6.1297e+05
4282,-6.1301e+05
7699,-6.1309e+05
4283,-6.1325e+05
4284,-6.1336e+05
4285,-6.1349e+05
4286,-6.1351e+05
4287,-6.1385e+05
4288,-6.1405e+05
4289,-6.1433e+05
4290,-6.1445e+05
4291,-6.1452e+05
4292,-6.146e+05
4293,-6.146e+05
4294,-6.1474e+05
4295,-6.1547e+05
4296,-6.1549e+05
4297,-6.1582e+05
4298,-6.1601e+05
4299,-6.1623e+05
4300,-6.1626e+05
4301,-6.1627e+05
4302,-6.1654e+05
4303,-6.1674e+05
4304,-6.1681e+05
4305,-6.1691e+05
4306,-6.1735e+05
4307,-6.1742e+05
6253,-6.1748e+05
4308,-6.1765e+05
4309,-6.179e+05
7556,-6.1793e+05
4310,-6.1824e+05
4311,-6.1836e+05
4312,-6.1846e+05
6855,-6.1852e+05
4313,-6.1853e+05
4314,-6.1878e+05
4315,-6.1891e+05
4316,-6.1894e+05
8065,-6.1901e+05
4317,-6.1927e+05
4318,-6.1941e+05
4319,-6.204e+05
4320,-6.204e+05
4321,-6.2063e+05
4322,-6.2071e+05
4323,-6.2077e+05
4324,-6.2121e+05
4325,-6.2134e+05
4326,-6.2178e+05
4327,-6.2189e+05
4328,-6.2209e+05
4329,-6.221e+05
4330,-6.2223e+05
4331,-6.2223e+05
6554,-6.2237e+05
8819,-6.2243e+05
9065,-6.226e+05
4332,-6.2296e+05
4333,-6.2312e+05
4334,-6.2325e+05
8141,-6.2329e+05
8477,-6.236e+05
4335,-6.2362e+05
4336,-6.2372e+05
9708,-6.2382e+05
4337,-6.2393e+05
4338,-6.2422e+05
4339,-6.2424e+05
4340,-6.2428e+05
4341,-6.243e+05
4342,-6.2439e+05
4343,-6.2445e+05
4344,-6.2453e+05
4345,-6.2456e+05
4346,-6.2464e+05
8290,-6.2498e+05
6433,-6.2498e+05
4347,-6.2504e+05
4348,-6.2506e+05
4349,-6.2517e+05
4350,-6.2542e+05
4351,-6.2567e+05
4352,-6.2574e+05
4353,-6.2633e+05
4354,-6.2651e+05
4355,-6.2665e+05
4356,-6.267e+05
4357,-6.2712e+05
9554,-6.2754e+05
4358,-6.2777e+05
4359,-6.2804e+05
7196,-6.281e+05
7649,-6.2815e+05
4360,-6.2832e+05
4361,-6.285e+05
4362,-6.287e+05
4363,-6.2874e+05
4364,-6.2882e+05
4365,-6.2891e+05
4366,-6.2895e+05
4367,-6.2941e+05
4368,-6.2991e+05
4369,-6.3003e+05
4370,-6.3028e+05
4371,-6.3048e+05
8081,-6.3065e+05
4372,-6.3078e+05
4373,-6.3099e+05
4374,-6.31e+05
4375,-6.3109e+05
4376,-6.311e+05
4377,-6.3194e+05
4378,-6.3203e+05
4379,-6.3228e+05
4380,-6.3236e+05
4381,-6.3251e+05
4382,-6.3252e+05
4383,-6.3277e+05
6750,-6.3288e+05
6918,-6.3307e+05
4384,-6.3315e+05
8351,-6.3323e+05
4385,-6.3335e+05
4386,-6.3343e+05
4387,-6.3396e+05
4388,-6.3397e+05
4389,-6.3423e+05
4390,-6.3437e+05
9296,-6.3438e+05
7239,-6.3441e+05
4391,-6.3447e+05
4392,-6.3462e+05
9145,-6.3485e+05
4393,-6.3511e+05
4394,-6.3528e+05
8096,-6.3558e+05
4395,-6.3577e+05
4396,-6.3604e+05
4397,-6.3604e+05
4398,-6.3631e+05
7886,-6.3633e+05
4399,-6.3725e+05
4400,-6.3738e+05
4401,-6.374e+05
4402,-6.3743e+05
4403,-6.3783e+05
4404,-6.3785e+05
8135,-6.3789e+05
4405,-6.3797e+05
4406,-6.3798e+05
4407,-6.3819e+05
4408,-6.3842e+05
4409,-6.3843e+05
6306,-6.3844e+05
4410,-6.3847e+05
4411,-6.3849e+05
8493,-6.3863e+05
8816,-6.3863e+05
4412,-6.3869e+05
4413,-6.3888e+05
4414,-6.3919e+05
4415,-6.3925e+05
8159,-6.3941e+05
4416,-6.3944e+05
4417,-6.3953e+05
4418,-6.3959e+05
9892,-6.3966e+05
4419,-6.3996e+05
4420,-6.4003e+05
4421,-6.4056e+05
4422,-6.4063e+05
4423,-6.4079e+05
4424,-6.4092e+05
7310,-6.4096e+05
4425,-6.4125e+05
4426,-6.4157e+05
4427,-6.4164e+05
9856,-6.4216e+05
8476,-6.4251e+05
4428,-6.4283e+05
7642,-6.4306e+05
4429,-6.4339e+05
4430,-6.4364e+05
4431,-6.4401e+05
9984,-6.4417e+05
4432,-6.4429e+05
4433,-6.4433e+05
4434,-6.4452e+05
8623,-6.4469e+05
6299,-6.4478e+05
4435,-6.4481e+05
4436,-6.4488e+05
7415,-6.4497e+05
4437,-6.4531e+05
4438,-6.4537e+05
4439,-6.4586e+05
4440,-6.4595e+05
4441,-6.4609e+05
4442,-6.4621e+05
4443,-6.4625e+05
4444,-6.4625e+05
9049,-6.4636e+05
4445,-6.4642e+05
4446,-6.4698e+05
4447,-6.47e+05
8942,-6.4716e+05
4448,-6.4771e+05
6405,-6.4793e+05
4449,-6.4808e+05
9801,-6.4819e+05
4450,-6.483e+05
4451,-6.4836e+05
4452,-6.4843e+05
4453,-6.4883e+05
4454,-6.4884e+05
9701,-6.4958e+05
4455,-6.497e+05
4456,-6.4994e+05
4457,-6.5012e+05
4458,-6.5081e+05
8951,-6.5083e+05
4459,-6.5084e+05
8584,-6.5108e+05
4460,-6.5141e+05
4461,-6.5173e+05
7463,-6.5174e+05
7566,-6.5237e+05
4462,-6.5256e+05
4463,-6.5263e+05
4464,-6.5275e+05
4465,-6.5285e+05
4466,-6.5295e+05
4467,-6.5334e+05
4468,-6.535e+05
4469,-6.5359e+05
4470,-6.5365e+05
4471,-6.5391e+05
4472,-6.541e+05
4473,-6.5433e+05
4474,-6.5481e+05
4475,-6.5494e+05
4476,-6.5511e+05
8300,-6.5529e+05
4477,-6.5549e+05
4478,-6.5573e+05
9174,-6.5589e+05
4479,-6.5615e+05
9629,-6.5626e+05
4480,-6.5639e+05
4481,-6.5673e+05
9761,-6.5689e+05
6746,-6.5698e+05
4482,-6.5707e+05
4483,-6.5755e+05
4484,-6.5808e+05
4485,-6.5823e+05
4486,-6.5856e+05
4487,-6.5871e+05
4488,-6.5882e+05
6997,-6.5908e+05
4489,-6.5914e+05
4490,-6.5915e+05
8419,-6.5942e+05
7365,-6.5946e+05
4491,-6.5972e+05
4492,-6.5974e+05
8463,-6.5989e+05
8914,-6.599e+05
4493,-6.5998e+05
4494,-6.6004e+05
8841,-6.6018e+05
7122,-6.6033e+05
4495,-6.6051e+05
4496,-6.6083e+05
4497,-6.6095e+05
4498,-6.61e+05
4499,-6.6111e+05
6775,-6.6115e+05
4500,-6.6126e+05
8307,-6.6149e+05
4501,-6.6158e+05
7154,-6.6201e+05
4502,-6.6214e+05
8343,-6.6226e+05
9602,-6.6241e+05
8638,-6.6244e+05
4503,-6.6255e+05
4504,-6.6261e+05
4505,-6.6264e+05
7473,-6.6266e+05
4506,-6.6334e+05
9284,-6.634e+05
7706,-6.6345e+05
4507,-6.6353e+05
4508,-6.6359e+05
4509,-6.6362e+05
4510,-6.6387e+05
4511,-6.6416e+05
4512,-6.6424e+05
8605,-6.6432e+05
4513,-6.6454e+05
6266,-6.6503e+05
4514,-6.6507e+05
4515,-6.6529e+05
7184,-6.6534e+05
4516,-6.6555e+05
4517,-6.6566e+05
4518,-6.657e+05
9152,-6.6597e+05
4519,-6.6598e+05
6321,-6.6607e+05
4520,-6.6636e+05
4521,-6.6663e+05
8105,-6.6679e+05
8342,-6.6713e+05
4522,-6.6722e+05
4523,-6.6741e+05
4524,-6.6763e+05
4525,-6.6772e+05
4526,-6.678e+05
9763,-6.6784e+05
4527,-6.6796e+05
9938,-6.6813e+05
4528,-6.6818e+05
4529,-6.6832e+05
4530,-6.6848e+05
4531,-6.6855e+05
4532,-6.6856e+05
9006,-6.6868e+05
4533,-6.6872e+05
9212,-6.6889e+05
4534,-6.692e+05
4535,-6.6943e+05
7080,-6.6955e+05
4536,-6.6961e+05
7158,-6.6982e+05
4537,-6.6988e+05
4538,-6.6988e+05
4539,-6.7036e+05
4540,-6.7038e+05
4541,-6.7089e+05
6677,-6.7119e+05
4542,-6.7137e+05
6890,-6.7138e+05
4543,-6.7157e+05
4544,-6.7195e+05
4545,-6.7199e+05
4546,-6.726e+05
8101,-6.7263e+05
4547,-6.7291e+05
6461,-6.7307e+05
4548,-6.7314e+05
4549,-6.7323e+05
4550,-6.7334e+05
4551,-6.7342e+05
4552,-6.7345e+05
4553,-6.7347e+05
4554,-6.7364e+05
4555,-6.7445e+05
4556,-6.7481e+05
4557,-6.7484e+05
4558,-6.7495e+05
10044,-6.7499e+05
4559,-6.7546e+05
4560,-6.758e+05
4561,-6.7601e+05
9989,-6.762e+05
8973,-6.762e+05
4562,-6.7635e+05
4563,-6.7657e+05
4564,-6.7668e+05
6168,-6.7689e+05
8180,-6.769e+05
4565,-6.7707e+05
6234,-6.7708e+05
4566,-6.771e+05
4567,-6.7724e+05
4568,-6.7728e+05
4569,-6.7781e+05
4570,-6.7788e+05
4571,-6.7789e+05
4572,-6.7814e+05
7750,-6.782e+05
4573,-6.7841e+05
4574,-6.7853e+05
4575,-6.7883e+05
7635,-6.7884e+05
7434,-6.7895e+05
4576,-6.79e+05
4577,-6.7902e+05
4578,-6.7904e+05
4579,-6.7963e+05
8115,-6.7965e+05
4580,-6.798e+05
9363,-6.799e+05
4581,-6.8026e+05
4582,-6.8045e+05
6444,-6.8071e+05
4583,-6.8073e+05
4584,-6.8106e+05
4585,-6.8122e+05
4586,-6.8124e+05
4587,-6.8128e+05
6897,-6.8132e+05
8856,-6.8165e+05
4588,-6.8172e+05
4589,-6.8197e+05
4590,-6.8215e+05
4591,-6.8252e+05
4592,-6.8257e+05
4593,-6.826e+05
4594,-6.8265e+05
4595,-6.827e+05
4596,-6.8274e+05
4597,-6.8282e+05
4598,-6.8304e+05
7639,-6.8312e+05
9686,-6.8332e+05
6307,-6.8342e+05
4599,-6.8348e+05
4600,-6.835e+05
4601,-6.836e+05
6808,-6.8361e+05
7521,-6.8363e+05
4602,-6.8379e+05
4603,-6.8384e+05
9870,-6.8384e+05
4604,-6.8411e+05
8316,-6.8414e+05
4605,-6.8426e+05
4606,-6.8481e+05
4607,-6.8485e+05
8376,-6.8486e+05
4608,-6.8499e+05
4609,-6.851e+05
4610,-6.8527e+05
4611,-6.8542e+05
4612,-6.857e+05
4613,-6.8576e+05
4614,-6.8579e+05
4615,-6.8646e+05
4616,-6.8647e+05
4617,-6.8659e+05
4618,-6.8714e+05
4619,-6.8724e+05
4620,-6.8733e+05
4621,-6.8749e+05
7486,-6.88e+05
4622,-6.8841e+05
4623,-6.8855e+05
4624,-6.8863e+05
4625,-6.8906e+05
4626,-6.8927e+05
4627,-6.8927e+05
4628,-6.8933e+05
4629,-6.8957e+05
7551,-6.8959e+05
4630,-6.8975e+05
4631,-6.9013e+05
9059,-6.9019e+05
4632,-6.9062e+05
4633,-6.9065e+05
4634,-6.9074e+05
4635,-6.9091e+05
4636,-6.9109e+05
7810,-6.9115e+05
4637,-6.912e+05
4638,-6.916e+05
4639,-6.9161e+05
4640,-6.9163e+05
4641,-6.9182e+05
4642,-6.9192e+05
4643,-6.9206e+05
4644,-6.9266e+05
4645,-6.9273e+05
8001,-6.9277e+05
4646,-6.9307e+05
4647,-6.9313e+05
4648,-6.9317e+05
4649,-6.9324e+05
4650,-6.933e+05
4651,-6.9386e+05
4652,-6.9389e+05
4653,-6.9398e+05
7714,-6.9399e+05
7983,-6.9448e+05
4654,-6.9452e+05
4655,-6.9457e+05
4656,-6.9468e+05
8259,-6.9498e+05
7344,-6.955e+05
4657,-6.9597e+05
4658,-6.9612e+05
4659,-6.9613e+05
4660,-6.9646e+05
4661,-6.9648e+05
6382,-6.9692e+05
6771,-6.9697e+05
7026,-6.9738e+05
4662,-6.9761e+05
4663,-6.9763e+05
4664,-6.9774e+05
4665,-6.9776e+05
4666,-6.9781e+05
4667,-6.9805e+05
4668,-6.9853e+05
4669,-6.9871e+05
6568,-6.9911e+05
4670,-6.9947e+05
4671,-6.9973e+05
4672,-6.9983e+05
4673,-6.9995e+05
6223,-7.0003e+05
7965,-7.0007e+05
4674,-7.0011e+05
4675,-7.0036e+05
4676,-7.0069e+05
4677,-7.0087e+05
4678,-7.0094e+05
4679,-7.0109e+05
4680,-7.0116e+05
8649,-7.0118e+05
6541,-7.0119e+05
8682,-7.013e+05
4681,-7.0154e+05
4682,-7.0156e+05
7378,-7.016e+05
6284,-7.0188e+05
6257,-7.0191e+05
4683,-7.0197e+05
4684,-7.0214e+05
4685,-7.0216e+05
4686,-7.0218e+05
4687,-7.0221e+05
4688,-7.0247e+05
4689,-7.0273e+05
4690,-7.0277e+05
4691,-7.0293e+05
4692,-7.0297e+05
8088,-7.0306e+05
4693,-7.0397e+05
4694,-7.0424e+05
4695,-7.0434e+05
6977,-7.0451e+05
4696,-7.0474e+05
4697,-7.0503e+05
4698,-7.0513e+05
4699,-7.0513e+05
9118,-7.0514e+05
8465,-7.0514e+05
9167,-7.0516e+05
4700,-7.0526e+05
9725,-7.055e+05
4701,-7.0571e+05
9784,-7.0572e+05
4702,-7.0587e+05
4703,-7.062e+05
4704,-7.0631e+05
4705,-7.0641e+05
4706,-7.0676e+05
4707,-7.0687e+05
4708,-7.0725e+05
4709,-7.0755e+05
8509,-7.0758e+05
4710,-7.0763e+05
9593,-7.0765e+05
6255,-7.0765e+05
4711,-7.0769e+05
4712,-7.0798e+05
4713,-7.0807e+05
4714,-7.0855e+05
6572,-7.0881e+05
9099,-7.0882e+05
4715,-7.0892e+05
8435,-7.0894e+05
4716,-7.0924e+05
4717,-7.0943e+05
4718,-7.0971e+05
4719,-7.0976e+05
6840,-7.0999e+05
4720,-7.1004e+05
4721,-7.1019e+05
4722,-7.1033e+05
4723,-7.1034e+05
4724,-7.1038e+05
4725,-7.1056e+05
4726,-7.1061e+05
6426,-7.1069e+05
6615,-7.1076e+05
8281,-7.1098e+05
4727,-7.1153e+05
8167,-7.1155e+05
7300,-7.1157e+05
8042,-7.1178e+05
4728,-7.1212e+05
9181,-7.1219e+05
4729,-7.1243e+05
4730,-7.1256e+05
4731,-7.1278e+05
4732,-7.1283e+05
4733,-7.1297e+05
4734,-7.1298e+05
4735,-7.1373e+05
4736,-7.1399e+05
4737,-7.141e+05
4738,-7.1414e+05
4739,-7.1415e+05
4740,-7.1422e+05
4741,-7.1423e+05
4742,-7.1427e+05
4743,-7.1428e+05
4744,-7.1435e+05
10029,-7.146e+05
6385,-7.1465e+05
4745,-7.1471e+05
4746,-7.149e+05
4747,-7.1533e+05
4748,-7.1537e+05
4749,-7.1558e+05
4750,-7.1565e+05
6874,-7.1582e+05
4751,-7.1593e+05
4752,-7.1642e+05
4753,-7.1662e+05
6659,-7.1675e+05
7480,-7.1676e+05
4754,-7.1699e+05
9973,-7.1721e+05
8844,-7.1739e+05
4755,-7.1751e+05
9560,-7.1757e+05
4756,-7.1757e+05
4757,-7.1778e+05
4758,-7.178e+05
4759,-7.178e+05
4760,-7.1781e+05
6574,-7.1782e+05
4761,-7.1783e+05
4762,-7.1808e+05
4763,-7.1821e+05
4764,-7.1865e+05
6497,-7.1887e+05
4765,-7.1892e+05
4766,-7.1904e+05
6569,-7.1912e+05
6893,-7.1919e+05
8591,-7.1961e+05
4767,-7.1978e+05
4768,-7.199e+05
4769,-7.2027e+05
6933,-7.2038e+05
4770,-7.2085e+05
4771,-7.2102e+05
4772,-7.212e+05
9313,-7.2142e+05
4773,-7.2146e+05
4774,-7.2155e+05
6481,-7.2184e+05
4775,-7.2184e+05
4776,-7.2195e+05
4777,-7.2201e+05
4778,-7.2204e+05
8915,-7.222e+05
4779,-7.2256e+05
4780,-7.2262e+05
4781,-7.2306e+05
4782,-7.2312e+05
4783,-7.2331e+05
4784,-7.2337e+05
4785,-7.2339e+05
4786,-7.2342e+05
4787,-7.2347e+05
7634,-7.2366e+05
9928,-7.2367e+05
7253,-7.2368e+05
4788,-7.237e+05
4789,-7.2373e+05
8524,-7.2383e+05
4790,-7.2428e+05
4791,-7.2453e+05
4792,-7.2461e+05
7383,-7.2466e+05
7039,-7.249e+05
4793,-7.2491e+05
9116,-7.2492e+05
7172,-7.2512e+05
8796,-7.2522e+05
8249,-7.2542e+05
4794,-7.2563e+05
4795,-7.2572e+05
4796,-7.2573e+05
4797,-7.2589e+05
4798,-7.2597e+05
8553,-7.2597e+05
4799,-7.2652e+05
4800,-7.2652e+05
4801,-7.2674e+05
8868,-7.2677e+05
8170,-7.2696e+05
4802,-7.2698e+05
4803,-7.2713e+05
4804,-7.2717e+05
10106,-7.2731e+05
4805,-7.2733e+05
4806,-7.2743e+05
4807,-7.2755e+05
9795,-7.2791e+05
4808,-7.2799e+05
4809,-7.2805e+05
8207,-7.2837e+05
4810,-7.2839e+05
7892,-7.2864e+05
4811,-7.2872e+05
4812,-7.2877e+05
4813,-7.2887e+05
4814,-7.2897e+05
4815,-7.2913e+05
4816,-7.2921e+05
4817,-7.2944e+05
4818,-7.2948e+05
4819,-7.2958e+05
4820,-7.298e+05
8680,-7.2986e+05
8873,-7.2989e+05
4821,-7.299e+05
7888,-7.2994e+05
4822,-7.3e+05
4823,-7.302e+05
4824,-7.3067e+05
4825,-7.3094e+05
8946,-7.3102e+05
4826,-7.3112e+05
4827,-7.3145e+05
4828,-7.3157e+05
7319,-7.3196e+05
4829,-7.3249e+05
4830,-7.3254e+05
6757,-7.3255e+05
4831,-7.3256e+05
4832,-7.3257e+05
4833,-7.3269e+05
4834,-7.3286e+05
4835,-7.3288e+05
4836,-7.33e+05
4837,-7.3301e+05
4838,-7.3304e+05
6870,-7.3305e+05
8057,-7.3315e+05
6155,-7.3345e+05
8148,-7.3364e+05
4839,-7.3382e+05
4840,-7.339e+05
4841,-7.344e+05
4842,-7.3443e+05
9789,-7.3445e+05
4843,-7.3447e+05
4844,-7.3481e+05
4845,-7.3483e+05
4846,-7.3507e+05
4847,-7.3514e+05
4848,-7.3519e+05
4849,-7.353e+05
9926,-7.3531e+05
4850,-7.3545e+05
4851,-7.3559e+05
4852,-7.3571e+05
4853,-7.3594e+05
10027,-7.3632e+05
4854,-7.3641e+05
7991,-7.3647e+05
4855,-7.3672e+05
8804,-7.3679e+05
4856,-7.3687e+05
4857,-7.3699e+05
4858,-7.3701e+05
9501,-7.3728e+05
4859,-7.3763e+05
4860,-7.3769e+05
7740,-7.3781e+05
6365,-7.3789e+05
7763,-7.381e+05
4861,-7.3814e+05
4862,-7.3814e+05
4863,-7.3817e+05
4864,-7.3826e+05
4865,-7.3834e+05
7692,-7.3852e+05
4866,-7.3868e+05
4867,-7.3877e+05
4868,-7.3901e+05
4869,-7.3908e+05
4870,-7.3911e+05
4871,-7.3913e+05
8719,-7.3923e+05
4872,-7.3933e+05
4873,-7.395e+05
4874,-7.3973e+05
4875,-7.399e+05
10136,-7.4022e+05
4876,-7.4023e+05
4877,-7.4028e+05
8251,-7.403e+05
9132,-7.405e+05
10166,-7.4062e+05
10214,-7.4092e+05
9509,-7.4103e+05
4878,-7.4124e+05
4879,-7.4169e+05
6930,-7.4175e+05
4880,-7.419e+05
4881,-7.4214e+05
4882,-7.4218e+05
4883,-7.4226e+05
7027,-7.4243e+05
4884,-7.4251e+05
6916,-7.426e+05
4885,-7.4276e+05
6542,-7.4284e+05
8247,-7.4293e+05
9238,-7.4304e+05
4886,-7.4312e+05
4887,-7.4332e+05
4888,-7.4341e+05
4889,-7.4342e+05
4890,-7.4367e+05
4891,-7.4385e+05
6598,-7.4423e+05
6799,-7.4438e+05
4892,-7.4441e+05
4893,-7.4481e+05
7346,-7.4488e+05
4894,-7.4518e+05
4895,-7.4534e+05
4896,-7.4547e+05
4897,-7.4549e+05
7967,-7.4567e+05
4898,-7.4574e+05
4899,-7.4582e+05
4900,-7.4596e+05
6589,-7.4598e+05
4901,-7.4604e+05
7505,-7.4694e+05
4902,-7.47e+05
6993,-7.4726e+05
4903,-7.4731e+05
4904,-7.4763e+05
4905,-7.4765e+05
4906,-7.4783e+05
4907,-7.4785e+05
4908,-7.4787e+05
8545,-7.4803e+05
8597,-7.4819e+05
9950,-7.4819e+05
6379,-7.4867e+05
9080,-7.4869e+05
4909,-7.4872e+05
4910,-7.4875e+05
4911,-7.4902e+05
9274,-7.4917e+05
6768,-7.4929e+05
8608,-7.4929e+05
8340,-7.4936e+05
4912,-7.4938e+05
8214,-7.4959e+05
4913,-7.4982e+05
4914,-7.4985e+05
6278,-7.5003e+05
4915,-7.5014e+05
4916,-7.5018e+05
6904,-7.5029e+05
6864,-7.5033e+05
7382,-7.5064e+05
9579,-7.5065e+05
7747,-7.5082e+05
4917,-7.5087e+05
4918,-7.5123e+05
4919,-7.5124e+05
4920,-7.5127e+05
8280,-7.5135e+05
4921,-7.5169e+05
4922,-7.5187e+05
4923,-7.5237e+05
4924,-7.5248e+05
9619,-7.5252e+05
8150,-7.5316e+05
4925,-7.5321e+05
4926,-7.5335e+05
9146,-7.5351e+05
4927,-7.5358e+05
9004,-7.5358e+05
4928,-7.5394e+05
4929,-7.5395e+05
6588,-7.5396e+05
4930,-7.5404e+05
4931,-7.5429e+05
8272,-7.5438e+05
4932,-7.5463e+05
4933,-7.5497e+05
4934,-7.5506e+05
6787,-7.5507e+05
4935,-7.5509e+05
8010,-7.5535e+05
4936,-7.5537e+05
4937,-7.5564e+05
4938,-7.5573e+05
4939,-7.5574e+05
9162,-7.5606e+05
9475,-7.5609e+05
4940,-7.5638e+05
4941,-7.5656e+05
7083,-7.5679e+05
4942,-7.5724e+05
6981,-7.5761e+05
4943,-7.5761e+05
9796,-7.5773e+05
6798,-7.5774e+05
4944,-7.5795e+05
4945,-7.5801e+05
4946,-7.5803e+05
10091,-7.5804e+05
8966,-7.5808e+05
9734,-7.5815e+05
8388,-7.5833e+05
4947,-7.5838e+05
4948,-7.5842e+05
4949,-7.5847e+05
7431,-7.5885e+05
9147,-7.5888e+05
4950,-7.5904e+05
4951,-7.5906e+05
9601,-7.5917e+05
4952,-7.5937e+05
4953,-7.5999e+05
4954,-7.6015e+05
4955,-7.6034e+05
8580,-7.6048e+05
6919,-7.6052e+05
7325,-7.6056e+05
6232,-7.6073e+05
7167,-7.6077e+05
4956,-7.608e+05
6602,-7.611e+05
4957,-7.6114e+05
4958,-7.6134e+05
4959,-7.6139e+05
6238,-7.6152e+05
4960,-7.6173e+05
4961,-7.6176e+05
6521,-7.6176e+05
4962,-7.6218e+05
4963,-7.6243e+05
4964,-7.6256e+05
9314,-7.6267e+05
4965,-7.6304e+05
9420,-7.6316e+05
8683,-7.633e+05
4966,-7.6332e+05
4967,-7.6369e+05
6355,-7.639e+05
4968,-7.6412e+05
4969,-7.6414e+05
9036,-7.6421e+05
4970,-7.6427e+05
4971,-7.6462e+05
7662,-7.6478e+05
4972,-7.6498e+05
4973,-7.6505e+05
4974,-7.6505e+05
7512,-7.6505e+05
9339,-7.6505e+05
9605,-7.651e+05
8015,-7.6514e+05
4975,-7.6535e+05
4976,-7.6548e+05
9581,-7.6555e+05
6803,-7.6578e+05
4977,-7.6618e+05
4978,-7.6622e+05
7306,-7.6629e+05
9391,-7.6651e+05
4979,-7.6655e+05
9105,-7.666e+05
4980,-7.6665e+05
4981,-7.6707e+05
4982,-7.6709e+05
7570,-7.673e+05
9684,-7.6743e+05
4983,-7.677e+05
8225,-7.6785e+05
4984,-7.6791e+05
4985,-7.6801e+05
4986,-7.6803e+05
4987,-7.6821e+05
6652,-7.6824e+05
9311,-7.6844e+05
4988,-7.6855e+05
4989,-7.6867e+05
7838,-7.6882e+05
4990,-7.6894e+05
8818,-7.692e+05
7260,-7.693e+05
6509,-7.6936e+05
8336,-7.6956e+05
4991,-7.6974e+05
4992,-7.698e+05
4993,-7.7016e+05
9446,-7.7027e+05
9180,-7.7029e+05
4994,-7.7033e+05
10022,-7.7039e+05
4995,-7.707e+05
9739,-7.7122e+05
4996,-7.7123e+05
4997,-7.7133e+05
4998,-7.7141e+05
4999,-7.7142e+05
9299,-7.7165e+05
5000,-7.7169e+05
5001,-7.7171e+05
9429,-7.7181e+05
7558,-7.7189e+05
5002,-7.719e+05
5003,-7.719e+05
8313,-7.7194e+05
5004,-7.7199e+05
5005,-7.7234e+05
5006,-7.7241e+05
5007,-7.7244e+05
5008,-7.7252e+05
5009,-7.7261e+05
5010,-7.7308e+05
10008,-7.7336e+05
9901,-7.7348e+05
5011,-7.7361e+05
5012,-7.7365e+05
5013,-7.7398e+05
6683,-7.7402e+05
6478,-7.7414e+05
5014,-7.7422e+05
5015,-7.7432e+05
7516,-7.7443e+05
5016,-7.7469e+05
7914,-7.747e+05
5017,-7.747e+05
7841,-7.7478e+05
5018,-7.7493e+05
8025,-7.7511e+05
8753,-7.7544e+05
6950,-7.755e+05
5019,-7.7579e+05
5020,-7.7628e+05
5021,-7.7661e+05
5022,-7.7677e+05
5023,-7.7684e+05
5024,-7.7706e+05
9931,-7.7717e+05
5025,-7.7737e+05
5026,-7.7741e+05
8421,-7.7744e+05
8320,-7.7749e+05
9688,-7.7782e+05
8258,-7.7794e+05
5027,-7.7799e+05
6878,-7.7807e+05
6224,-7.7827e+05
7723,-7.7836e+05
10098,-7.7838e+05
7137,-7.7894e+05
7821,-7.79e+05
8314,-7.7938e+05
5028,-7.7966e+05
5029,-7.7968e+05
5030,-7.7968e+05
9972,-7.7978e+05
10012,-7.7996e+05
5031,-7.7998e+05
5032,-7.8014e+05
5033,-7.8068e+05
8792,-7.8076e+05
5034,-7.8079e+05
5035,-7.8093e+05
5036,-7.8114e+05
5037,-7.8123e+05
5038,-7.8164e+05
7336,-7.8165e+05
5039,-7.8179e+05
7936,-7.8192e+05
5040,-7.8202e+05
9277,-7.8209e+05
7709,-7.8218e+05
5041,-7.8223e+05
5042,-7.8235e+05
5043,-7.8238e+05
8427,-7.827e+05
5044,-7.8281e+05
5045,-7.8288e+05
9474,-7.8298e+05
9464,-7.8319e+05
5046,-7.8328e+05
7403,-7.8372e+05
5047,-7.8374e+05
5048,-7.842e+05
5049,-7.8421e+05
5050,-7.8426e+05
9914,-7.8441e+05
5051,-7.848e+05
5052,-7.8482e+05
5053,-7.8495e+05
5054,-7.8502e+05
8398,-7.8502e+05
7353,-7.8526e+05
8112,-7.8527e+05
8084,-7.8528e+05
5055,-7.8538e+05
8672,-7.8544e+05
5056,-7.8545e+05
5057,-7.8545e+05
9700,-7.8557e+05
5058,-7.8557e+05
9337,-7.8584e+05
5059,-7.8627e+05
5060,-7.8629e+05
5061,-7.8647e+05
6447,-7.8667e+05
5062,-7.8668e+05
5063,-7.8677e+05
5064,-7.876e+05
8175,-7.8799e+05
5065,-7.8799e+05
5066,-7.8818e+05
5067,-7.8831e+05
5068,-7.8831e+05
6795,-7.8835e+05
7495,-7.8836e+05
5069,-7.8868e+05
5070,-7.8872e+05
8926,-7.8876e+05
6818,-7.8891e+05
5071,-7.8898e+05
9514,-7.8979e+05
5072,-7.898e+05
8268,-7.8989e+05
9766,-7.899e+05
6573,-7.903e+05
5073,-7.9031e+05
5074,-7.9043e+05
5075,-7.9066e+05
9200,-7.907e+05
8602,-7.9072e+05
8370,-7.9073e+05
10157,-7.9077e+05
6718,-7.9113e+05
9668,-7.9131e+05
5076,-7.9135e+05
5077,-7.914e+05
5078,-7.9151e+05
8793,-7.916e+05
6441,-7.9171e+05
10104,-7.9173e+05
10151,-7.9211e+05
8128,-7.9221e+05
5079,-7.9222e+05
6279,-7.9264e+05
7503,-7.9276e+05
5080,-7.9277e+05
5081,-7.9284e+05
8741,-7.9289e+05
5082,-7.929e+05
5083,-7.9303e+05
6693,-7.9306e+05
5084,-7.9308e+05
5085,-7.9332e+05
5086,-7.9341e+05
8728,-7.9358e+05
6971,-7.9361e+05
5087,-7.9403e+05
6549,-7.9407e+05
5088,-7.9422e+05
5089,-7.9461e+05
6895,-7.9462e+05
5090,-7.9471e+05
5091,-7.9474e+05
6550,-7.9519e+05
5092,-7.953e+05
5093,-7.9531e+05
5094,-7.9531e+05
5095,-7.9534e+05
5096,-7.9565e+05
7423,-7.9568e+05
5097,-7.9598e+05
5098,-7.9602e+05
5099,-7.9603e+05
7316,-7.9622e+05
5100,-7.9623e+05
5101,-7.9645e+05
5102,-7.9648e+05
5103,-7.9655e+05
5104,-7.966e+05
5105,-7.967e+05
6164,-7.9672e+05
5106,-7.9684e+05
5107,-7.9697e+05
5108,-7.9712e+05
5109,-7.9714e+05
9322,-7.9721e+05
5110,-7.9725e+05
7141,-7.9741e+05
6308,-7.9757e+05
5111,-7.9795e+05
8691,-7.9811e+05
7580,-7.9858e+05
6962,-7.9863e+05
5112,-7.9871e+05
5113,-7.989e+05
9543,-7.9902e+05
6911,-7.9903e+05
9741,-7.9908e+05
9208,-7.9932e+05
6794,-7.9939e+05
5114,-7.9967e+05
5115,-7.9977e+05
5116,-7.9982e+05
5117,-7.9989e+05
8261,-8e+05
5118,-8.0004e+05
5119,-8.0009e+05
5120,-8.0012e+05
10163,-8.0032e+05
5121,-8.0036e+05
5122,-8.0039e+05
5123,-8.0041e+05
8441,-8.0043e+05
5124,-8.0043e+05
5125,-8.0054e+05
5126,-8.0068e+05
10009,-8.0078e+05
9656,-8.0084e+05
5127,-8.0084e+05
7707,-8.0088e+05
5128,-8.0089e+05
5129,-8.0124e+05
5130,-8.0125e+05
9425,-8.0144e+05
5131,-8.0144e+05
5132,-8.0167e+05
5133,-8.0172e+05
6462,-8.0193e+05
5134,-8.0203e+05
5135,-8.0205e+05
5136,-8.0223e+05
5137,-8.0223e+05
5138,-8.0236e+05
6526,-8.0258e+05
9504,-8.0309e+05
5139,-8.031e+05
7582,-8.0318e+05
7164,-8.0332e+05
5140,-8.034e+05
5141,-8.0341e+05
9588,-8.0346e+05
5142,-8.0353e+05
5143,-8.0361e+05
8495,-8.0389e+05
6172,-8.0435e+05
5144,-8.0442e+05
5145,-8.0447e+05
5146,-8.0449e+05
5147,-8.0472e+05
8780,-8.0496e+05
5148,-8.0503e+05
5149,-8.0552e+05
7701,-8.0583e+05
5150,-8.0587e+05
5151,-8.0602e+05
5152,-8.0607e+05
5153,-8.0614e+05
5154,-8.0641e+05
5155,-8.0654e+05
5156,-8.0664e+05
5157,-8.0666e+05
5158,-8.0667e+05
7898,-8.0672e+05
5159,-8.0674e+05
9780,-8.0697e+05
7563,-8.0725e+05
5160,-8.0753e+05
5161,-8.0766e+05
8606,-8.0774e+05
7610,-8.0785e+05
8132,-8.0796e+05
6215,-8.0803e+05
7051,-8.081e+05
10184,-8.0817e+05
5162,-8.083e+05
8532,-8.0869e+05
5163,-8.0874e+05
7145,-8.0898e+05
5164,-8.0902e+05
9932,-8.0919e+05
5165,-8.0924e+05
5166,-8.0926e+05
8070,-8.0971e+05
5167,-8.0974e+05
6167,-8.0996e+05
8347,-8.0996e+05
5168,-8.1002e+05
5169,-8.102e+05
6929,-8.1029e+05
5170,-8.1039e+05
5171,-8.1047e+05
5172,-8.1051e+05
7678,-8.1076e+05
9609,-8.1109e+05
5173,-8.112e+05
5174,-8.1124e+05
5175,-8.1129e+05
5176,-8.1131e+05
6619,-8.1148e+05
5177,-8.1163e+05
5178,-8.1167e+05
5179,-8.1194e+05
5180,-8.1203e+05
5181,-8.1223e+05
5182,-8.1227e+05
9142,-8.1242e+05
7009,-8.1257e+05
5183,-8.1274e+05
5184,-8.1283e+05
5185,-8.1313e+05
8395,-8.1325e+05
8024,-8.1327e+05
6244,-8.1353e+05
6178,-8.1359e+05
7343,-8.1361e+05
7713,-8.1369e+05
6593,-8.1395e+05
5186,-8.1396e+05
5187,-8.1404e+05
5188,-8.1413e+05
5189,-8.1429e+05
5190,-8.145e+05
5191,-8.1455e+05
5192,-8.1457e+05
5193,-8.1469e+05
9108,-8.147e+05
8459,-8.1475e+05
6852,-8.1489e+05
5194,-8.1493e+05
9222,-8.1508e+05
7879,-8.1518e+05
5195,-8.1533e+05
5196,-8.1535e+05
6236,-8.155e+05
5197,-8.1562e+05
7234,-8.1586e+05
9879,-8.1601e+05
5198,-8.1619e+05
5199,-8.1624e+05
5200,-8.1628e+05
5201,-8.1653e+05
9390,-8.1675e+05
9707,-8.1692e+05
6990,-8.1692e+05
6339,-8.1707e+05
8353,-8.1715e+05
9368,-8.172e+05
8026,-8.175e+05
5202,-8.1756e+05
9275,-8.1764e+05
9224,-8.178e+05
6964,-8.1872e+05
8809,-8.1885e+05
5203,-8.1888e+05
9748,-8.1897e+05
5204,-8.1922e+05
5205,-8.1939e+05
5206,-8.1955e+05
5207,-8.1957e+05
5208,-8.1971e+05
7075,-8.1996e+05
6448,-8.2015e+05
8726,-8.2028e+05
7000,-8.203e+05
7774,-8.2044e+05
5209,-8.2059e+05
8203,-8.2059e+05
5210,-8.2069e+05
5211,-8.2072e+05
5212,-8.2102e+05
7912,-8.211e+05
5213,-8.2126e+05
5214,-8.2152e+05
5215,-8.2152e+05
5216,-8.2153e+05
6198,-8.2165e+05
5217,-8.2174e+05
8339,-8.2176e+05
5218,-8.2208e+05
5219,-8.2225e+05
5220,-8.2239e+05
5221,-8.2267e+05
5222,-8.2292e+05
7070,-8.2292e+05
9546,-8.2293e+05
5223,-8.2358e+05
8987,-8.2403e+05
8849,-8.2419e+05
5224,-8.242e+05
5225,-8.2451e+05
6435,-8.2469e+05
5226,-8.2475e+05
7780,-8.2485e+05
5227,-8.2507e+05
5228,-8.2535e+05
9449,-8.2543e+05
5229,-8.2556e+05
6275,-8.2578e+05
6866,-8.2593e+05
5230,-8.2618e+05
7909,-8.2621e+05
6595,-8.2647e+05
9438,-8.2702e+05
5231,-8.2717e+05
5232,-8.2717e+05
5233,-8.2727e+05
5234,-8.2741e+05
5235,-8.2742e+05
7798,-8.2771e+05
5236,-8.2785e+05
7442,-8.2794e+05
9400,-8.2804e+05
5237,-8.2804e+05
5238,-8.2805e+05
5239,-8.2805e+05
5240,-8.2813e+05
8654,-8.2848e+05
9663,-8.285e+05
5241,-8.2879e+05
6480,-8.288e+05
7827,-8.2883e+05
5242,-8.2903e+05
5243,-8.2915e+05
9325,-8.2934e+05
5244,-8.294e+05
6235,-8.2941e+05
8971,-8.2942e+05
9331,-8.2946e+05
5245,-8.2968e+05
5246,-8.2978e+05
9715,-8.2987e+05
5247,-8.306e+05
5248,-8.3075e+05
5249,-8.3105e+05
5250,-8.3114e+05
5251,-8.3136e+05
6361,-8.3142e+05
9697,-8.3147e+05
8894,-8.3147e+05
7623,-8.3153e+05
6629,-8.316e+05
5252,-8.3161e+05
7305,-8.3165e+05
5253,-8.3178e+05
6810,-8.3183e+05
5254,-8.3194e+05
6565,-8.3201e+05
9430,-8.3207e+05
5255,-8.3216e+05
5256,-8.3216e+05
9850,-8.3218e+05
5257,-8.3222e+05
5258,-8.3226e+05
9768,-8.3234e+05
5259,-8.3245e+05
5260,-8.325e+05
5261,-8.3256e+05
8897,-8.3274e+05
5262,-8.3275e+05
9746,-8.3288e+05
5263,-8.329e+05
5264,-8.3293e+05
5265,-8.3304e+05
7647,-8.3305e+05
6174,-8.3318e+05
7079,-8.3321e+05
5266,-8.3324e+05
5267,-8.3334e+05
5268,-8.3339e+05
5269,-8.3352e+05
6250,-8.336e+05
8415,-8.3372e+05
5270,-8.3389e+05
7792,-8.3392e+05
5271,-8.3412e+05
9469,-8.3477e+05
5272,-8.3486e+05
5273,-8.3489e+05
7501,-8.3536e+05
9454,-8.3554e+05
5274,-8.3564e+05
10201,-8.3572e+05
6985,-8.3573e+05
5275,-8.361e+05
9367,-8.3629e+05
6142,-8.363e+05
5276,-8.3634e+05
5277,-8.3675e+05
5278,-8.3684e+05
5279,-8.3734e+05
6523,-8.3737e+05
5280,-8.3766e+05
7073,-8.378e+05
5281,-8.3789e+05
5282,-8.38e+05
5283,-8.3823e+05
5284,-8.3837e+05
5285,-8.384e+05
5286,-8.3845e+05
9852,-8.3863e+05
5287,-8.387e+05
5288,-8.3878e+05
5289,-8.3888e+05
10055,-8.3952e+05
5290,-8.3995e+05
5291,-8.3995e+05
5292,-8.4011e+05
7457,-8.4019e+05
5293,-8.4021e+05
10076,-8.4024e+05
5294,-8.4027e+05
9753,-8.4054e+05
5295,-8.4058e+05
7543,-8.41e+05
7176,-8.4152e+05
8837,-8.4192e+05
8122,-8.4201e+05
8622,-8.4205e+05
6323,-8.4238e+05
5296,-8.4239e+05
5297,-8.428e+05
5298,-8.4291e+05
9012,-8.4293e+05
7932,-8.4295e+05
5299,-8.431e+05
9844,-8.4311e+05
8969,-8.4321e+05
5300,-8.4346e+05
5301,-8.437e+05
9550,-8.4372e+05
5302,-8.4419e+05
7955,-8.4419e+05
5303,-8.4423e+05
8636,-8.4423e+05
8484,-8.443e+05
5304,-8.4438e+05
5305,-8.4463e+05
5306,-8.4469e+05
9880,-8.4478e+05
8607,-8.4479e+05
5307,-8.4485e+05
7402,-8.452e+05
5308,-8.4547e+05
5309,-8.4563e+05
9551,-8.4583e+05
6201,-8.4591e+05
5310,-8.4618e+05
5311,-8.4654e+05
5312,-8.4655e+05
9788,-8.466e+05
5313,-8.467e+05
8670,-8.4684e+05
5314,-8.471e+05
5315,-8.473e+05
5316,-8.473e+05
5317,-8.4786e+05
8129,-8.4787e+05
9876,-8.4794e+05
5318,-8.4815e+05
5319,-8.4839e+05
5320,-8.4845e+05
5321,-8.4855e+05
6340,-8.4858e+05
9516,-8.4865e+05
9965,-8.4885e+05
6675,-8.4887e+05
8574,-8.4888e+05
9498,-8.489e+05
