
3725
-1687156.86
-1223235.42
-555085.937
-880572.668
3729
-1408920.49
-1359128.61
-1922003.09
-1624380.26
3733
-1546229.45
-1190636.78
-1869382.14
-930663.72
3737
-1134340.8
-683840.085
-1201607.71
-1116911.7
3741
-1785091.41
-1303849.47
-970184.438
-847936.962
3745
-1067659.21
-1242958.1
-816010.679
-844782.482
3749
-1530521.25
-995065.078
-1420576.55
-1815577.14

309
-791711.089
-1521660.79
-1400009.5
-680710.617
313
-1015758.44
-1663804.6
-786665.749
-820146.244
317
-919293.042
-964294.541
-1154500.71
-1217586.38
321
-1265632.62
-1425354.21
-1995873.45
-1187979.15
325
-1084449.7
-1512026.13
-1102901.61
-947971.915
329
-673071.198
-801930.646
-1422717.09
-1661594.67
333
-1474839.93
-957995.941
-1244918.5
-601877.193

477
-1251752.25
-914651.675
-1318339.05
-1525256.22
481
-606497.353
-1179856.38
-710757.831
-1371401.98
485
-1112696.69
-1277862.92
-811478.492
-1276637.2
489
-1314918.67
-973562.018
-1600775.73
-530324.656
493
-1246912.65
-1197583.69
-1030534.64
-1423258.91
497
-831600.07
-1490622.07
-966286.377
-597142.457
501
-1274897.65
-1454556.3
-1434877
-1204557.57

505
-1114165.02
-567531.317
-2074156.4
-1391315.16
509
-897357.387
-1183852.71
-1299012.11
-1165156.33
513
-1310095.63
-1126849.09
-1050538.2
-1712404.87
517
-1510775.34
-1265008.99
-1051861.66
-768241.445
521
-1397959.4
-1143062.42
-1070238.79
-1376390.1
525
-1263685.93
-1421688.86
-716753.391
-1088866.2
529
-1885338.35
-1495337.4
-1234862.5
-1341891.21

981
-895877.904
-1063876.89
-952854.332
-1327046.78
985
-1242935.63
-866815.019
-939271.274
-891615.348
989
-1404216.8
-660333.195
-924614.852
-1285861.62
993
-1329519.83
-1274544.65
-1465174.6
-1852800.93
997
-1763440.24
-1187713.53
-1123186.84
-1931522.44
1001
-2066539.62
-1030849.79
-1040060.18
-1036806.84
1005
-778940.65
-2133953.26
-1221198.45
-1096541.53

365
-718871.882
-1277065.83
-1369492.56
-1361070.12
369
-1340204.96
-1271072.34
-1263953.15
-1403044.28
373
-1583007.09
-1619535.96
-1306598.05
-1100250.99
377
-769364.084
-1487722.76
-1409308.92
-928660.55
381
-1197590.75
-1198530.92
-1582243.86
-1298923.66
385
-1179901.58
-1693505.41
-1166269.2
-1735245.23
389
-761764.692
-932285.685
-837372.14
-1395022.57

29
-966035.1
-991081.147
-1214157.39
-796720.155
33
-912256.989
-441139.207
-809956.668
-676885.394
37
-1207082.81
-2145854.86
-1278546.89
-804346.89
41
-1396980.78
-833176.847
-1866784.27
-569011.01
45
-1706930.31
-813588.203
-1005995.3
-1072408.8
49
-1747167.11
-1306280.27
-1609283.6
-1439916.32
53
-1108998.86
-926792.593
-1005232.69
-1588946.96

673
-988431.955
-1330675
-1653033.4
-683612.123
677
-1666264.3
-831829.642
-1223071.56
-994394.748
681
-1304414.32
-551845.635
-1052327.77
-1233171.75
685
-1530110.8
-788907.23
-1710201.62
-1139511.64
689
-1417869.38
-1212371.4
-1132840.16
-548605.572
693
-1017566.98
-858086.585
-1132643.17
-2060744.23
697
-1147883.98
-1154815.41
-906491.202
-1515514.81

141
-1689729.09
-1105148.54
-825776.772
-1034273.29
145
-1335957.77
-750025.261
-792644.974
-1414990.03
149
-950526.962
-1400177.85
-854037.448
-701876.473
153
-1376545.13
-1320441.84
-1610059.85
-1434220.32
157
-1126617.93
-1795719.3
-876094.006
-1588146.17
161
-1188236.32
-1138192.63
-1166108.7
-1905333.2
165
-1188928.74
-1472515.06
-644783.03
-1555791.38

449
-1298820.92
-973261.948
-1005297.18
-888118.783
453
-1596877.11
-1698283.98
-1312478.67
-753964.037
457
-745977.575
-1690517.24
-1152493.43
-500435.4
461
-813952.443
-1385834.87
-826473.558
-893674.99
465
-1177010.89
-744229.547
-1634845.55
-894863.784
469
-1603244.87
-761097.031
-1170420.8
-1665954.39
473
-1181392.24
-1245609.24
-1054208.29
-1480848.2

841
-1484681.81
-1037193.84
-1217442.81
-1101399.11
845
-704509.358
-893352.199
-983191.712
-1671070.99
849
-757605.921
-1023836.16
-1538697.1
-966836.991
853
-835726.499
-1787199.02
-1099947.88
-1407106.78
857
-1425662.94
-816924.562
-1456210.09
-538924.177
861
-747262.212
-1134924.52
-1820780.71
-1256174.12
865
-659081.757
-1661139
-1237704.66
-820300.462

281
-958477.32
-1375643.57
-1355815.77
-471002.568
285
-1365068.69
-1218949.23
-1196559.33
-1931562.35
289
-1362622.53
-1537963.45
-1575908.34
-859461.057
293
-1445835.59
-710685.606
-859869.659
-2154499.96
297
-1146677.08
-1134067.12
-2003600.24
-1563429.2
301
-624983.84
-1185813.9
-824691.524
-1349474.8
305
-996419.17
-1001219.5
-1219357.46
-1345380.23

897
-978171.098
-1758753.65
-956235.56
-1280853.91
901
-1152756.86
-1460561.1
-1004047.63
-1368977.05
905
-1369892.18
-1711559.84
-724897.827
-1185990.92
909
-1826342.32
-918217.444
-1196554.04
-1295002.98
913
-1195100.35
-1486683.24
-1079599.22
-1326636.4
917
-1151524.7
-915841.094
-808104.223
-929366.948
921
-915550.45
-1624353.67
-1649579.37
-1383161.28

57
-1372019.47
-1505279.53
-1287325
-1451090.46
61
-1327303.5
-1422927.88
-986019.596
-1815626.67
65
-941521.64
-821649.093
-924838.877
-1273531.86
69
-845909.808
-1041194.86
-1833914.41
-1629309.11
73
-1396219.19
-1148477.23
-1520329.44
-1318196.94
77
-1498942.85
-1063028.22
-1192123.18
-1405069.77
81
-1649835.68
-1075992.95
-808033.151
-1162770.67

393
-1346974.52
-802577.792
-1362592.59
-902042.015
397
-1140486.92
-968663.851
-1449331.61
-1033721.03
401
-1240725.01
-1130177.73
-955900.504
-1506973.22
405
-1049798.97
-1426317.81
-1084271.24
-467230.316
409
-701186.321
-742837.165
-1109357.59
-1229305.75
413
-914954.648
-1315974.92
-1019326.98
-1653953.02
417
-794074.738
-795186.125
-1134962.03
-1334481.66

1373
-746942.026
-1500592.16
-1335214.24
-1965972.27
1377
-1202378.74
-1368576.85
-1702648.18
-765051.787
1381
-934820.495
-2108443.25
-1367131.54
-774433.145
1385
-1424646.51
-894618.325
-1092845.93
-1709763.29
1389
-683626.511
-1277622.14
-963079.902
-1106706.55
1393
-1463896.69
-1169118.14
-1510045.25
-1686766.99
1397
-1337963.33
-975453.135
-876424.35
-1034481.42

757
-1504541.52
-671378.61
-1630125.6
-1007042.97
761
-719189.461
-1086343.82
-794618.63
-1130613.78
765
-681317.839
-1071614.87
-1002339.28
-1259659.94
769
-1528793.83
-1344787.81
-1246637.14
-750293.324
773
-1118932.25
-1258646.45
-1318028.33
-1532892.12
777
-979514.079
-1852913.51
-799033.789
-1631140.5
781
-1370811.34
-1217326.45
-1493915.83
-742596.177

1233
-659458.8
-1213072.07
-1081048.46
-1057358.69
1237
-1007829.57
-1637691.08
-946696.194
-564958.159
1241
-1868459.19
-1002748.95
-1236270.27
-1813557.22
1245
-849493.458
-701595.038
-890707.676
-1196953.27
1249
-1200802.82
-750635.505
-724656.637
-1101586.75
1253
-1108029.25
-1205694.33
-1555483.93
-1138698.9
1257
-1740788.67
-1774686.04
-974099.782
-1538915.97

1121
-723683.943
-1174847.52
-1489374.41
-1189969.72
1125
-1064569.17
-1312348.19
-1432625.22
-769302.89
1129
-1531837.92
-1628779.81
-1490592.38
-852724.31
1133
-947713.575
-1196054.88
-1532523.39
-1279037.79
1137
-1364804.84
-998670.948
-1453989.54
-526593.291
1141
-864561.216
-1137639
-1634168.49
-1236410.33
1145
-577453.994
-1109321.56
-1387277.41
-1540716.59

645
-1196728.68
-944618.238
-1274912.15
-1608475.75
649
-882474.548
-1061259.23
-1462066.55
-1016299.42
653
-929294.313
-1016111.8
-755068.46
-1275017.22
657
-915153.758
-922533.334
-984816.918
-1807014.22
661
-1175551.66
-799387.292
-788353.812
-962146.103
665
-1640701.06
-757737.728
-744376.926
-982542.547
669
-1259729.15
-1146301.24
-765783.05
-1054894.77

589
-1850928.87
-1308329.18
-1353131.83
-897362.314
593
-1345871.49
-1280001.67
-1177985.12
-885609.116
597
-1655731.45
-1440720.81
-960174.517
-1277091.72
601
-1110686.18
-1059236.64
-1265761.21
-1771525.63
605
-1209232.66
-1016347.94
-1215199.94
-1180279.37
609
-1215314.57
-867639.228
-1496589.77
-1009580.14
613
-1274014.05
-656980.496
-883866.299
-1082932.76

953
-1229511
-1305172.13
-1782345.29
-1207537.59
957
-1229063.87
-1657104.01
-1381339.5
-872161.673
961
-1635253.08
-1437075.13
-1212578.53
-1527161.39
965
-1573052.56
-1347560.1
-1054913.29
-1298312.3
969
-883597.511
-895061.668
-589997.413
-924215.303
973
-1014180.57
-1031742.69
-980873.696
-1601814.07
977
-1633547.69
-1306605.22
-1148900.46
-962262.811

869
-1408614.26
-1760104.4
-1725956.27
-1259593.96
873
-980533.538
-1066988.42
-1840683.05
-2193368.99
877
-812565.015
-1783636.53
-1570377.3
-991076.472
881
-1225906.83
-1052952.88
-1271982.56
-1266340.36
885
-1822639.91
-1533012.05
-1560287.4
-1464053.23
889
-877963.163
-1380853.76
-1451451.59
-1453081.23
893
-1184130.26
-697383.258
-742428.255
-1113566.92

729
-1095235.88
-855077.391
-1570236.25
-750327.599
733
-1104822.08
-825932.327
-1194343.72
-1017594.88
737
-979613.347
-733050.74
-1403076.47
-1042979.59
741
-1833303.31
-715821.48
-1188247.42
-595841.816
745
-1293691.62
-778074.535
-1530413.66
-988304.109
749
-1659562.67
-1202372.08
-1147577.31
-957222.823
753
-998595.703
-1356199.14
-1245880.94
-1128166.71

169
-961540.164
-505239.697
-1284157.15
-1774359.92
173
-1201233.06
-638441.915
-683417.423
-797573.854
177
-1526523.26
-1345892.44
-1167263.08
-890075.719
181
-595112.981
-1122136.68
-951464.275
-1836505.34
185
-1030064.03
-1758693.98
-1590243.62
-1332161.28
189
-666065.943
-928454.324
-842380.59
-1003243.69
193
-1071322.88
-1558059.28
-1792520.91
-884319.004

617
-1218949.7
-632875.251
-1376897.89
-1399721.48
621
-934425.453
-1320020.49
-1272709.61
-998574.899
625
-732554.143
-1562871.61
-1450684.67
-882156.702
629
-962386.461
-1748210.09
-1296229.98
-1491259.79
633
-1364383.72
-1047413.65
-378029.62
-749288.002
637
-1454429.17
-1313312.23
-696974.622
-1137058.3
641
-1179031.57
-1119406.37
-661146.64
-1304293.7

785
-1466069.87
-633069.848
-760517.651
-1384723.85
789
-1382234.22
-1177210.43
-1271056.98
-1232387.12
793
-1914483.52
-1097557.53
-2704714.5
-926803.93
797
-810285.214
-741753.434
-1673563.67
-937445.39
801
-720381.228
-981479.815
-1295916.96
-1075263.69
805
-1466359.31
-1035296.6
-1278883.77
-973911.92
809
-1325879.6
-1062573.19
-1074464.69
-1144978.22

1
-1211037.02
-1671255.5
-1382255.87
-2173091.97
5
-1108513.78
-1460504.07
-1359690.39
-1373211.7
9
-914967.132
-836303.697
-1705479.36
-1194064.49
13
-1366501.55
-1070253.44
-1846130.27
-1283602.76
17
-1435057.13
-1157447.18
-1081584.58
-930459.112
21
-1021963.07
-864066.206
-733454.35
-1252940.05
25
-1887861.6
-1147548.45
-1193742.34
-1474703.7

1149
-1389868.86
-1083329.1
-939553.637
-1254511.06
1153
-1089488.98
-1486447.07
-1422741.45
-1075408.47
1157
-975176.07
-1586205.98
-2110292.66
-978523.458
1161
-1165753.3
-855186.738
-1702358.22
-975580.411
1165
-1006454.78
-1044594.4
-1332198.14
-711571.801
1169
-1250226.32
-1575366.1
-572263.919
-1151035.97
1173
-831648.549
-766286.974
-1218996.91
-1054587.93

701
-1490343.53
-1109754.42
-1067011.33
-1399296.41
705
-960111.098
-1642413.37
-1730480.07
-709988.947
709
-914522.593
-1538146.22
-1200423.59
-2005810.83
713
-1532109.55
-1207721.93
-1830970.25
-1308312.49
717
-994554.051
-1017291.47
-862288.047
-814887.9
721
-1789632.89
-1251114.95
-618518.636
-1755134.1
725
-1198580.69
-1083738.22
-1065214.99
-1379785.89

1289
-1071585.91
-1137250.94
-795684.635
-1333944.72
1293
-1603175.86
-1034298.22
-1351065.91
-1084968.74
1297
-1628907.28
-1329402.91
-758848.861
-902612.938
1301
-1698150.8
-678954.063
-1148733.7
-982188.904
1305
-1557280.05
-866347.479
-1182801.42
-1436935.05
1309
-995522.221
-827939.563
-1713945.93
-1093887.3
1313
-1612115.43
-1848047.78
-883960.862
-908874.989

1177
-937949.592
-640960.185
-1236783.1
-1071391.73
1181
-1821132.67
-943166.576
-996057.208
-796224.712
1185
-1561547.74
-1027662.66
-731955.579
-1546667.31
1189
-1055164
-2043176.99
-1160644.51
-1094617.93
1193
-760557.148
-967727.615
-585917.123
-1685283.85
1197
-1555377.49
-1253294.67
-1468337.34
-866041.826
1201
-890832.188
-1118995.21
-1365443.43
-781647.395

1317
-1282054.19
-856477.363
-1100116.39
-1332580.04
1321
-1000540.41
-1413208.99
-1409397.49
-1086610.53
1325
-840189.041
-1743953.36
-1067459.52
-947147.91
1329
-1619347.38
-1596489.56
-651739.725
-1083694.09
1333
-1724415.54
-1176296.43
-1482012.1
-1421452.84
1337
-949155.098
-859229.735
-1784423.03
-1390645.03
1341
-662655.531
-1127605.17
-897288.956
-855484.995

1261
-1327563.09
-1588180.38
-1362838.31
-1155200.93
1265
-1034073.7
-1346083.16
-1464003.55
-1345302.63
1269
-1403342.63
-845201.478
-783722.711
-1171418.08
1273
-1341590.95
-911253.382
-1205695.88
-1123213.68
1277
-1537274.16
-1309144.73
-1858598.17
-1644911.1
1281
-1414512.92
-1092458.55
-644974.29
-1152328.86
1285
-564139.057
-1575815.58
-1308414.55
-931664.933

1009
-797405.225
-1041241.03
-1049333.45
-1080177.85
1013
-808977.566
-1662275.92
-950391.864
-1487442.18
1017
-1193532
-1203991.18
-1077507.84
-1848394.5
1021
-1332177.42
-662007.073
-1866798.21
-1402871.07
1025
-2219027.49
-669821.939
-1502846.34
-1072547.23
1029
-1386995.11
-1186531.25
-1392840.1
-803321.226
1033
-1147073.64
-1095994.46
-760768.567
-1126049.83

1569
-805829.983
-1461612.97
-1664417.64
-1175355.22
1573
-904013.637
-663450.045
-800881.561
-1002170.7
1577
-782183.554
-1095662.13
-1187135.38
-859633.312
1581
-813686.626
-693992.668
-1210817.15
-1899543.5
1585
-1011033.19
-987763.188
-1114574.75
-1330862.28
1589
-1539522.49
-1622022.14
-778358.429
-1939966.01
1593
-1402139.73
-1273075.45
-1016408.81
-1103251.72

1541
-1455123.47
-1119077.88
-1482139.42
-1724837.64
1545
-1746300.47
-810764.525
-1731823.42
-1446287.81
1549
-868151.785
-1147450.81
-1470492.72
-1176923.02
1553
-1675542.24
-1421435.12
-993470.841
-1026302.66
1557
-2240465.32
-1166913.64
-1033934.75
-738516.723
1561
-2283623.49
-1035903.25
-1024280.33
-1136756
1565
-1338809.32
-872141.969
-613093.441
-1203282.46

421
-1102882.52
-622371.809
-1734255.32
-1145230.02
425
-922886.556
-969951.702
-1567214.76
-1327160.11
429
-1251281.55
-1545168.62
-1969858.12
-1856255.8
433
-832007.58
-896449.806
-1416574.76
-699111.04
437
-719116.894
-1115153.72
-873866.367
-708808.014
441
-790302.203
-717817.627
-1570037.8
-1693741.55
445
-1476865.76
-1143462
-1172738.84
-881670.493

1093
-1253133.86
-1011426.39
-1177090.89
-1302874.8
1097
-1298469.2
-1670554.25
-903708.818
-865508.211
1101
-1218560.95
-815856.564
-573353.792
-1233055.99
1105
-1481766.17
-1571998.35
-634410.475
-861495.578
1109
-910187.023
-1043557.26
-549967.059
-1706232.27
1113
-1354742.3
-1383761.77
-906622.739
-1350182.72
1117
-1076788.37
-1573643.81
-1011132.58
-1056774.46

561
-793055.338
-931048.789
-1591164.88
-1570377.75
565
-1285221.89
-1444329.25
-1179427.1
-1008510.33
569
-1173373.99
-1400666.09
-1143268.25
-1044628.25
573
-1409484.9
-1308758.94
-1179444.43
-1507030.21
577
-977537.494
-1175929.21
-917948.339
-1902500.64
581
-1879401.42
-1619157.93
-1222266.49
-1341263.32
585
-1046724.47
-791125.334
-1861130.18
-908271.228

925
-898418.032
-1225027.18
-951519.385
-1714670.87
929
-889385.855
-902879.7
-1105610.79
-1145970.89
933
-972406.909
-1403721.18
-1383130.85
-1412990.43
937
-1661444.31
-822922.695
-2109470.73
-1721917.46
941
-837795.784
-1034165.66
-819961.486
-1029917.11
945
-1178061.22
-1234260.17
-833210.03
-669550.919
949
-1226761.32
-856597.01
-756786.685
-908345.915

1065
-1119650.41
-1646424.74
-1000635.32
-1616072.29
1069
-1353125.08
-1236083.3
-2004940.57
-1116847.01
1073
-1362672.21
-1457431.24
-1329434.39
-1421400.09
1077
-954391.296
-894407.328
-1029596.34
-1750333.05
1081
-1408026.8
-1323893.86
-1470256.12
-1344974.75
1085
-1188963.14
-1519026.81
-1384119.37
-602190.673
1089
-1056380.22
-1198891.89
-1628458.23
-1253008.1

1793
-1238642.76
-1728040.93
-1126462.04
-960580.465
1797
-1456513.09
-1231392.11
-1217699.64
-842954.608
1801
-1063812.65
-1407455
-1749256.98
-781924.482
1805
-922164.327
-1893833.13
-1346184.98
-1946464.76
1809
-1678901.36
-1135146.64
-1803476.27
-1659233.15
1813
-1261838.71
-1568080.75
-1113415.12
-1414584.11
1817
-1521774.3
-1137270.48
-1054570.47
-1116497.8

1653
-1322336.71
-1057500.98
-991112.741
-957532.142
1657
-1217827.8
-1413432.15
-2137893.58
-833922.842
1661
-1508040.51
-1068024.71
-964874.89
-1611212.58
1665
-909165.128
-827710.424
-1397083.23
-1220727.91
1669
-1256271.85
-1910880.92
-1224084.02
-1260810.02
1673
-918077.265
-1005451.95
-1289944.53
-1194684.36
1677
-1144267.92
-691148.712
-1404989.39
-1619680.06

1905
-1284978.19
-1081850.3
-1168219.94
-1019704.94
1909
-1614935.34
-711778.554
-2236760.24
-1246858.55
1913
-1046924.43
-1211817.02
-1446815.8
-853665.003
1917
-864387.391
-1326357.81
-986975.984
-1261975.85
1921
-1431741.8
-1050659.25
-1431220.93
-1334709.95
1925
-733151.481
-1269795.42
-1115906.71
-1178445.57
1929
-986560.381
-1442140.01
-1227787.1
-1003704.69

1877
-1078356.26
-755354.458
-527967.999
-1261528.02
1881
-1094437.53
-1294678.89
-765144.674
-978759.031
1885
-1195498.28
-1647579.08
-1314156.06
-1097786.57
1889
-1491601.74
-1030779.39
-1142910.29
-813269.873
1893
-775112.85
-817497.647
-1302664.37
-1054144.3
1897
-911606.352
-1261254.18
-1417095.25
-1357520.1
1901
-1546887.16
-1337162.12
-1128613.43
-1777610.72

1345
-978201.183
-1265266.95
-1037032.85
-716755.701
1349
-1596936.95
-908199.067
-1084673.02
-2484081.66
1353
-1142106.07
-688001.011
-1494311.94
-1374772.11
1357
-1496476.79
-1091117.34
-1109373.2
-1594116.68
1361
-978015.965
-1461897
-788356.794
-1465853.22
1365
-1173193.7
-1190572.7
-2155723.31
-567475.076
1369
-835355.138
-2012956.77
-792757.807
-1130725.51

1933
-619009.681
-1437405.02
-1073271.46
-1115390.55
1937
-929919.638
-809707
-1585104.66
-1636800.32
1941
-1283046.19
-1601131.38
-2058683.35
-1316034.85
1945
-1446910.23
-1077677.27
-1913172.94
-899696.672
1949
-630645.542
-1516148.34
-903669.1
-785275.826
1953
-1784455.07
-1388517
-1378073.41
-703063.541
1957
-944605.741
-1522845.19
-1706521.03
-1434892.34

813
-1033617.32
-1099456
-1338140.44
-958677.588
817
-1707313.62
-775498.926
-905123.655
-1389922.15
821
-1343633.04
-1640947.68
-1659459.72
-1228958.85
825
-1705095.16
-1527095.86
-1439386.19
-1335197.11
829
-1542961.2
-798625.213
-858760.583
-818721.763
833
-1903428.65
-1682400.65
-1371918.78
-1333352.78
837
-1081500.84
-1217547.15
-793606.08
-1308166.71

1737
-1174979.71
-1438119.58
-1679022.58
-1004213.15
1741
-1260187.38
-1180187.28
-966333.886
-853087.259
1745
-967570.81
-941952.221
-815181.209
-1412805.07
1749
-1677719.51
-947538.933
-1313788.66
-1027935.74
1753
-924001.706
-636325.067
-1312292.34
-729942.343
1757
-1347232.37
-1441358.45
-607978.414
-728637.772
1761
-1018694.17
-1427543.62
-1432089.95
-1196184.9

1597
-1248336.47
-1905718.99
-1269070.58
-1679475.73
1601
-1284230.67
-1724123.17
-1536004.04
-913698.138
1605
-602145.011
-895504.497
-1089565.92
-737810.653
1609
-904064.6
-1167776.94
-1111119.35
-1801039.31
1613
-1105664.37
-1449987.52
-750824.228
-953848.778
1617
-1101764.01
-678202.185
-1542649.75
-871583.051
1621
-1122819.36
-1534328.59
-1193735.77
-853466.572

1821
-1214596.66
-979512.499
-844193.067
-1954032.78
1825
-1108088.8
-1405873.21
-1573341.99
-1172469.24
1829
-1125196.51
-1315894.59
-1360515.82
-1935909
1833
-700066.773
-1351633.04
-745673.411
-1247882.53
1837
-1224558.52
-1339981.63
-1355473.99
-1187104.35
1841
-373695.128
-1087998.54
-1308056.46
-1296441.84
1845
-1193636.79
-1120934.71
-539114.592
-1265795.94

1625
-454679.281
-927976.06
-1680696.94
-1536802.24
1629
-1611419.67
-934845.746
-738096.418
-1928056.29
1633
-1412725.66
-1502272.7
-528073.015
-1541236.57
1637
-1090454.37
-1165165.88
-1249783.62
-1311128.61
1641
-987893.676
-820437.325
-487590.102
-1378831.39
1645
-952335.994
-1079877.79
-1224400.79
-824853.675
1649
-284104.498
-1420235.75
-1050761.94
-1215144.87

337
-1237300.51
-1734384.63
-2006008.44
-1223609.48
341
-1151600.23
-995062.927
-512988.65
-1163964.84
345
-1099918.17
-774136.265
-886256.614
-828800.148
349
-721835.616
-1184205.08
-1094813.06
-996123.793
353
-861519.568
-1230046.34
-1445253.19
-1315145.34
357
-945335.909
-1086251.09
-1038851.99
-1688537.26
361
-1073069.65
-1662935.79
-1842409.42
-1432932.45

1401
-1801483.38
-1058170.05
-1132594.15
-1346998.39
1405
-1399654.98
-856336.785
-1290908.92
-1255081.79
1409
-946672.616
-1172431.46
-840996.955
-866744.897
1413
-1166522.71
-1300070.12
-1191561.41
-1456918.68
1417
-926793.373
-1428380
-689585.373
-1362171.45
1421
-1232162.69
-885681.974
-1753250.34
-617931.404
1425
-1294410.4
-771890.974
-938326.218
-1866399.46

533
-1377732.77
-1436095.22
-1077385.86
-1231015.41
537
-1020403.01
-2128700.81
-1270523.32
-1041410.6
541
-1281999.31
-1692688.5
-848865.675
-1288972.71
545
-671193.454
-880059.258
-1155356.4
-1116826.89
549
-1113930.08
-1200869.51
-774021.085
-1068810.02
553
-1020371.02
-1049398.77
-1141315.57
-1016430.75
557
-858344.283
-884319.842
-1397892.9
-1492370.01

2017
-576781.564
-753157.283
-1802321.91
-1579307.69
2021
-922924.59
-1002344.8
-1462591.55
-1162517.02
2025
-1091693.25
-1192113.65
-639407.162
-941415.47
2029
-1394048.2
-921676.93
-1081826.6
-1704302.83
2033
-1239383.17
-1050715.82
-711546.624
-1297286
2037
-1066612.66
-726963.469
-1281284.59
-1615106.55
2041
-1059320.12
-989725.536
-787987.163
-1662778.43

2381
-1162831.48
-1347522.04
-1539994.99
-1865095.64
2385
-1452805.55
-1649419.45
-1041207.3
-971702.658
2389
-1049842.78
-1820773.87
-1180571.29
-723829.03
2393
-1936024.96
-1750640.98
-1390188.69
-1877283.55
2397
-852533.914
-2104655.14
-1825193.83
-808685.809
2401
-954392.246
-1096859.66
-1931252.73
-1225915.06
2405
-1281828.42
-463001.724
-1049722.34
-1090279.1

2045
-1945692.77
-1093435.43
-1136798.67
-676895.94
2049
-1656378.93
-1336701.55
-2133754.1
-1406359.92
2053
-1637227.95
-1157277.29
-1164169.81
-1868366.1
2057
-1964561.18
-1119937.73
-930594.384
-1068509.05
2061
-1351777.27
-1276546.42
-1366941
-867100.526
2065
-1146447.52
-503807.494
-1106066.01
-1097173.16
2069
-1700055.46
-1245160.28
-820593.437
-1208570.97

1961
-979620.174
-1314130.46
-1417376.74
-635583.74
1965
-548406.309
-1305704.92
-1004159.71
-1405769.7
1969
-672633.504
-1078260.82
-1364547.94
-1207749.31
1973
-666785.074
-487400.903
-2483235.29
-1267854.48
1977
-1476207.53
-1213420.79
-1196477.58
-785271.953
1981
-1163290.89
-1230843.4
-679652.905
-1228552.15
1985
-1262246.53
-1276466.08
-1091466.19
-1105418.96

1709
-774779.054
-1438724.2
-1220130.26
-1186803.58
1713
-1485404.82
-1003687.79
-551082.751
-1206482.23
1717
-891426.65
-957133.715
-1233866.87
-1575815.39
1721
-1493349.91
-1160166.94
-899085.443
-1033741.76
1725
-1169510.01
-1442882.39
-1631741.92
-1111682.6
1729
-1059311.19
-1071329.81
-1475806.44
-1657796.66
1733
-1338593.02
-1602766.38
-1528794.34
-465675.235

2213
-968671.472
-1334467.45
-809962.808
-1278268.32
2217
-2106875.32
-1638045.83
-633225.051
-900152.087
2221
-817148.497
-1420948.16
-1614033.8
-879542.514
2225
-1244681.37
-856601.179
-1528671.99
-1322587.43
2229
-1099540.69
-1078451.63
-1340704.5
-1196107.05
2233
-1003488.88
-998367.998
-926645.249
-972264.241
2237
-1319069.47
-790726.557
-997822.274
-1031303.81

2297
-929521.189
-1041483.87
-1319093.67
-1630897.71
2301
-1673204.26
-1524269.83
-708941.504
-1119776.25
2305
-2062001.97
-1187348.83
-1019863.05
-1478143.79
2309
-800428.935
-1110705.2
-857968.693
-1053500.13
2313
-1185411.21
-944924.415
-942298.821
-1012038.26
2317
-1277516.93
-610654.654
-1338568.86
-1500778.93
2321
-1193890.39
-1060541.36
-1278535.63
-1038344.8

2073
-1086681
-1001023.32
-728374.607
-1446217.72
2077
-1190550.39
-1061913.61
-1525083.13
-988799.358
2081
-1470108.75
-749589.417
-1593918.25
-1098970
2085
-1399823.55
-1045197.4
-1141852.45
-987418.423
2089
-1109430.19
-1470850.7
-1520828.89
-875967.914
2093
-767852.087
-1302293.52
-1179144.78
-1809239.44
2097
-951267.011
-899827.85
-1566144.95
-1643306.9

2129
-799998.748
-870582.846
-1207234.75
-879753.875
2133
-1064191.1
-1451425.14
-860208.686
-789888.549
2137
-1442956.58
-349628.78
-1310539.57
-754384.003
2141
-1124076.08
-1129718.83
-1245969.5
-1266601.72
2145
-936752.11
-1086336.28
-1157988.98
-751347.22
2149
-710976.694
-1969711.52
-950256.668
-939571.999
2153
-1383058.85
-926545.771
-1035579.35
-1222383.45

2157
-1687248.43
-624982.326
-1258676.33
-1568771.66
2161
-1137250.06
-1795929.34
-1688129.5
-1190219.54
2165
-1079808.76
-1296788.97
-1067236.44
-655291.369
2169
-1809515.13
-1043645.26
-1512814.16
-1704481.89
2173
-1902409.47
-1225454.62
-661488.178
-1042459.23
2177
-1272798.53
-1463755.39
-1355333.14
-1522195.19
2181
-771937.419
-779382.802
-1701218.06
-684141.956

1849
-1102064.13
-1014199.11
-694482.312
-1344016.14
1853
-1747703.54
-1020115.48
-1526094.47
-1564816.86
1857
-1309380.75
-975583.34
-736472.571
-1135935.21
1861
-865886.451
-1165736.36
-1115010.45
-1135683.23
1865
-1627972.66
-1789139.64
-1155267.4
-1282517.64
1869
-692770.737
-1002851.61
-1032497.13
-1523337.75
1873
-1281910.44
-575929.095
-1269965.43
-1033474.04

2101
-1501966.35
-975932.18
-1552106.33
-1355707.25
2105
-1314858.25
-2140388.31
-989835.799
-1033441.59
2109
-1128145.56
-1274273.48
-1240823.92
-1507172.4
2113
-1716408.58
-1145487.37
-742928.674
-1512800.21
2117
-725422.559
-911592.705
-740297.177
-1520806.61
2121
-1087207.5
-1359761.49
-1255899.12
-2139610.9
2125
-1143661.9
-777938.1
-694981.231
-517975.463

2605
-866101.079
-1187097.14
-906860.904
-1206269.08
2609
-792894.904
-1513180.37
-1880760.85
-2140431.62
2613
-1435039.64
-1542806.55
-1436422.67
-1703810.33
2617
-1366113.05
-1747419.48
-1836853.82
-1138379.85
2621
-775439.042
-1044577.08
-510422.549
-1807600.7
2625
-1778473.79
-933151.943
-1026668.52
-575455.816
2629
-924544.95
-1359700.62
-902550.538
-1249690.51

2577
-546130.777
-1130672.79
-1220690.74
-960311.15
2581
-1114415.59
-897367.054
-1763358.94
-989278.78
2585
-1581402.93
-1594866.07
-739231.616
-1566494.37
2589
-1518542.47
-1252535.4
-915249.391
-1223977.92
2593
-1548658.06
-820284.758
-914432.914
-793577.615
2597
-1459618.13
-908421.788
-601729.773
-1006047.23
2601
-578975.241
-1421023.34
-1709946.83
-893867.726

1681
-1165687.33
-894866.839
-882608.668
-1232492.46
1685
-1524248.47
-1200686.23
-1111085.16
-976846.561
1689
-779001.538
-1445715.91
-1836213.71
-1075700.17
1693
-901751.719
-1076614.82
-828825.724
-954703.261
1697
-1871297.81
-914508.137
-958498.75
-1072030.45
1701
-1415709.24
-1239397.45
-1564295.41
-530610.396
1705
-1223227.93
-768822.847
-1148150.34
-1521669.92

2829
-491394.267
-2094063.17
-964746.082
-1080252.43
2833
-1306594.96
-758080.595
-1199544.85
-1171562.64
2837
-843212.792
-1322514.54
-829423.184
-1423647.51
2841
-676196.947
-909564.888
-937649.232
-1925357.91
2845
-1363162.04
-1174280.92
-2010947.72
-1758402.83
2849
-1460040.19
-1102148.19
-1156704.21
-1051230.72
2853
-1061294.06
-1715768.58
-824029.288
-1966631.43

2325
-1285386.79
-899205.196
-814753.806
-1612452.04
2329
-1865257.44
-936599.393
-659886.305
-927643.166
2333
-705144.738
-2181517.35
-899433.384
-1083809.76
2337
-1579538.98
-1282021.63
-1192789.09
-1241455.52
2341
-909396.869
-1724779.34
-1131136.73
-642514.678
2345
-623604.818
-1601705.72
-1482331.06
-1357058.53
2349
-1656622.97
-1818689.37
-1228541.6
-844299.008

2269
-1090483.65
-1452384.26
-1425441.54
-1317250.11
2273
-1437768.69
-1982727.48
-1557567.13
-1521185.42
2277
-1106821.15
-889954.403
-1459719.32
-1990165.18
2281
-1140771.9
-1391505.97
-833718.74
-881543.502
2285
-919911.672
-374289.444
-659423.234
-491571.559
2289
-777435.81
-1051415.1
-1108127.42
-1303781.5
2293
-1822896.91
-1071209.3
-782703.576
-990769.164

2941
-863173.193
-1296101.27
-1078794.36
-580155.458
2945
-1096560.64
-1002901.8
-1301869.11
-748691.119
2949
-1107257.46
-904036.786
-1586990.36
-1415757.09
2953
-1441035.53
-1258480.94
-1608597.54
-864393.228
2957
-1093460.93
-1398796.57
-1174788.35
-1452950.18
2961
-1081853.24
-1383360.57
-1446953.35
-1494615.3
2965
-1582094.8
-1840039.86
-708822.455
-1018701.98

1765
-1376072.23
-806724.063
-1298706.15
-1209667.16
1769
-1429203.5
-1849388.31
-1295529.33
-1528520.58
1773
-853568.764
-1992366.62
-1939678.39
-1102935.03
1777
-826208.473
-1437023.26
-1325389.57
-821104.825
1781
-1062711.29
-774697.732
-877764.773
-867534.191
1785
-1656683.96
-1561643.94
-558521.56
-1454070.14
1789
-929855.46
-990059.498
-993128.3
-467349.066

1989
-531101.127
-842012.295
-1511120.06
-1685294.04
1993
-1507087.48
-1785519.41
-1977734.07
-792211.995
1997
-847872.537
-906074.576
-1944326.61
-807961.46
2001
-1539263.95
-966243.935
-637890.121
-1405235.06
2005
-1544149.05
-1472219.82
-1063771.77
-1065701.49
2009
-623288.923
-1260546.54
-1693684.35
-1294556.48
2013
-1107873.88
-933055.452
-1152101.43
-733636.819

2521
-1008042.39
-828481.949
-1190836.31
-1777497.48
2525
-1298684.25
-1684591.46
-947168.075
-1142745.76
2529
-1042558.01
-2185912.71
-1169628.57
-1238481.27
2533
-2440993.54
-2130095.3
-1219074.91
-1460934.62
2537
-1153655.31
-846842.325
-1703301.9
-785438.596
2541
-1434270.24
-1112544.4
-1693380.72
-1585968.09
2545
-1175878.9
-1444278.53
-1093731.04
-729861.89

1037
-1623553.43
-1709499.92
-1158801.79
-725121.59
1041
-1363555.63
-1237427.55
-995696.917
-841517.643
1045
-1867823.36
-1196894.71
-489067.073
-1621401.74
1049
-1237541.69
-1034473.31
-1033712.56
-665338.068
1053
-1198796.77
-1004754.3
-886262.734
-885159.794
1057
-2361745.56
-1004692.39
-1070701.27
-1233617.86
1061
-882927.545
-1180019.94
-962680.198
-628095.664

2493
-918829.224
-1087302.15
-1406014.6
-1050823.87
2497
-1635841.34
-1282889.87
-1519602.36
-927219.508
2501
-1328646.99
-1071521.99
-1284177.24
-844233.723
2505
-1634160.34
-662443.266
-2064324.26
-1363637.89
2509
-946317.631
-1292433.04
-1151173.93
-1688680.51
2513
-484809.508
-551923.271
-1597417.03
-1353009.55
2517
-701184.037
-1866446
-1180153.6
-2006428.61

2437
-1131987.89
-1289840.87
-1525603.36
-1553229.69
2441
-1123931.97
-848876.629
-853061.359
-958544.251
2445
-1256182.89
-1295081.81
-888001.875
-760475.62
2449
-1607384.54
-1655033.83
-1193820.23
-651084.508
2453
-1238736.11
-1551441.55
-1443563.53
-898729.205
2457
-1493169.47
-1269691.5
-719607.325
-1257405.88
2461
-1824273.43
-987379.975
-1323624.84
-1148428.34

3053
-1196694.2
-1327565.69
-1181300.8
-1568997.9
3057
-1388431.8
-1226622.8
-1640049.22
-951225.284
3061
-1236949.91
-1008158.67
-1099928.07
-1043937.79
3065
-1536406.72
-1246212.08
-1039770.22
-790695.875
3069
-878525.173
-1150993.35
-1339696.51
-1654466.21
3073
-1162443.36
-2152313.67
-1341381.64
-799316.735
3077
-2129995.93
-1792008.44
-1195901.7
-668890.3

2549
-1348533.04
-701299.612
-763301.09
-1841768.28
2553
-1493428.15
-596312.662
-1370169.4
-1442107.49
2557
-1099535.38
-973797.386
-798110.194
-1074478.43
2561
-1323478.58
-1349158.12
-905348.286
-1111999
2565
-1379294.52
-1926070.43
-1201494.61
-880950.722
2569
-597786.212
-1217552.05
-1389867.15
-1624308.87
2573
-1712791.03
-1294311.87
-1490933.65
-1660610.93

2689
-1738786.43
-1804645.46
-1019807.85
-854867.942
2693
-887719.177
-1492704.3
-1828586.69
-1051646.21
2697
-1678476.42
-1060155.98
-1224395.54
-998383.02
2701
-1527102.34
-1769541.78
-1152832.88
-928987.414
2705
-841917.216
-1868387.77
-871992.907
-1656077.93
2709
-660175.542
-1473706.07
-1253355.71
-717389.807
2713
-1070248.87
-989906.105
-1112871.81
-1312712.65

2409
-1349751.61
-1566800.66
-923462.736
-1146594.08
2413
-748028.599
-1066569.33
-1380987.1
-1632490.29
2417
-1399330.24
-1137028.02
-1181875.59
-988872.592
2421
-725973.423
-1153765.16
-598417.627
-1489904.33
2425
-1470654.83
-1150025.8
-1677580.62
-1000747.77
2429
-1996224.8
-1241166.96
-1534696.76
-1045652.73
2433
-1511233.8
-1023775.16
-1130157.66
-1388208.29

3081
-1137784.57
-1387260.96
-1112353.15
-2258819.18
3085
-1163593.77
-861026.708
-1165836.63
-1033663.75
3089
-943837.791
-815084.461
-1509900.77
-817800.834
3093
-1076680.14
-1626396.32
-1219373.16
-1094335.94
3097
-1017610.02
-1023511.83
-991615.191
-1616910.7
3101
-910496.945
-1313985.91
-1328262.66
-973187.659
3105
-2018069.9
-743037.798
-1197342.06
-1192824.36

2997
-906373.825
-1606774.38
-1020332.23
-740503.874
3001
-875656.461
-1680783.79
-1292525.54
-1327966.25
3005
-996478.177
-1178377.68
-1548891.98
-1029400.13
3009
-1023861.57
-812416.11
-1340656.95
-910038.565
3013
-634854.847
-753510.487
-758875.385
-1086325.08
3017
-1252756.51
-2014798.19
-1679000.88
-665965.244
3021
-1695588.12
-1383538.54
-1156742.53
-1609264.17

2353
-1344943.66
-1844329.91
-1241214.72
-1077878.81
2357
-1196708.31
-1075547.09
-1460977.18
-1361090.54
2361
-638629.988
-1746100.03
-803894.436
-2000694.26
2365
-1233556.15
-1463820.37
-974986.261
-1018228.8
2369
-592427.214
-1274408.89
-1263597.5
-1186560.74
2373
-969461.455
-578078.046
-1253767.52
-1360299.77
2377
-707576.94
-962794.741
-1339503.97
-1185200.52

2465
-748187.558
-893231.792
-1045055.16
-1246021.7
2469
-1470846.13
-790723.768
-1018946.23
-1324224.37
2473
-664323.767
-807740.61
-844785.201
-749290.182
2477
-978221.933
-1196114.39
-1757048.02
-943820.155
2481
-1555683.47
-891019.229
-1087196.72
-1050174.98
2485
-1102179.54
-919378.674
-580577.417
-1337066.27
2489
-1857213.68
-842054.748
-644687.311
-1035625

3109
-960655.391
-418760.653
-1131370.47
-2155031.17
3113
-1970621.5
-1401805.18
-1051698.64
-491957.412
3117
-1204038.17
-1436817.52
-991069.689
-928819.479
3121
-1293834.28
-1324997.65
-881502.037
-1418369.3
3125
-977770.924
-565433.107
-1676198.21
-974102.715
3129
-1482730.93
-1168835.58
-1821262.29
-1740473.28
3133
-1096787.73
-999458.503
-895083.267
-901595.238

3165
-1107550.89
-1567548.54
-771653.222
-1039265.06
3169
-966232.451
-1330964.18
-1487023.63
-1225846.8
3173
-852877.069
-1261200.81
-1197258.57
-1310623.46
3177
-1657493.02
-1196664.82
-768443.769
-1230548.56
3181
-721415.401
-762673.128
-1191447.09
-1104586.12
3185
-1183538.47
-1356615.27
-1539085.45
-1939377.09
3189
-894345.336
-797206.813
-882749.166
-1648415.71

2241
-1346194.92
-1103016.42
-1463074.72
-684857.345
2245
-1215536.76
-1613736.95
-1276259.72
-1225369.77
2249
-1114951.58
-1217730.9
-939822.716
-1596467.88
2253
-1058626.48
-1670357.62
-938274.414
-758330.695
2257
-1540963.36
-1037274.19
-1291641.62
-1411032.63
2261
-1488696.87
-956643.739
-813254.985
-973734.63
2265
-1217963.07
-785022.601
-1086574.27
-1421384.46

2745
-981774.881
-1383749.71
-964534.275
-1757382.1
2749
-1112686.14
-1004530.77
-965225.823
-1182522.48
2753
-1070737.57
-1571424.45
-1093506.05
-942886.007
2757
-1024330.42
-1065659.34
-890105.962
-960493.031
2761
-1583629.74
-831474.671
-1779592.07
-1953088.86
2765
-832744.113
-1391845.52
-1178637.31
-428625.963
2769
-545837.006
-1048973.98
-1906109.19
-1514960.27

3697
-874932.194
-1170930.33
-1131802.92
-1401470.29
3701
-891816.594
-1738840.27
-1535985.07
-1432958.28
3705
-1815117.67
-1270481.23
-1188304.43
-1559458.78
3709
-1007645.2
-982484.371
-1864594.56
-843110.451
3713
-1245778.7
-1535200.77
-1663286.48
-1421851.38
3717
-1255544.05
-832182.978
-1013958.84
-838627.322
3721
-1297397.19
-1380915.7
-1307481.91
-642160.593

2773
-1082902.98
-1122991.21
-1745691.41
-1022111.26
2777
-1325288.76
-924174.072
-890463.639
-1587542.8
2781
-1170258.14
-659902.945
-722200.681
-1185091.37
2785
-1176703.63
-1155904.89
-1025936.88
-850441.115
2789
-849153.684
-940472.86
-933688.179
-1018111.41
2793
-465939.531
-788755.556
-1205608.39
-910213.265
2797
-1822920.07
-894892.455
-1292580.31
-1282454.34

3417
-1272644.93
-843724.792
-845831.788
-1245067.54
3421
-1508851.13
-627535.732
-1497399.33
-1057281.83
3425
-920194.566
-1284687.68
-1169022.43
-717566.717
3429
-883726.112
-2083979.01
-1465919.68
-940521.742
3433
-1346347.86
-1101664.44
-1485757.43
-1035882.45
3437
-1029642.45
-1028763.39
-1259960.6
-1266168.36
3441
-1320308.99
-1079010.7
-1010239.11
-1221171.14

2885
-1522177.54
-1103956.58
-2077422.66
-1987761.85
2889
-1234932.89
-494420.54
-1549337.81
-1224746.43
2893
-1290190.62
-1043773.33
-1388585.61
-1245912.92
2897
-517763.959
-1062893.46
-1451514.79
-993574.953
2901
-1125513.85
-1387363.54
-1776228.62
-764213.449
2905
-992569.11
-1140094.76
-1384947.35
-1763236.24
2909
-968588.999
-965152.644
-1295587.89
-1333531.58

3137
-1437750.76
-903770.991
-988543
-1377565.02
3141
-1229510.16
-749170.036
-817641.528
-1679639.14
3145
-782088.656
-1568480.29
-866304.661
-1110453.5
3149
-1418041.38
-953811.778
-1043627.11
-663396.877
3153
-1167594.68
-1960850
-1472809.17
-1079273.49
3157
-1388792.72
-1487626.87
-1547691.22
-1067549.61
3161
-1249216.2
-1520336.51
-469884.957
-634381.425

3193
-829339.665
-1999748.95
-1035230.28
-969615.959
3197
-1578007.35
-475226.626
-829463.733
-1082878.26
3201
-1202423.82
-990063.618
-1058050.28
-1359315.44
3205
-785836.463
-967452.239
-765051.884
-909313.623
3209
-1301023.48
-1093333.87
-1343945.9
-1690507.6
3213
-1258019.41
-1239139.43
-1854237.63
-1441127.31
3217
-1246284.67
-854338.219
-1126143.36
-1122247.96

3669
-648192.242
-1275150.21
-1514761.55
-1134060.39
3673
-1745064.43
-1172045.4
-1124372.19
-1329504.35
3677
-1117641.19
-1550526.14
-1054678.2
-1283798.8
3681
-1572606.99
-1264750.28
-1806073.09
-1382778.16
3685
-2038431.85
-1202034.02
-1185659.75
-1126989.56
3689
-1458960.78
-1010434.18
-1354039.8
-1006551.58
3693
-1089540.6
-1305247.6
-2061383.93
-921200.17

2185
-1735023.03
-1031332.51
-1396654.68
-777491.041
2189
-995066.072
-1093860.87
-1588426.27
-1183855.17
2193
-2340100.46
-1161919.84
-1156576.09
-451997.472
2197
-1285069.45
-1852831.21
-1053492.71
-1433676.92
2201
-580910.177
-1806506.81
-1398963.82
-769557.765
2205
-1150526.07
-2061683.18
-821755.967
-749356.16
2209
-1212187.4
-667125.443
-662255.54
-1427852.72

3585
-1252989.24
-1474803.85
-1958048.21
-1115325.29
3589
-481551.533
-1036203.51
-1263133.67
-1064353.66
3593
-705503.304
-1085869.49
-928056.414
-1290109.16
3597
-1048140.93
-961809.18
-1500395.62
-1103584.02
3601
-1339607.8
-758150.299
-1212407.74
-912103.276
3605
-953008.543
-1264707.77
-771218.48
-1274201.52
3609
-799075.519
-1486585.01
-1296820.74
-1285802

3473
-765099.794
-1067037.42
-1339116.29
-469034.722
3477
-811089.463
-872778.132
-1317415.36
-1083737.44
3481
-1003374.32
-2246010.74
-1244705.42
-913326.239
3485
-1050345.5
-1124575.8
-752516.18
-1923755.92
3489
-1249190.57
-1030017.46
-1909014.46
-1059902.27
3493
-1893408.73
-1034874.78
-596595.943
-1286686.19
3497
-656256.885
-1409185.95
-2071127.62
-1500315.16

3529
-1534052.28
-1203893.17
-828504.562
-1185269.12
3533
-1809592.97
-1345542.86
-1747979.97
-791309.697
3537
-1422467.87
-1231557.94
-1902313.82
-1011085.44
3541
-1243628.95
-1069894.03
-1415002.51
-1421094.55
3545
-915936.441
-1195806.97
-1439658.81
-1552313.17
3549
-1083657.24
-1663797.84
-1461325.15
-767430.382
3553
-1471971.54
-683318.824
-1650407.51
-777821.342

3613
-1189293.55
-832876.088
-1593689.5
-818969.751
3617
-1497598.12
-1462895.25
-1162632.05
-884591.196
3621
-840540.688
-1493436.2
-1370165.45
-1260530.83
3625
-1196166
-1585879.24
-1697451.69
-549645.755
3629
-656892.543
-980737.242
-667840.369
-1000771.56
3633
-1077768.65
-789898.704
-1598701.64
-832338.622
3637
-608120.976
-1902634.43
-1755906.12
-1781244.12

2801
-1107067.16
-2304293.84
-1755018.32
-968896.886
2805
-1274971.1
-1688418.48
-1108109.41
-1074042.12
2809
-1345070.78
-647157.276
-1296003.58
-1803242.14
2813
-1105929.6
-731018.153
-875758.875
-956978.251
2817
-1221275.16
-1281457.51
-650829.557
-1411651.24
2821
-1283469.99
-1740176.46
-1196578.68
-1000551.94
2825
-1222036.79
-1187510.25
-1662495.14
-919664.862

1205
-1680545.16
-1358139.02
-926268.538
-1094586.81
1209
-1375699.37
-1009496.78
-813611.126
-695497.503
1213
-1048794.14
-744881.787
-1399151.53
-938683.519
1217
-868490.924
-950080.726
-1748230.34
-1298956.63
1221
-785260.568
-956643.757
-1586226.68
-1203495.52
1225
-860955.584
-1067693.73
-1102905.9
-1740997.57
1229
-891202.494
-1294498.6
-1164679.17
-1515378.66

2633
-1232990.96
-1102350.05
-973304.701
-1831343.8
2637
-914358.089
-1303304.7
-1505727.35
-1521790.77
2641
-915614.531
-1261899.81
-871979.556
-545617.94
2645
-1027131.37
-997116.005
-1059966.38
-804963.301
2649
-1196829.99
-1141082.74
-1146627.33
-1421480.43
2653
-1513374.42
-1145186.87
-1122137.41
-1255087.85
2657
-901849.917
-1838221.08
-1331776.32
-780756.712

2717
-824190.493
-1645919.21
-1975650.04
-607990.094
2721
-1759366.13
-1004839.52
-1922335.19
-681651.481
2725
-1606047
-1008645.55
-989734.502
-896195.893
2729
-1444171.97
-1016920.53
-1701305.3
-893458.017
2733
-1141083.02
-1070854.16
-1085167.75
-726771.128
2737
-1261080.3
-1365254.57
-1051471.68
-606623.844
2741
-729893.762
-1229631.89
-1865159.46
-1123274.72

3445
-1610628.43
-1065207.99
-750648.482
-997753.816
3449
-765551.718
-968961.025
-867578.973
-1794329.65
3453
-886505.15
-901672
-1001345.65
-803458.323
3457
-1328352.62
-1487069.25
-1401762.34
-1251662.98
3461
-707649.559
-264135.142
-1469632.99
-1439353.28
3465
-1199092.1
-1637352.1
-1040733.58
-954839.718
3469
-759172.184
-662414.381
-854807.641
-1041609.04

3557
-1220101.72
-1284854.7
-1165789.8
-1478849.63
3561
-1483298.43
-1665703.53
-1064401.39
-2357749.99
3565
-831469.983
-1171621.75
-1233305
-785566.146
3569
-649583.843
-903954.38
-1358041.07
-1319133.53
3573
-1316861.1
-1005224.93
-816920.867
-623821.16
3577
-1031757.38
-1744693.69
-896960.443
-958525.597
3581
-1734672.55
-1525014.13
-829865.217
-1137421.89

3641
-1035052.15
-1884597.66
-1039764.83
-1195369.49
3645
-561443.442
-981220.483
-1828228.81
-806966.297
3649
-1781522.77
-1179893.09
-1565025
-705720.234
3653
-1304344.2
-1370664.47
-1114769.66
-846598.132
3657
-734453.363
-1462284.19
-967573.794
-1733724.07
3661
-875078.06
-1111653.94
-727910.278
-757725.966
3665
-1841456.68
-956336.331
-1646932.6
-925712.667

2661
-791599.244
-2405149.79
-1566579.98
-725224.866
2665
-864905.262
-2205712.94
-1595929.6
-941202.444
2669
-915254.312
-1407479.54
-906451.693
-736786.858
2673
-974405.811
-1146965.12
-1229731.56
-1695743.74
2677
-818848.525
-487218.964
-1140294.37
-1181882.86
2681
-940768.758
-922515.665
-2235832.07
-638633.34
2685
-1036546.08
-769204.217
-622434.286
-1308304.76

3025
-1296191.21
-1874310.6
-967791.861
-1006597.6
3029
-1080827.74
-756062.822
-1073878.21
-1131074.53
3033
-990604.701
-1035788.91
-705162.027
-1111577.54
3037
-1069784.63
-486332.958
-1619887.26
-986549.589
3041
-1137154.05
-655885.612
-1549686.31
-1376292.62
3045
-983698.745
-1335475.25
-1059187.27
-770294.166
3049
-712191.072
-1146155.96
-1644725.58
-1166968.52

2969
-1000103.42
-1790155.6
-1051974.45
-1231074.25
2973
-766599.999
-1006750.1
-1671535.89
-814699.693
2977
-1018295.05
-1240007.74
-887385.849
-1346182.28
2981
-1244374.47
-1462823.02
-1151239.33
-724921.059
2985
-1389025.59
-705137.969
-1314143.68
-1196482.37
2989
-1103004.91
-999801.493
-1033534.66
-1249794.77
2993
-1094065.55
-994184.787
-1209098.43
-1170315.25

2857
-1680450.77
-2017909.28
-1212269.88
-1217831.2
2861
-1918196.43
-1419318.35
-952668.001
-1316232.49
2865
-1080732.85
-1249256.14
-1101603.1
-1311181.78
2869
-948489.549
-1625984.29
-1155259.36
-753583.102
2873
-1013852.35
-668684.188
-1238518.75
-1020050.86
2877
-1492242.08
-1060602.3
-957389.195
-842933.169
2881
-868309.819
-1205019.42
-1059943.67
-996049.551

3893
-1070587.73
-1575709.66
-736320.575
-1052786.29
3897
-714597.965
-1119872.15
-1522333.92
-1026859.64
3901
-1095092.61
-1082675.08
-1409870.19
-1836625.02
3905
-1165241.19
-997205.59
-958938.226
-1005196.49
3909
-1131176.69
-944460.668
-1318324.36
-674988.834
3913
-1358248.19
-1202211.01
-913473.324
-1609696.57
3917
-951366.843
-1372093.1
-2124033.27
-1296229.36

3809
-986318.181
-1135724.55
-868414.308
-1210428.53
3813
-1491417.28
-470262.926
-1611304.5
-929395.087
3817
-934535.606
-748190.974
-1093335.63
-1189824.93
3821
-1463682.87
-1187680.09
-1152811.81
-1317723.88
3825
-1170094.39
-1013756.83
-1232311.4
-937998.32
3829
-1126687.04
-991791.821
-1009354.87
-1207202.66
3833
-848850.987
-1296411.34
-1224765.4
-892706.439

4061
-890332.935
-1127995.42
-969646.542
-912565.183
4065
-1550255.95
-1219325.83
-1686960.27
-1363987.86
4069
-835718.743
-1270179.23
-1526849.66
-1330503.55
4073
-1109686.68
-1532660.55
-953946.429
-566413.443
4077
-1438359.31
-1101919.35
-1111135.41
-948485.068
4081
-1134001.42
-740920.608
-939491.051
-915059.071
4085
-1772030.54
-1689717.18
-1573577.11
-1137447.54

3753
-896093.889
-983968.415
-1522597.14
-875750.691
3757
-1551235.95
-1066623.86
-1515079.84
-639661.573
3761
-1209631.02
-1348841.36
-1305153.37
-1029212.08
3765
-1361778.36
-889986.322
-881895.827
-1088534.02
3769
-773478.786
-1387625.3
-1009911.34
-1352189.29
3773
-994731.424
-1144368.42
-1315837.28
-935382.936
3777
-1097620.36
-1442003.25
-1270071.36
-1679468.81

3865
-2025027.35
-1305028.24
-1178707.93
-980577.141
3869
-1363188.38
-1332971.79
-1812960.03
-956717.897
3873
-1060338.57
-1798378.5
-980431.035
-773355.441
3877
-800781.403
-1127494.19
-959835.553
-779963.019
3881
-872544.502
-575509.342
-1124955.36
-877425.549
3885
-576765.395
-1342928.8
-1739055.12
-942782.488
3889
-1244326.83
-770390.564
-1389466.75
-1313405.19

3781
-1041305.81
-784414.438
-1143636.45
-1067727.33
3785
-1004273.1
-1367220.24
-503585.573
-1029066.91
3789
-1578255.7
-1190106.51
-1191002.52
-1005613.08
3793
-1210372.44
-735305.3
-892902.16
-723672.41
3797
-1258269.84
-1036846.21
-777174.841
-809190.077
3801
-1169291.83
-1009395.13
-993829.147
-994844.625
3805
-1132982.53
-668131.001
-1055569.33
-938930.464

3949
-876469.645
-1104746.87
-1466367.8
-907810.521
3953
-1269915.18
-609840.569
-862718.847
-1206272.2
3957
-914335.91
-1516692.52
-758043.03
-1290082.24
3961
-867310.619
-1143706.49
-1400056.16
-1682237.45
3965
-1199829.76
-778382.035
-947913.151
-1162827.08
3969
-1140546.89
-2181583.25
-1018366.88
-791733.199
3973
-1679290.74
-727310.532
-863162.265
-917606.818

3921
-944698.289
-1395110.69
-839519.998
-2088797.61
3925
-961280.065
-1669377.22
-1585951.78
-881969.814
3929
-945772.445
-1401380.29
-1714584.67
-1906894.98
3933
-1001655.29
-1214937.74
-1759503.15
-1446216.27
3937
-1298807.73
-914457.95
-904650.289
-1052129.91
3941
-936313.764
-957179.304
-935712.657
-840236.629
3945
-1607954.08
-872140.918
-942321.236
-2015800.1

4005
-1404293.89
-1437107.05
-1049454.6
-2530500.59
4009
-901263.16
-894475.72
-1213502.54
-877449.548
4013
-1740493.54
-944728.703
-860678.145
-1137539.04
4017
-995196.879
-921611.706
-792109.868
-1641105.7
4021
-1506024.86
-1230930.95
-1227119.4
-988366.484
4025
-790767.44
-1106761.88
-1206505.24
-1024202.38
4029
-1255731.55
-927416.086
-800315.187
-1012011.32

3977
-1114437.72
-1169513.95
-1391010.52
-1266090.59
3981
-1099791.91
-1571748.26
-916244.873
-1130015.33
3985
-1121041.24
-853147.061
-1111169.92
-915477.722
3989
-1331270.32
-1022957.36
-1180919.89
-965207.538
3993
-1297838.02
-1657318.04
-1036597.06
-918721.757
3997
-611124.445
-1128075.4
-998878.984
-1195868.38
4001
-1108266.25
-1513662.7
-1167056.8
-740223.727

4033
-1012389.83
-740616.52
-1441980.53
-1185499.43
4037
-1099802.44
-1428954.64
-863293.531
-1915339.73
4041
-900562.479
-1311610.11
-966269.823
-1143779.74
4045
-1039485.22
-412250.278
-1858169.62
-1537631.21
4049
-1395332.51
-989037.522
-1035007.5
-808169.712
4053
-1633185.93
-1586366.69
-1359796.09
-1224311.72
4057
-500706.479
-1019639.84
-1062454.27
-1142561.27

1457
-1403069.04
-1497546.86
-1222915.17
-952300.181
1461
-1289566.55
-1580401.12
-498045.599
-1047034.72
1465
-1161424.78
-1025918.11
-854339.021
-1231199.88
1469
-2170257.65
-959098.501
-1295790.6
-1075794.82
1473
-1197739.25
-880347.947
-1259128.76
-1045413.7
1477
-1398624.03
-807848.255
-893578.533
-873858.613
1481
-1327943.24
-1355028.57
-1173195.23
-1308258.75

1513
-1419066.47
-1547348.61
-833045.093
-1282467.37
1517
-628154.866
-959158.114
-1291197.82
-1424106.96
1521
-978803.393
-1595373.73
-1386153.55
-890807.479
1525
-1231407.85
-1085329.75
-1850723.26
-1358476.49
1529
-1054523.09
-764776.229
-962410.882
-904831.081
1533
-1285826.95
-562035.003
-1516193.89
-1883726.48
1537
-1340581.84
-1418849.79
-461973.155
-1501923.43

1485
-1269649.11
-1066630.44
-932291.303
-1533034.07
1489
-1184216.69
-1435109.48
-831526.929
-1738961.68
1493
-1340135.8
-1498983.38
-1831944.55
-1003919.32
1497
-1512982.36
-1334514.94
-1183173.25
-1338306.65
1501
-1233541.85
-723657.317
-678839.113
-1819950.58
1505
-1132899.51
-1132355.87
-683115.981
-1762367.18
1509
-1183109.59
-643063.508
-1745520.75
-1213029.28

3501
-1636106.58
-2171953.88
-1022890.24
-998196.203
3505
-1061591.81
-990730.781
-1706580.48
-1277516.78
3509
-1213075.06
-519793.809
-1247150.54
-1229024.35
3513
-1258282.92
-1252158.31
-1216297.23
-1051409.65
3517
-1539062.74
-1022190.61
-889733.84
-1234107.42
3521
-1863060.04
-852489.241
-1559494.92
-800835.601
3525
-1011782.31
-1768853.49
-1379189.06
-1294062.4

3333
-1561326.77
-1636020.61
-1329108.46
-1234456.66
3337
-834769.718
-1247438.99
-960975.535
-855652.179
3341
-949584.651
-782981.827
-756094.071
-1329416.59
3345
-1291293.51
-1310667.54
-1160561.93
-1189972.36
3349
-1121730.23
-1198308.07
-1713337.53
-988654.075
3353
-1618784.66
-873382.805
-1675284.71
-471154.74
3357
-2240283.22
-1416286.91
-1043284.72
-1793257.6

3277
-969473.414
-1125938.37
-1385353.8
-1063756.05
3281
-1281132.7
-878123.642
-1041767.71
-869125.628
3285
-961959.776
-852892.218
-933357.457
-763161.188
3289
-1433955.03
-1620213.65
-1079897.08
-1506456.68
3293
-801439.18
-981001.803
-1075599.19
-1050613.62
3297
-771811.878
-832068.964
-880979.649
-1511168.24
3301
-1766968.34
-939314.254
-1364959.55
-1218576.85

3221
-1302836.21
-1040479.79
-1384706.57
-1167081.79
3225
-1120926.33
-921522.779
-1699363
-1022004.88
3229
-1253397.7
-1232512.93
-679896.623
-910296.441
3233
-1370335.02
-1183292.84
-836292.937
-817199.034
3237
-1445981.99
-1497420.16
-1304771.59
-1208529.26
3241
-1151226.36
-878942.233
-1834750.21
-904027.9
3245
-1138750.5
-986004.753
-996865.67
-1241577.43

3305
-1220269.16
-827017.91
-1214064.71
-976145.782
3309
-1616360.41
-1052331.5
-898224.626
-1255869.52
3313
-1582410.65
-770270.708
-1571857.47
-1408624.75
3317
-825427.464
-1209043.63
-865943.079
-1077229.13
3321
-1004834.11
-835536.143
-1111303.53
-1765897.74
3325
-1661445.2
-1172768.23
-980730.352
-1324908.53
3329
-608371.175
-921946.65
-1696378.63
-783186.953

3389
-932699.105
-1518536.92
-858056.807
-1170042.69
3393
-948361.786
-1067292.14
-1125309.62
-2259269.1
3397
-969973.743
-1077990.72
-1147121.29
-1035985.71
3401
-1914104.66
-2249554.65
-858695.09
-1176792.05
3405
-1377495.96
-863574.79
-1211902.14
-1457921.39
3409
-1185463.09
-1247693.2
-799020.646
-1197810.13
3413
-1454020.75
-822926.249
-922351.738
-1360245.14

3249
-566526.293
-932935.75
-2354508.63
-972239.664
3253
-1275112.66
-1215663.38
-952860.792
-1092737.95
3257
-865296.371
-816745.188
-766512.337
-1230431.21
3261
-1700016.4
-992002.398
-1425375.83
-1231602.87
3265
-1227363.76
-1010995.79
-1079955.83
-828035.868
3269
-1955041.55
-1380824.27
-1118286.99
-1589680.63
3273
-1117007.99
-950431.202
-2084415.95
-952951.501

1429
-1286644.55
-1094588.97
-807252.869
-1029491.38
1433
-911022.904
-652365.92
-1167427.99
-884815.036
1437
-1723586.84
-767298.17
-1461287.44
-469864.707
1441
-2386580.4
-942569.937
-1413873.28
-1683824.62
1445
-900038.198
-1241187.92
-1622394.18
-798582.564
1449
-882558.979
-803184.704
-886572.044
-1215218.48
1453
-2125938.18
-1126689.57
-1031859.78
-1140599.83

3837
-1304323.21
-1654986.87
-1446347.93
-779778.119
3841
-717212.418
-1038950.35
-1230317.98
-1211419.21
3845
-1023199.87
-1496622.25
-1577614.39
-986138.74
3849
-1684725.75
-986241.824
-2392839.33
-644165.88
3853
-1104504.06
-1340046.57
-1168241.25
-946766.493
3857
-676195.785
-1464195.18
-889877.035
-1467196.71
3861
-914130.747
-993977.719
-1050964.98
-1708583.67

3361
-1499799.79
-1054397.22
-1329303.88
-1040003.51
3365
-1241104.52
-848902.102
-960203.781
-1189875.48
3369
-737275.617
-862320.131
-1328684.2
-803090.894
3373
-1045346.61
-1153942.49
-1294253.9
-1222098.48
3377
-741033.266
-1264495.05
-1534222.4
-1379024.21
3381
-1043815.86
-789790.903
-1648257.01
-848652.582
3385
-1162572.72
-924243.228
-1387214.35
-1158983.4

2913
-1971655.27
-1222963.19
-1292204.51
-929986.255
2917
-646357.028
-1595292.68
-1478109.83
-1531853.6
2921
-1246000.75
-1274239.69
-1262459.26
-1498516.72
2925
-509577.265
-1083412.21
-690193.703
-1294319.75
2929
-1594927.74
-1068010.08
-1047860.63
-1142841.71
2933
-622602.48
-1397989.11
-1180909.47
-1164579.58
2937
-1179182.9
-1625603.48
-1179000.26
-1084699.5

113
-900719.199
-929655.459
-1206159.15
-849441.731
117
-1201523.81
-833595.066
-900552.98
-1564822.26
121
-617479.803
-1112056.63
-707651.892
-1734715.73
125
-701910.061
-1434598.51
-1562106.44
-1531664.51
129
-940865.693
-1054927.44
-1439523.9
-1516486.02
133
-1158600.18
-665025.615
-1158260.72
-1320236.97
137
-1403596.79
-1796137.51
-1420576.17
-1027756.38

85
-1515554.09
-1498126.62
-1476318.04
-1140758.34
89
-1147018.22
-1186098.29
-700034.121
-778273.234
93
-1688285.68
-1765492.98
-1348967.98
-1211356.89
97
-1679072.36
-954878.407
-584907.145
-760732.978
101
-1053633.53
-677083.436
-829405.908
-815500.229
105
-968431.555
-761519.393
-1117454.45
-1042265.93
109
-1527753.41
-1105707.79
-1600243.4
-813530.984

225
-1818594.79
-1274771.97
-988387.654
-1112271.3
229
-831423.191
-1111696.92
-1208666.61
-1505845.5
233
-737887.376
-1086237.24
-1009365.96
-1711907.38
237
-1143733.57
-2275895.63
-1177833.3
-919728.136
241
-1061682.42
-1055791.07
-903545.539
-1250054.09
245
-1008098.97
-913592.549
-748674.782
-1036275.55
249
-1011669.27
-696920.339
-1261448.53
-1482271.32

253
-714647.244
-1497833.22
-884417.776
-1455884.32
257
-893702.257
-1414309.69
-1290837.17
-1187568.34
261
-895425.796
-1449540.84
-1393136.23
-1428094.29
265
-863990.656
-1248298.49
-991561.388
-1741477.94
269
-1048980.31
-1194641.02
-1335260.24
-997150.187
273
-647927.352
-1737096.57
-1219389.52
-922528.602
277
-1060007.83
-1283190.79
-1707790.83
-1721335.92

197
-1935182.79
-900560.377
-1941913.65
-2145869.42
201
-1319976.81
-1283064.74
-1323237.01
-911163.754
205
-1842483.91
-1158530.2
-817070.313
-848576.499
209
-1233569.75
-1403716
-1375270.38
-1151375.9
213
-1327466.02
-1784339.15
-1526823.33
-1327930.23
217
-1209473.75
-1312153.82
-1255245
-1089937.55
221
-1087017.33
-952909.427
-763898.829
-1567897.96
